package org.pushingpixels.demo.flamingo.svg.bigflag;

import java.awt.*;
import java.awt.geom.*;
import java.awt.image.BufferedImage;
import java.io.*;
import java.lang.ref.WeakReference;
import java.util.Base64;
import java.util.Stack;
import javax.imageio.ImageIO;
import javax.swing.SwingUtilities;
import javax.swing.plaf.UIResource;

import org.pushingpixels.neon.api.icon.ResizableIcon;
import org.pushingpixels.neon.api.icon.ResizableIconUIResource;

/**
 * This class has been automatically generated using <a
 * href="https://github.com/kirill-grouchnikov/radiance">Photon SVG transcoder</a>.
 */
public class Flag_of_Bhutan implements ResizableIcon {
    private Shape shape = null;
    private GeneralPath generalPath = null;
    private Paint paint = null;
    private Stroke stroke = null;
    private Shape clip = null;
    private Stack<AffineTransform> transformsStack = new Stack<>();

    

	private void _paint0(Graphics2D g,float origAlpha) {
transformsStack.push(g.getTransform());
// 
g.setComposite(AlphaComposite.getInstance(3, 1.0f * origAlpha));
transformsStack.push(g.getTransform());
g.transform(new AffineTransform(1.0f, 0.0f, 0.0f, 1.0f, 0.0f, 0.0f));
// _0
g.setComposite(AlphaComposite.getInstance(3, 1.0f * origAlpha));
transformsStack.push(g.getTransform());
g.transform(new AffineTransform(1.0f, 0.0f, 0.0f, 1.0f, 0.0f, 0.0f));
// _0_0
g.setComposite(AlphaComposite.getInstance(3, 1.0f * origAlpha));
transformsStack.push(g.getTransform());
g.transform(new AffineTransform(1.0f, 0.0f, 0.0f, 1.0f, 0.0f, 0.0f));
// _0_0_0
if (generalPath == null) {
   generalPath = new GeneralPath();
} else {
   generalPath.reset();
}
generalPath.moveTo(0.0, 0.0);
generalPath.lineTo(900.0, 0.0);
generalPath.lineTo(900.0, 600.0);
generalPath.lineTo(0.0, 600.0);
generalPath.closePath();
shape = generalPath;
paint = new Color(255, 213, 32, 255);
g.setPaint(paint);
g.fill(shape);
g.setTransform(transformsStack.pop());
g.setComposite(AlphaComposite.getInstance(3, 1.0f * origAlpha));
transformsStack.push(g.getTransform());
g.transform(new AffineTransform(1.0f, 0.0f, 0.0f, 1.0f, 0.0f, 0.0f));
// _0_0_1
if (generalPath == null) {
   generalPath = new GeneralPath();
} else {
   generalPath.reset();
}
generalPath.moveTo(0.0, 600.0);
generalPath.lineTo(900.0, 600.0);
generalPath.lineTo(900.0, 0.0);
generalPath.closePath();
shape = generalPath;
paint = new Color(255, 78, 18, 255);
g.setPaint(paint);
g.fill(shape);
g.setTransform(transformsStack.pop());
g.setComposite(AlphaComposite.getInstance(3, 1.0f * origAlpha));
transformsStack.push(g.getTransform());
g.transform(new AffineTransform(1.0f, 0.0f, 0.0f, 1.0f, 0.0f, 0.0f));
// _0_0_2
g.setComposite(AlphaComposite.getInstance(3, 1.0f * origAlpha));
transformsStack.push(g.getTransform());
g.transform(new AffineTransform(1.0f, 0.0f, 0.0f, 1.0f, 0.0f, 0.0f));
// _0_0_2_0
g.setComposite(AlphaComposite.getInstance(3, 1.0f * origAlpha));
transformsStack.push(g.getTransform());
g.transform(new AffineTransform(1.0f, 0.0f, 0.0f, 1.0f, 0.0f, 0.0f));
// _0_0_2_0_0
if (generalPath == null) {
   generalPath = new GeneralPath();
} else {
   generalPath.reset();
}
generalPath.moveTo(481.74, 187.59);
generalPath.curveTo(476.753, 185.81999, 473.53198, 188.39499, 473.694, 194.834);
generalPath.curveTo(473.853, 201.274, 477.236, 204.976, 482.224, 202.561);
generalPath.lineTo(481.74, 187.591);
generalPath.closePath();
shape = generalPath;
paint = new Color(255, 255, 255, 255);
g.setPaint(paint);
g.fill(shape);
paint = new Color(0, 0, 0, 255);
stroke = new BasicStroke(0.521f,0,0,4.0f,null,0.0f);
if (generalPath == null) {
   generalPath = new GeneralPath();
} else {
   generalPath.reset();
}
generalPath.moveTo(481.74, 187.59);
generalPath.curveTo(476.753, 185.81999, 473.53198, 188.39499, 473.694, 194.834);
generalPath.curveTo(473.853, 201.274, 477.236, 204.976, 482.224, 202.561);
generalPath.lineTo(481.74, 187.591);
generalPath.closePath();
shape = generalPath;
g.setPaint(paint);
g.setStroke(stroke);
g.draw(shape);
g.setTransform(transformsStack.pop());
g.setComposite(AlphaComposite.getInstance(3, 1.0f * origAlpha));
transformsStack.push(g.getTransform());
g.transform(new AffineTransform(1.0f, 0.0f, 0.0f, 1.0f, 0.0f, 0.0f));
// _0_0_2_0_1
if (generalPath == null) {
   generalPath = new GeneralPath();
} else {
   generalPath.reset();
}
generalPath.moveTo(486.12, 175.53);
generalPath.curveTo(481.966, 172.25, 478.09, 173.656, 476.17398, 179.806);
generalPath.curveTo(474.258, 185.955, 476.27, 190.548, 481.77, 189.864);
generalPath.lineTo(486.12, 175.531);
generalPath.closePath();
shape = generalPath;
paint = new Color(255, 255, 255, 255);
g.setPaint(paint);
g.fill(shape);
paint = new Color(0, 0, 0, 255);
stroke = new BasicStroke(0.521f,0,0,4.0f,null,0.0f);
if (generalPath == null) {
   generalPath = new GeneralPath();
} else {
   generalPath.reset();
}
generalPath.moveTo(486.12, 175.53);
generalPath.curveTo(481.966, 172.25, 478.09, 173.656, 476.17398, 179.806);
generalPath.curveTo(474.258, 185.955, 476.27, 190.548, 481.77, 189.864);
generalPath.lineTo(486.12, 175.531);
generalPath.closePath();
shape = generalPath;
g.setPaint(paint);
g.setStroke(stroke);
g.draw(shape);
g.setTransform(transformsStack.pop());
g.setComposite(AlphaComposite.getInstance(3, 1.0f * origAlpha));
transformsStack.push(g.getTransform());
g.transform(new AffineTransform(1.0f, 0.0f, 0.0f, 1.0f, 0.0f, 0.0f));
// _0_0_2_0_2
if (generalPath == null) {
   generalPath = new GeneralPath();
} else {
   generalPath.reset();
}
generalPath.moveTo(493.04, 163.86);
generalPath.curveTo(489.46002, 159.955, 485.41, 160.722, 482.532, 166.485);
generalPath.curveTo(479.657, 172.248, 480.907, 177.103, 486.449, 177.31);
generalPath.lineTo(493.04, 163.86);
generalPath.closePath();
generalPath.moveTo(488.5, 220.59);
generalPath.curveTo(482.383, 222.844, 481.737, 231.215, 485.604, 236.366);
generalPath.curveTo(489.467, 241.517, 496.55002, 242.483, 500.41202, 236.366);
generalPath.lineTo(488.502, 220.586);
generalPath.closePath();
shape = generalPath;
paint = new Color(255, 255, 255, 255);
g.setPaint(paint);
g.fill(shape);
paint = new Color(0, 0, 0, 255);
stroke = new BasicStroke(0.521f,0,0,4.0f,null,0.0f);
if (generalPath == null) {
   generalPath = new GeneralPath();
} else {
   generalPath.reset();
}
generalPath.moveTo(493.04, 163.86);
generalPath.curveTo(489.46002, 159.955, 485.41, 160.722, 482.532, 166.485);
generalPath.curveTo(479.657, 172.248, 480.907, 177.103, 486.449, 177.31);
generalPath.lineTo(493.04, 163.86);
generalPath.closePath();
generalPath.moveTo(488.5, 220.59);
generalPath.curveTo(482.383, 222.844, 481.737, 231.215, 485.604, 236.366);
generalPath.curveTo(489.467, 241.517, 496.55002, 242.483, 500.41202, 236.366);
generalPath.lineTo(488.502, 220.586);
generalPath.closePath();
shape = generalPath;
g.setPaint(paint);
g.setStroke(stroke);
g.draw(shape);
g.setTransform(transformsStack.pop());
g.setComposite(AlphaComposite.getInstance(3, 1.0f * origAlpha));
transformsStack.push(g.getTransform());
g.transform(new AffineTransform(1.0f, 0.0f, 0.0f, 1.0f, 0.0f, 0.0f));
// _0_0_2_0_3
if (generalPath == null) {
   generalPath = new GeneralPath();
} else {
   generalPath.reset();
}
generalPath.moveTo(481.42, 202.88);
generalPath.curveTo(475.62402, 200.948, 470.403, 208.733, 469.50702, 215.75801);
generalPath.curveTo(468.38202, 224.61201, 455.824, 227.50902, 462.74902, 240.87102);
generalPath.curveTo(464.19403, 232.33902, 469.83203, 227.67102, 474.33704, 227.34901);
generalPath.curveTo(478.84503, 227.02701, 485.60703, 226.06102, 488.50403, 220.58801);
generalPath.lineTo(481.42, 202.88);
generalPath.closePath();
generalPath.moveTo(499.77, 237.33);
generalPath.curveTo(493.007, 238.94, 492.03998, 247.955, 496.87, 254.394);
generalPath.curveTo(501.003, 259.90698, 513.933, 258.579, 513.612, 253.106);
generalPath.lineTo(499.77, 237.33);
generalPath.closePath();
generalPath.moveTo(518.93, 291.58);
generalPath.curveTo(519.25, 285.78497, 509.918, 283.53098, 505.409, 284.658);
generalPath.curveTo(500.901, 285.785, 492.288, 284.498, 490.276, 279.668);
generalPath.curveTo(488.668, 283.531, 491.001, 287.717, 497.522, 289.809);
generalPath.curveTo(502.45502, 291.39398, 502.351, 294.961, 500.901, 296.57098);
generalPath.curveTo(504.605, 297.215, 515.551, 297.215, 518.93, 291.581);
generalPath.closePath();
shape = generalPath;
paint = new Color(255, 255, 255, 255);
g.setPaint(paint);
g.fill(shape);
paint = new Color(0, 0, 0, 255);
stroke = new BasicStroke(0.521f,0,0,4.0f,null,0.0f);
if (generalPath == null) {
   generalPath = new GeneralPath();
} else {
   generalPath.reset();
}
generalPath.moveTo(481.42, 202.88);
generalPath.curveTo(475.62402, 200.948, 470.403, 208.733, 469.50702, 215.75801);
generalPath.curveTo(468.38202, 224.61201, 455.824, 227.50902, 462.74902, 240.87102);
generalPath.curveTo(464.19403, 232.33902, 469.83203, 227.67102, 474.33704, 227.34901);
generalPath.curveTo(478.84503, 227.02701, 485.60703, 226.06102, 488.50403, 220.58801);
generalPath.lineTo(481.42, 202.88);
generalPath.closePath();
generalPath.moveTo(499.77, 237.33);
generalPath.curveTo(493.007, 238.94, 492.03998, 247.955, 496.87, 254.394);
generalPath.curveTo(501.003, 259.90698, 513.933, 258.579, 513.612, 253.106);
generalPath.lineTo(499.77, 237.33);
generalPath.closePath();
generalPath.moveTo(518.93, 291.58);
generalPath.curveTo(519.25, 285.78497, 509.918, 283.53098, 505.409, 284.658);
generalPath.curveTo(500.901, 285.785, 492.288, 284.498, 490.276, 279.668);
generalPath.curveTo(488.668, 283.531, 491.001, 287.717, 497.522, 289.809);
generalPath.curveTo(502.45502, 291.39398, 502.351, 294.961, 500.901, 296.57098);
generalPath.curveTo(504.605, 297.215, 515.551, 297.215, 518.93, 291.581);
generalPath.closePath();
shape = generalPath;
g.setPaint(paint);
g.setStroke(stroke);
g.draw(shape);
g.setTransform(transformsStack.pop());
g.setComposite(AlphaComposite.getInstance(3, 1.0f * origAlpha));
transformsStack.push(g.getTransform());
g.transform(new AffineTransform(1.0f, 0.0f, 0.0f, 1.0f, 0.0f, 0.0f));
// _0_0_2_0_4
if (generalPath == null) {
   generalPath = new GeneralPath();
} else {
   generalPath.reset();
}
generalPath.moveTo(513.62, 254.56);
generalPath.curveTo(507.02, 251.663, 503.107, 256.076, 500.582, 260.355);
generalPath.curveTo(496.878, 266.633, 485.449, 258.58502, 481.586, 266.95502);
generalPath.curveTo(486.819, 264.70203, 492.144, 269.50803, 494.624, 271.14102);
generalPath.curveTo(501.707, 275.80902, 515.391, 274.36102, 517.324, 263.41403);
generalPath.lineTo(513.62, 254.56003);
generalPath.closePath();
shape = generalPath;
paint = new Color(255, 255, 255, 255);
g.setPaint(paint);
g.fill(shape);
paint = new Color(0, 0, 0, 255);
stroke = new BasicStroke(0.521f,0,0,4.0f,null,0.0f);
if (generalPath == null) {
   generalPath = new GeneralPath();
} else {
   generalPath.reset();
}
generalPath.moveTo(513.62, 254.56);
generalPath.curveTo(507.02, 251.663, 503.107, 256.076, 500.582, 260.355);
generalPath.curveTo(496.878, 266.633, 485.449, 258.58502, 481.586, 266.95502);
generalPath.curveTo(486.819, 264.70203, 492.144, 269.50803, 494.624, 271.14102);
generalPath.curveTo(501.707, 275.80902, 515.391, 274.36102, 517.324, 263.41403);
generalPath.lineTo(513.62, 254.56003);
generalPath.closePath();
shape = generalPath;
g.setPaint(paint);
g.setStroke(stroke);
g.draw(shape);
g.setTransform(transformsStack.pop());
g.setComposite(AlphaComposite.getInstance(3, 1.0f * origAlpha));
transformsStack.push(g.getTransform());
g.transform(new AffineTransform(1.0f, 0.0f, 0.0f, 1.0f, 0.0f, 0.0f));
// _0_0_2_0_5
if (generalPath == null) {
   generalPath = new GeneralPath();
} else {
   generalPath.reset();
}
generalPath.moveTo(517.48, 262.28);
generalPath.curveTo(510.87997, 267.27, 508.305, 273.226, 508.468, 277.251);
generalPath.curveTo(508.62997, 281.276, 514.263, 290.129, 520.381, 290.612);
generalPath.curveTo(523.922, 283.368, 525.693, 268.075, 517.48096, 262.28);
generalPath.closePath();
generalPath.moveTo(490.12, 293.35);
generalPath.curveTo(490.12, 290.935, 493.662, 289.97, 496.074, 290.77402);
generalPath.curveTo(498.491, 291.579, 502.191, 293.99402, 500.904, 296.57);
generalPath.lineTo(490.12, 293.35);
generalPath.closePath();
generalPath.moveTo(453.73, 280.15);
generalPath.curveTo(453.088, 277.253, 457.755, 272.262, 464.034, 274.999);
generalPath.curveTo(470.309, 277.735, 471.117, 283.048, 468.538, 285.141);
generalPath.lineTo(453.72998, 280.151);
generalPath.closePath();
shape = generalPath;
paint = new Color(255, 255, 255, 255);
g.setPaint(paint);
g.fill(shape);
paint = new Color(0, 0, 0, 255);
stroke = new BasicStroke(0.521f,0,0,4.0f,null,0.0f);
if (generalPath == null) {
   generalPath = new GeneralPath();
} else {
   generalPath.reset();
}
generalPath.moveTo(517.48, 262.28);
generalPath.curveTo(510.87997, 267.27, 508.305, 273.226, 508.468, 277.251);
generalPath.curveTo(508.62997, 281.276, 514.263, 290.129, 520.381, 290.612);
generalPath.curveTo(523.922, 283.368, 525.693, 268.075, 517.48096, 262.28);
generalPath.closePath();
generalPath.moveTo(490.12, 293.35);
generalPath.curveTo(490.12, 290.935, 493.662, 289.97, 496.074, 290.77402);
generalPath.curveTo(498.491, 291.579, 502.191, 293.99402, 500.904, 296.57);
generalPath.lineTo(490.12, 293.35);
generalPath.closePath();
generalPath.moveTo(453.73, 280.15);
generalPath.curveTo(453.088, 277.253, 457.755, 272.262, 464.034, 274.999);
generalPath.curveTo(470.309, 277.735, 471.117, 283.048, 468.538, 285.141);
generalPath.lineTo(453.72998, 280.151);
generalPath.closePath();
shape = generalPath;
g.setPaint(paint);
g.setStroke(stroke);
g.draw(shape);
g.setTransform(transformsStack.pop());
g.setComposite(AlphaComposite.getInstance(3, 1.0f * origAlpha));
transformsStack.push(g.getTransform());
g.transform(new AffineTransform(1.0f, 0.0f, 0.0f, 1.0f, 0.0f, 0.0f));
// _0_0_2_0_6
if (generalPath == null) {
   generalPath = new GeneralPath();
} else {
   generalPath.reset();
}
generalPath.moveTo(469.02, 285.46);
generalPath.curveTo(468.537, 283.85, 473.05698, 280.63498, 480.774, 282.56198);
generalPath.curveTo(488.499, 284.494, 490.39398, 289.469, 490.112, 293.348);
generalPath.lineTo(469.019, 285.46);
generalPath.closePath();
generalPath.moveTo(452.93, 280.15);
generalPath.curveTo(456.955, 277.09198, 455.43, 271.29498, 451.8, 269.525);
generalPath.curveTo(445.19998, 266.305, 447.61697, 257.935, 443.43, 256.32498);
generalPath.curveTo(439.24698, 254.71498, 435.222, 251.81699, 435.06, 248.91998);
generalPath.curveTo(432.968, 252.94398, 434.255, 256.64697, 437.155, 259.223);
generalPath.curveTo(440.051, 261.79898, 434.901, 272.262, 438.601, 274.999);
generalPath.lineTo(452.93002, 280.15);
generalPath.closePath();
generalPath.moveTo(366.64, 277.9);
generalPath.curveTo(363.26, 272.58798, 355.21002, 273.554, 351.83002, 277.25598);
generalPath.curveTo(348.45, 280.95898, 348.933, 286.43198, 352.152, 288.84598);
generalPath.lineTo(366.64, 277.9);
generalPath.closePath();
generalPath.moveTo(385.96, 270.01);
generalPath.curveTo(384.672, 262.927, 376.13998, 262.122, 371.472, 263.893);
generalPath.curveTo(366.804, 265.663, 363.58398, 272.747, 366.642, 277.898);
generalPath.lineTo(385.961, 270.01);
generalPath.closePath();
shape = generalPath;
paint = new Color(255, 255, 255, 255);
g.setPaint(paint);
g.fill(shape);
paint = new Color(0, 0, 0, 255);
stroke = new BasicStroke(0.521f,0,0,4.0f,null,0.0f);
if (generalPath == null) {
   generalPath = new GeneralPath();
} else {
   generalPath.reset();
}
generalPath.moveTo(469.02, 285.46);
generalPath.curveTo(468.537, 283.85, 473.05698, 280.63498, 480.774, 282.56198);
generalPath.curveTo(488.499, 284.494, 490.39398, 289.469, 490.112, 293.348);
generalPath.lineTo(469.019, 285.46);
generalPath.closePath();
generalPath.moveTo(452.93, 280.15);
generalPath.curveTo(456.955, 277.09198, 455.43, 271.29498, 451.8, 269.525);
generalPath.curveTo(445.19998, 266.305, 447.61697, 257.935, 443.43, 256.32498);
generalPath.curveTo(439.24698, 254.71498, 435.222, 251.81699, 435.06, 248.91998);
generalPath.curveTo(432.968, 252.94398, 434.255, 256.64697, 437.155, 259.223);
generalPath.curveTo(440.051, 261.79898, 434.901, 272.262, 438.601, 274.999);
generalPath.lineTo(452.93002, 280.15);
generalPath.closePath();
generalPath.moveTo(366.64, 277.9);
generalPath.curveTo(363.26, 272.58798, 355.21002, 273.554, 351.83002, 277.25598);
generalPath.curveTo(348.45, 280.95898, 348.933, 286.43198, 352.152, 288.84598);
generalPath.lineTo(366.64, 277.9);
generalPath.closePath();
generalPath.moveTo(385.96, 270.01);
generalPath.curveTo(384.672, 262.927, 376.13998, 262.122, 371.472, 263.893);
generalPath.curveTo(366.804, 265.663, 363.58398, 272.747, 366.642, 277.898);
generalPath.lineTo(385.961, 270.01);
generalPath.closePath();
shape = generalPath;
g.setPaint(paint);
g.setStroke(stroke);
g.draw(shape);
g.setTransform(transformsStack.pop());
g.setComposite(AlphaComposite.getInstance(3, 1.0f * origAlpha));
transformsStack.push(g.getTransform());
g.transform(new AffineTransform(1.0f, 0.0f, 0.0f, 1.0f, 0.0f, 0.0f));
// _0_0_2_0_7
if (generalPath == null) {
   generalPath = new GeneralPath();
} else {
   generalPath.reset();
}
generalPath.moveTo(398.84, 269.04);
generalPath.curveTo(401.898, 263.084, 395.943, 254.23001, 389.181, 252.94202);
generalPath.curveTo(383.537, 251.86801, 376.866, 251.89601, 374.693, 246.34201);
generalPath.curveTo(373.32498, 251.17201, 376.947, 254.23001, 381.133, 256.967);
generalPath.curveTo(385.318, 259.704, 380.327, 266.78702, 387.089, 270.811);
generalPath.lineTo(398.841, 269.04102);
generalPath.closePath();
shape = generalPath;
paint = new Color(255, 255, 255, 255);
g.setPaint(paint);
g.fill(shape);
paint = new Color(0, 0, 0, 255);
stroke = new BasicStroke(0.521f,0,0,4.0f,null,0.0f);
if (generalPath == null) {
   generalPath = new GeneralPath();
} else {
   generalPath.reset();
}
generalPath.moveTo(398.84, 269.04);
generalPath.curveTo(401.898, 263.084, 395.943, 254.23001, 389.181, 252.94202);
generalPath.curveTo(383.537, 251.86801, 376.866, 251.89601, 374.693, 246.34201);
generalPath.curveTo(373.32498, 251.17201, 376.947, 254.23001, 381.133, 256.967);
generalPath.curveTo(385.318, 259.704, 380.327, 266.78702, 387.089, 270.811);
generalPath.lineTo(398.841, 269.04102);
generalPath.closePath();
shape = generalPath;
g.setPaint(paint);
g.setStroke(stroke);
g.draw(shape);
g.setTransform(transformsStack.pop());
g.setComposite(AlphaComposite.getInstance(3, 1.0f * origAlpha));
transformsStack.push(g.getTransform());
g.transform(new AffineTransform(1.0f, 0.0f, 0.0f, 1.0f, 0.0f, 0.0f));
// _0_0_2_0_8
if (generalPath == null) {
   generalPath = new GeneralPath();
} else {
   generalPath.reset();
}
generalPath.moveTo(398.2, 269.25);
generalPath.curveTo(396.79102, 264.983, 399.64902, 259.307, 405.432, 259.705);
generalPath.curveTo(411.217, 260.103, 414.512, 264.305, 411.962, 269.56);
generalPath.lineTo(398.199, 269.25);
generalPath.closePath();
shape = generalPath;
paint = new Color(255, 255, 255, 255);
g.setPaint(paint);
g.fill(shape);
paint = new Color(0, 0, 0, 255);
stroke = new BasicStroke(0.521f,0,0,4.0f,null,0.0f);
if (generalPath == null) {
   generalPath = new GeneralPath();
} else {
   generalPath.reset();
}
generalPath.moveTo(398.2, 269.25);
generalPath.curveTo(396.79102, 264.983, 399.64902, 259.307, 405.432, 259.705);
generalPath.curveTo(411.217, 260.103, 414.512, 264.305, 411.962, 269.56);
generalPath.lineTo(398.199, 269.25);
generalPath.closePath();
shape = generalPath;
g.setPaint(paint);
g.setStroke(stroke);
g.draw(shape);
g.setTransform(transformsStack.pop());
g.setComposite(AlphaComposite.getInstance(3, 1.0f * origAlpha));
transformsStack.push(g.getTransform());
g.transform(new AffineTransform(1.0f, 0.0f, 0.0f, 1.0f, 0.0f, 0.0f));
// _0_0_2_0_9
if (generalPath == null) {
   generalPath = new GeneralPath();
} else {
   generalPath.reset();
}
generalPath.moveTo(411.07, 269.57);
generalPath.curveTo(410.27402, 265.148, 413.9, 259.93, 419.57, 261.135);
generalPath.curveTo(425.242, 262.34, 427.913, 266.965, 424.65402, 271.81);
generalPath.lineTo(411.07, 269.57);
generalPath.closePath();
shape = generalPath;
paint = new Color(255, 255, 255, 255);
g.setPaint(paint);
g.fill(shape);
paint = new Color(0, 0, 0, 255);
stroke = new BasicStroke(0.521f,0,0,4.0f,null,0.0f);
if (generalPath == null) {
   generalPath = new GeneralPath();
} else {
   generalPath.reset();
}
generalPath.moveTo(411.07, 269.57);
generalPath.curveTo(410.27402, 265.148, 413.9, 259.93, 419.57, 261.135);
generalPath.curveTo(425.242, 262.34, 427.913, 266.965, 424.65402, 271.81);
generalPath.lineTo(411.07, 269.57);
generalPath.closePath();
shape = generalPath;
g.setPaint(paint);
g.setStroke(stroke);
g.draw(shape);
g.setTransform(transformsStack.pop());
g.setComposite(AlphaComposite.getInstance(3, 1.0f * origAlpha));
transformsStack.push(g.getTransform());
g.transform(new AffineTransform(1.0f, 0.0f, 0.0f, 1.0f, 0.0f, 0.0f));
// _0_0_2_0_10
if (generalPath == null) {
   generalPath = new GeneralPath();
} else {
   generalPath.reset();
}
generalPath.moveTo(423.86, 271.6);
generalPath.curveTo(423.28497, 267.143, 427.168, 262.112, 432.77197, 263.599);
generalPath.curveTo(438.37698, 265.086, 440.81396, 269.839, 437.31396, 274.514);
generalPath.lineTo(423.86, 271.6);
generalPath.closePath();
generalPath.moveTo(326.72, 345.35);
generalPath.curveTo(315.934, 345.35, 313.3, 347.918, 311.749, 359.03302);
generalPath.curveTo(309.817, 372.877, 328.65198, 374.48703, 326.72, 345.35);
generalPath.closePath();
shape = generalPath;
paint = new Color(255, 255, 255, 255);
g.setPaint(paint);
g.fill(shape);
paint = new Color(0, 0, 0, 255);
stroke = new BasicStroke(0.521f,0,0,4.0f,null,0.0f);
if (generalPath == null) {
   generalPath = new GeneralPath();
} else {
   generalPath.reset();
}
generalPath.moveTo(423.86, 271.6);
generalPath.curveTo(423.28497, 267.143, 427.168, 262.112, 432.77197, 263.599);
generalPath.curveTo(438.37698, 265.086, 440.81396, 269.839, 437.31396, 274.514);
generalPath.lineTo(423.86, 271.6);
generalPath.closePath();
generalPath.moveTo(326.72, 345.35);
generalPath.curveTo(315.934, 345.35, 313.3, 347.918, 311.749, 359.03302);
generalPath.curveTo(309.817, 372.877, 328.65198, 374.48703, 326.72, 345.35);
generalPath.closePath();
shape = generalPath;
g.setPaint(paint);
g.setStroke(stroke);
g.draw(shape);
g.setTransform(transformsStack.pop());
g.setComposite(AlphaComposite.getInstance(3, 1.0f * origAlpha));
transformsStack.push(g.getTransform());
g.transform(new AffineTransform(1.0f, 0.0f, 0.0f, 1.0f, 0.0f, 0.0f));
// _0_0_2_0_11
if (generalPath == null) {
   generalPath = new GeneralPath();
} else {
   generalPath.reset();
}
generalPath.moveTo(331.55, 330.86);
generalPath.curveTo(314.969, 324.58197, 305.955, 350.82098, 289.53497, 346.15298);
generalPath.curveTo(295.40997, 355.49, 309.65298, 346.16998, 314.96896, 347.119);
generalPath.curveTo(323.98398, 348.72897, 343.46198, 345.348, 331.54996, 330.85898);
generalPath.closePath();
generalPath.moveTo(320.76, 366.76);
generalPath.curveTo(312.55002, 363.058, 303.696, 375.614, 305.306, 381.087);
generalPath.curveTo(307.35, 388.039, 326.072, 382.375, 320.76, 366.76);
generalPath.closePath();
generalPath.moveTo(282.45, 420.85);
generalPath.curveTo(286.958, 422.133, 292.43002, 424.712, 291.46503, 433.404);
generalPath.curveTo(290.49902, 442.09598, 274.08002, 459.804, 259.27002, 460.771);
generalPath.curveTo(244.46002, 461.738, 239.14702, 479.604, 226.43002, 474.613);
generalPath.curveTo(238.34203, 472.363, 238.34203, 458.838, 247.67902, 454.655);
generalPath.curveTo(240.91702, 452.238, 237.37602, 467.534, 228.68402, 467.534);
generalPath.curveTo(219.99103, 467.534, 215.80602, 481.376, 205.18102, 480.409);
generalPath.curveTo(194.55602, 479.44598, 193.43802, 497.263, 172.18102, 497.47598);
generalPath.curveTo(155.92102, 497.63397, 135.80002, 516.63, 128.55602, 508.422);
generalPath.curveTo(144.33202, 506.168, 150.69801, 497.426, 160.10802, 487.814);
generalPath.curveTo(175.24002, 472.36398, 192.30402, 479.284, 198.09802, 465.60098);
generalPath.curveTo(191.17603, 470.26797, 183.12802, 472.521, 175.24002, 472.36398);
generalPath.curveTo(165.33801, 472.159, 154.47401, 488.13898, 143.36603, 481.055);
generalPath.curveTo(149.80502, 480.251, 153.99103, 477.514, 160.75203, 470.43);
generalPath.curveTo(167.67503, 463.176, 177.83502, 467.86398, 185.86504, 460.451);
generalPath.curveTo(198.42104, 448.85898, 209.20703, 458.51797, 221.28003, 444.03);
generalPath.curveTo(217.89903, 442.422, 210.65503, 443.547, 203.89403, 447.088);
generalPath.curveTo(197.13203, 450.63, 188.44003, 444.67203, 180.71303, 448.859);
generalPath.curveTo(181.67802, 439.363, 199.70802, 444.797, 210.97702, 438.234);
generalPath.curveTo(223.69502, 430.83002, 234.23901, 433.001, 244.30002, 433.888);
generalPath.curveTo(230.29501, 433.809, 224.82202, 420.525, 205.50502, 424.388);
generalPath.curveTo(197.08002, 426.076, 190.37302, 412.8, 182.00201, 419.559);
generalPath.curveTo(182.24202, 414.572, 191.01701, 410.546, 200.03201, 415.37598);
generalPath.curveTo(209.04602, 420.205, 212.68001, 411.14996, 230.61801, 422.45898);
generalPath.curveTo(238.02301, 427.12598, 250.74, 419.559, 258.78802, 424.551);
generalPath.curveTo(257.74203, 421.49298, 253.15402, 419.559, 247.76202, 419.96298);
generalPath.curveTo(251.14203, 413.04297, 272.95502, 413.926, 282.45203, 420.85098);
generalPath.closePath();
shape = generalPath;
paint = new Color(255, 255, 255, 255);
g.setPaint(paint);
g.fill(shape);
paint = new Color(0, 0, 0, 255);
stroke = new BasicStroke(0.521f,0,0,4.0f,null,0.0f);
if (generalPath == null) {
   generalPath = new GeneralPath();
} else {
   generalPath.reset();
}
generalPath.moveTo(331.55, 330.86);
generalPath.curveTo(314.969, 324.58197, 305.955, 350.82098, 289.53497, 346.15298);
generalPath.curveTo(295.40997, 355.49, 309.65298, 346.16998, 314.96896, 347.119);
generalPath.curveTo(323.98398, 348.72897, 343.46198, 345.348, 331.54996, 330.85898);
generalPath.closePath();
generalPath.moveTo(320.76, 366.76);
generalPath.curveTo(312.55002, 363.058, 303.696, 375.614, 305.306, 381.087);
generalPath.curveTo(307.35, 388.039, 326.072, 382.375, 320.76, 366.76);
generalPath.closePath();
generalPath.moveTo(282.45, 420.85);
generalPath.curveTo(286.958, 422.133, 292.43002, 424.712, 291.46503, 433.404);
generalPath.curveTo(290.49902, 442.09598, 274.08002, 459.804, 259.27002, 460.771);
generalPath.curveTo(244.46002, 461.738, 239.14702, 479.604, 226.43002, 474.613);
generalPath.curveTo(238.34203, 472.363, 238.34203, 458.838, 247.67902, 454.655);
generalPath.curveTo(240.91702, 452.238, 237.37602, 467.534, 228.68402, 467.534);
generalPath.curveTo(219.99103, 467.534, 215.80602, 481.376, 205.18102, 480.409);
generalPath.curveTo(194.55602, 479.44598, 193.43802, 497.263, 172.18102, 497.47598);
generalPath.curveTo(155.92102, 497.63397, 135.80002, 516.63, 128.55602, 508.422);
generalPath.curveTo(144.33202, 506.168, 150.69801, 497.426, 160.10802, 487.814);
generalPath.curveTo(175.24002, 472.36398, 192.30402, 479.284, 198.09802, 465.60098);
generalPath.curveTo(191.17603, 470.26797, 183.12802, 472.521, 175.24002, 472.36398);
generalPath.curveTo(165.33801, 472.159, 154.47401, 488.13898, 143.36603, 481.055);
generalPath.curveTo(149.80502, 480.251, 153.99103, 477.514, 160.75203, 470.43);
generalPath.curveTo(167.67503, 463.176, 177.83502, 467.86398, 185.86504, 460.451);
generalPath.curveTo(198.42104, 448.85898, 209.20703, 458.51797, 221.28003, 444.03);
generalPath.curveTo(217.89903, 442.422, 210.65503, 443.547, 203.89403, 447.088);
generalPath.curveTo(197.13203, 450.63, 188.44003, 444.67203, 180.71303, 448.859);
generalPath.curveTo(181.67802, 439.363, 199.70802, 444.797, 210.97702, 438.234);
generalPath.curveTo(223.69502, 430.83002, 234.23901, 433.001, 244.30002, 433.888);
generalPath.curveTo(230.29501, 433.809, 224.82202, 420.525, 205.50502, 424.388);
generalPath.curveTo(197.08002, 426.076, 190.37302, 412.8, 182.00201, 419.559);
generalPath.curveTo(182.24202, 414.572, 191.01701, 410.546, 200.03201, 415.37598);
generalPath.curveTo(209.04602, 420.205, 212.68001, 411.14996, 230.61801, 422.45898);
generalPath.curveTo(238.02301, 427.12598, 250.74, 419.559, 258.78802, 424.551);
generalPath.curveTo(257.74203, 421.49298, 253.15402, 419.559, 247.76202, 419.96298);
generalPath.curveTo(251.14203, 413.04297, 272.95502, 413.926, 282.45203, 420.85098);
generalPath.closePath();
shape = generalPath;
g.setPaint(paint);
g.setStroke(stroke);
g.draw(shape);
g.setTransform(transformsStack.pop());
g.setComposite(AlphaComposite.getInstance(3, 1.0f * origAlpha));
transformsStack.push(g.getTransform());
g.transform(new AffineTransform(1.0f, 0.0f, 0.0f, 1.0f, 0.0f, 0.0f));
// _0_0_2_0_12
if (generalPath == null) {
   generalPath = new GeneralPath();
} else {
   generalPath.reset();
}
generalPath.moveTo(296.78, 410.38);
generalPath.curveTo(289.697, 404.907, 279.877, 411.508, 273.116, 408.931);
generalPath.curveTo(273.116, 413.437, 275.37, 420.201, 282.775, 422.775);
generalPath.curveTo(285.029, 421.167, 295.16998, 412.31198, 296.78, 410.38);
generalPath.closePath();
shape = generalPath;
paint = new Color(255, 255, 255, 255);
g.setPaint(paint);
g.fill(shape);
paint = new Color(0, 0, 0, 255);
stroke = new BasicStroke(0.521f,0,0,4.0f,null,0.0f);
if (generalPath == null) {
   generalPath = new GeneralPath();
} else {
   generalPath.reset();
}
generalPath.moveTo(296.78, 410.38);
generalPath.curveTo(289.697, 404.907, 279.877, 411.508, 273.116, 408.931);
generalPath.curveTo(273.116, 413.437, 275.37, 420.201, 282.775, 422.775);
generalPath.curveTo(285.029, 421.167, 295.16998, 412.31198, 296.78, 410.38);
generalPath.closePath();
shape = generalPath;
g.setPaint(paint);
g.setStroke(stroke);
g.draw(shape);
g.setTransform(transformsStack.pop());
g.setComposite(AlphaComposite.getInstance(3, 1.0f * origAlpha));
transformsStack.push(g.getTransform());
g.transform(new AffineTransform(1.0f, 0.0f, 0.0f, 1.0f, 0.0f, 0.0f));
// _0_0_2_0_13
if (generalPath == null) {
   generalPath = new GeneralPath();
} else {
   generalPath.reset();
}
generalPath.moveTo(307.89, 394.77);
generalPath.curveTo(296.782, 389.136, 294.851, 403.13998, 286.15802, 400.24298);
generalPath.curveTo(286.48, 404.26797, 289.7, 409.258, 296.78302, 410.38498);
generalPath.lineTo(307.89102, 394.77);
generalPath.closePath();
shape = generalPath;
paint = new Color(255, 255, 255, 255);
g.setPaint(paint);
g.fill(shape);
paint = new Color(0, 0, 0, 255);
stroke = new BasicStroke(0.521f,0,0,4.0f,null,0.0f);
if (generalPath == null) {
   generalPath = new GeneralPath();
} else {
   generalPath.reset();
}
generalPath.moveTo(307.89, 394.77);
generalPath.curveTo(296.782, 389.136, 294.851, 403.13998, 286.15802, 400.24298);
generalPath.curveTo(286.48, 404.26797, 289.7, 409.258, 296.78302, 410.38498);
generalPath.lineTo(307.89102, 394.77);
generalPath.closePath();
shape = generalPath;
g.setPaint(paint);
g.setStroke(stroke);
g.draw(shape);
g.setTransform(transformsStack.pop());
g.setComposite(AlphaComposite.getInstance(3, 1.0f * origAlpha));
transformsStack.push(g.getTransform());
g.transform(new AffineTransform(1.0f, 0.0f, 0.0f, 1.0f, 0.0f, 0.0f));
// _0_0_2_0_14
if (generalPath == null) {
   generalPath = new GeneralPath();
} else {
   generalPath.reset();
}
generalPath.moveTo(314.49, 382.05);
generalPath.curveTo(298.06998, 375.61, 295.977, 391.387, 286.319, 388.328);
generalPath.curveTo(288.573, 393.801, 302.417, 396.698, 309.5, 394.768);
generalPath.lineTo(314.49, 382.05002);
generalPath.closePath();
generalPath.moveTo(337.02, 312.99);
generalPath.curveTo(332.67297, 306.873, 323.498, 311.86298, 322.04898, 319.107);
generalPath.curveTo(320.59998, 326.35098, 324.141, 336.49298, 330.25897, 334.23898);
generalPath.lineTo(337.01898, 312.99);
generalPath.closePath();
shape = generalPath;
paint = new Color(255, 255, 255, 255);
g.setPaint(paint);
g.fill(shape);
paint = new Color(0, 0, 0, 255);
stroke = new BasicStroke(0.521f,0,0,4.0f,null,0.0f);
if (generalPath == null) {
   generalPath = new GeneralPath();
} else {
   generalPath.reset();
}
generalPath.moveTo(314.49, 382.05);
generalPath.curveTo(298.06998, 375.61, 295.977, 391.387, 286.319, 388.328);
generalPath.curveTo(288.573, 393.801, 302.417, 396.698, 309.5, 394.768);
generalPath.lineTo(314.49, 382.05002);
generalPath.closePath();
generalPath.moveTo(337.02, 312.99);
generalPath.curveTo(332.67297, 306.873, 323.498, 311.86298, 322.04898, 319.107);
generalPath.curveTo(320.59998, 326.35098, 324.141, 336.49298, 330.25897, 334.23898);
generalPath.lineTo(337.01898, 312.99);
generalPath.closePath();
shape = generalPath;
g.setPaint(paint);
g.setStroke(stroke);
g.draw(shape);
g.setTransform(transformsStack.pop());
g.setComposite(AlphaComposite.getInstance(3, 1.0f * origAlpha));
transformsStack.push(g.getTransform());
g.transform(new AffineTransform(1.0f, 0.0f, 0.0f, 1.0f, 0.0f, 0.0f));
// _0_0_2_0_15
if (generalPath == null) {
   generalPath = new GeneralPath();
} else {
   generalPath.reset();
}
generalPath.moveTo(348.13, 293.67);
generalPath.curveTo(340.564, 291.90002, 331.871, 292.704, 332.837, 300.11002);
generalPath.curveTo(329.939, 301.397, 329.134, 310.89502, 337.022, 312.98703);
generalPath.lineTo(348.13, 293.66904);
generalPath.closePath();
shape = generalPath;
paint = new Color(255, 255, 255, 255);
g.setPaint(paint);
g.fill(shape);
paint = new Color(0, 0, 0, 255);
stroke = new BasicStroke(0.521f,0,0,4.0f,null,0.0f);
if (generalPath == null) {
   generalPath = new GeneralPath();
} else {
   generalPath.reset();
}
generalPath.moveTo(348.13, 293.67);
generalPath.curveTo(340.564, 291.90002, 331.871, 292.704, 332.837, 300.11002);
generalPath.curveTo(329.939, 301.397, 329.134, 310.89502, 337.022, 312.98703);
generalPath.lineTo(348.13, 293.66904);
generalPath.closePath();
shape = generalPath;
g.setPaint(paint);
g.setStroke(stroke);
g.draw(shape);
g.setTransform(transformsStack.pop());
g.setComposite(AlphaComposite.getInstance(3, 1.0f * origAlpha));
transformsStack.push(g.getTransform());
g.transform(new AffineTransform(1.0f, 0.0f, 0.0f, 1.0f, 0.0f, 0.0f));
// _0_0_2_0_16
if (generalPath == null) {
   generalPath = new GeneralPath();
} else {
   generalPath.reset();
}
generalPath.moveTo(353.12, 288.68);
generalPath.curveTo(345.715, 279.987, 337.457, 280.19, 332.837, 283.85);
generalPath.curveTo(324.305, 290.612, 316.014, 286.74802, 315.773, 293.51);
generalPath.curveTo(320.92502, 289.565, 325.432, 294.314, 329.617, 292.86502);
generalPath.curveTo(333.802, 291.41702, 336.861, 299.46503, 348.452, 296.08502);
generalPath.lineTo(353.12, 288.68002);
generalPath.closePath();
generalPath.moveTo(335.25, 418.6);
generalPath.curveTo(336.377, 420.69202, 343.299, 421.65802, 346.68, 418.117);
generalPath.curveTo(351.16, 413.421, 346.197, 400.407, 339.11398, 399.44202);
generalPath.curveTo(332.03098, 398.476, 331.387, 414.092, 335.24997, 418.6);
generalPath.closePath();
shape = generalPath;
paint = new Color(255, 255, 255, 255);
g.setPaint(paint);
g.fill(shape);
paint = new Color(0, 0, 0, 255);
stroke = new BasicStroke(0.521f,0,0,4.0f,null,0.0f);
if (generalPath == null) {
   generalPath = new GeneralPath();
} else {
   generalPath.reset();
}
generalPath.moveTo(353.12, 288.68);
generalPath.curveTo(345.715, 279.987, 337.457, 280.19, 332.837, 283.85);
generalPath.curveTo(324.305, 290.612, 316.014, 286.74802, 315.773, 293.51);
generalPath.curveTo(320.92502, 289.565, 325.432, 294.314, 329.617, 292.86502);
generalPath.curveTo(333.802, 291.41702, 336.861, 299.46503, 348.452, 296.08502);
generalPath.lineTo(353.12, 288.68002);
generalPath.closePath();
generalPath.moveTo(335.25, 418.6);
generalPath.curveTo(336.377, 420.69202, 343.299, 421.65802, 346.68, 418.117);
generalPath.curveTo(351.16, 413.421, 346.197, 400.407, 339.11398, 399.44202);
generalPath.curveTo(332.03098, 398.476, 331.387, 414.092, 335.24997, 418.6);
generalPath.closePath();
shape = generalPath;
g.setPaint(paint);
g.setStroke(stroke);
g.draw(shape);
g.setTransform(transformsStack.pop());
g.setComposite(AlphaComposite.getInstance(3, 1.0f * origAlpha));
transformsStack.push(g.getTransform());
g.transform(new AffineTransform(1.0f, 0.0f, 0.0f, 1.0f, 0.0f, 0.0f));
// _0_0_2_0_17
if (generalPath == null) {
   generalPath = new GeneralPath();
} else {
   generalPath.reset();
}
generalPath.moveTo(327.2, 418.92);
generalPath.curveTo(337.341, 422.62003, 341.68802, 414.25, 336.21503, 408.93903);
generalPath.curveTo(334.765, 410.709, 329.45303, 417.14902, 327.2, 418.92);
generalPath.closePath();
shape = generalPath;
paint = new Color(255, 255, 255, 255);
g.setPaint(paint);
g.fill(shape);
paint = new Color(0, 0, 0, 255);
stroke = new BasicStroke(0.521f,0,0,4.0f,null,0.0f);
if (generalPath == null) {
   generalPath = new GeneralPath();
} else {
   generalPath.reset();
}
generalPath.moveTo(327.2, 418.92);
generalPath.curveTo(337.341, 422.62003, 341.68802, 414.25, 336.21503, 408.93903);
generalPath.curveTo(334.765, 410.709, 329.45303, 417.14902, 327.2, 418.92);
generalPath.closePath();
shape = generalPath;
g.setPaint(paint);
g.setStroke(stroke);
g.draw(shape);
g.setTransform(transformsStack.pop());
g.setComposite(AlphaComposite.getInstance(3, 1.0f * origAlpha));
transformsStack.push(g.getTransform());
g.transform(new AffineTransform(1.0f, 0.0f, 0.0f, 1.0f, 0.0f, 0.0f));
// _0_0_2_0_18
if (generalPath == null) {
   generalPath = new GeneralPath();
} else {
   generalPath.reset();
}
generalPath.moveTo(289.21, 432.76);
generalPath.curveTo(287.27798, 438.556, 277.297, 439.523, 266.029, 457.552);
generalPath.curveTo(254.76, 475.581, 243.97499, 468.015, 241.23799, 480.41);
generalPath.curveTo(254.76, 469.464, 265.38, 476.73502, 273.43298, 465.922);
generalPath.curveTo(285.66797, 449.501, 295.74197, 451.859, 300.478, 440.809);
generalPath.curveTo(307.238, 425.034, 336.859, 425.35498, 338.469, 400.565);
generalPath.curveTo(328.48898, 398.633, 296.936, 425.355, 289.21, 432.759);
generalPath.closePath();
generalPath.moveTo(543.24, 189.36);
generalPath.curveTo(556.119, 193.545, 556.44, 210.287, 571.248, 215.76);
generalPath.curveTo(586.061, 221.233, 587.511, 234.433, 599.581, 231.21399);
generalPath.curveTo(588.31396, 228.15498, 589.118, 215.116, 577.368, 211.896);
generalPath.curveTo(563.58496, 208.12, 558.372, 187.105, 547.422, 183.886);
generalPath.moveTo(602.32, 276.77);
generalPath.curveTo(604.57404, 281.921, 604.253, 291.097, 596.203, 293.512);
generalPath.curveTo(600.549, 296.249, 606.986, 293.672, 610.528, 287.71698);
generalPath.curveTo(605.216, 299.468, 608.758, 310.093, 617.128, 312.18597);
generalPath.curveTo(613.10297, 303.97598, 622.12, 300.11197, 619.224, 294.8);
generalPath.curveTo(624.537, 297.054, 629.204, 304.29797, 629.041, 308.805);
generalPath.curveTo(635.966, 301.078, 623.891, 290.775, 626.145, 283.53198);
generalPath.lineTo(602.32, 276.771);
generalPath.closePath();
generalPath.moveTo(518.93, 359.51);
generalPath.curveTo(511.042, 352.588, 507.676, 361.32, 503.797, 358.302);
generalPath.curveTo(500.177, 355.48502, 495.347, 355.082, 493.497, 357.9);
generalPath.curveTo(500.259, 358.142, 496.95502, 363.373, 510.07602, 364.66098);
generalPath.curveTo(496.95502, 365.54697, 499.372, 380.19598, 490.59702, 379.47098);
generalPath.curveTo(499.93503, 388.32498, 504.764, 371.58298, 512.33, 374.32098);
generalPath.curveTo(510.07602, 374.964, 515.872, 380.27597, 511.84702, 387.35898);
generalPath.curveTo(518.367, 387.19897, 521.02203, 378.18298, 521.83, 373.51498);
generalPath.lineTo(518.93, 359.50998);
generalPath.closePath();
generalPath.moveTo(345.23, 434.69);
generalPath.curveTo(342.332, 432.277, 333.961, 431.148, 330.742, 433.082);
generalPath.curveTo(327.522, 435.011, 328.65, 435.494, 332.512, 435.819);
generalPath.curveTo(336.37698, 436.14, 341.365, 442.39, 332.996, 442.74);
generalPath.curveTo(329.132, 442.89798, 330.42, 452.236, 322.371, 452.882);
generalPath.curveTo(325.671, 456.90698, 335.089, 454.249, 338.469, 449.82397);
generalPath.curveTo(337.82498, 453.44397, 342.654, 456.744, 340.723, 461.09097);
generalPath.curveTo(346.679, 461.73697, 343.218, 449.01996, 352.636, 449.66098);
generalPath.curveTo(348.77197, 450.145, 350.382, 458.83698, 357.14297, 456.58298);
generalPath.curveTo(353.11798, 458.516, 355.21097, 463.18298, 359.718, 462.05798);
generalPath.curveTo(356.82098, 463.024, 355.85498, 466.72397, 359.879, 468.81998);
generalPath.curveTo(363.743, 463.50797, 359.396, 444.51196, 345.23, 434.69098);
generalPath.closePath();
generalPath.moveTo(695.85, 257.07);
generalPath.curveTo(708.17096, 257.07, 718.15796, 247.08, 718.15796, 234.75801);
generalPath.curveTo(718.15796, 222.43802, 708.17, 212.44801, 695.85, 212.44801);
generalPath.curveTo(683.52496, 212.44801, 673.537, 222.43802, 673.537, 234.75801);
generalPath.curveTo(673.537, 247.08002, 683.52496, 257.07, 695.85, 257.07);
generalPath.closePath();
shape = generalPath;
paint = new Color(255, 255, 255, 255);
g.setPaint(paint);
g.fill(shape);
paint = new Color(0, 0, 0, 255);
stroke = new BasicStroke(0.521f,0,0,4.0f,null,0.0f);
if (generalPath == null) {
   generalPath = new GeneralPath();
} else {
   generalPath.reset();
}
generalPath.moveTo(289.21, 432.76);
generalPath.curveTo(287.27798, 438.556, 277.297, 439.523, 266.029, 457.552);
generalPath.curveTo(254.76, 475.581, 243.97499, 468.015, 241.23799, 480.41);
generalPath.curveTo(254.76, 469.464, 265.38, 476.73502, 273.43298, 465.922);
generalPath.curveTo(285.66797, 449.501, 295.74197, 451.859, 300.478, 440.809);
generalPath.curveTo(307.238, 425.034, 336.859, 425.35498, 338.469, 400.565);
generalPath.curveTo(328.48898, 398.633, 296.936, 425.355, 289.21, 432.759);
generalPath.closePath();
generalPath.moveTo(543.24, 189.36);
generalPath.curveTo(556.119, 193.545, 556.44, 210.287, 571.248, 215.76);
generalPath.curveTo(586.061, 221.233, 587.511, 234.433, 599.581, 231.21399);
generalPath.curveTo(588.31396, 228.15498, 589.118, 215.116, 577.368, 211.896);
generalPath.curveTo(563.58496, 208.12, 558.372, 187.105, 547.422, 183.886);
generalPath.moveTo(602.32, 276.77);
generalPath.curveTo(604.57404, 281.921, 604.253, 291.097, 596.203, 293.512);
generalPath.curveTo(600.549, 296.249, 606.986, 293.672, 610.528, 287.71698);
generalPath.curveTo(605.216, 299.468, 608.758, 310.093, 617.128, 312.18597);
generalPath.curveTo(613.10297, 303.97598, 622.12, 300.11197, 619.224, 294.8);
generalPath.curveTo(624.537, 297.054, 629.204, 304.29797, 629.041, 308.805);
generalPath.curveTo(635.966, 301.078, 623.891, 290.775, 626.145, 283.53198);
generalPath.lineTo(602.32, 276.771);
generalPath.closePath();
generalPath.moveTo(518.93, 359.51);
generalPath.curveTo(511.042, 352.588, 507.676, 361.32, 503.797, 358.302);
generalPath.curveTo(500.177, 355.48502, 495.347, 355.082, 493.497, 357.9);
generalPath.curveTo(500.259, 358.142, 496.95502, 363.373, 510.07602, 364.66098);
generalPath.curveTo(496.95502, 365.54697, 499.372, 380.19598, 490.59702, 379.47098);
generalPath.curveTo(499.93503, 388.32498, 504.764, 371.58298, 512.33, 374.32098);
generalPath.curveTo(510.07602, 374.964, 515.872, 380.27597, 511.84702, 387.35898);
generalPath.curveTo(518.367, 387.19897, 521.02203, 378.18298, 521.83, 373.51498);
generalPath.lineTo(518.93, 359.50998);
generalPath.closePath();
generalPath.moveTo(345.23, 434.69);
generalPath.curveTo(342.332, 432.277, 333.961, 431.148, 330.742, 433.082);
generalPath.curveTo(327.522, 435.011, 328.65, 435.494, 332.512, 435.819);
generalPath.curveTo(336.37698, 436.14, 341.365, 442.39, 332.996, 442.74);
generalPath.curveTo(329.132, 442.89798, 330.42, 452.236, 322.371, 452.882);
generalPath.curveTo(325.671, 456.90698, 335.089, 454.249, 338.469, 449.82397);
generalPath.curveTo(337.82498, 453.44397, 342.654, 456.744, 340.723, 461.09097);
generalPath.curveTo(346.679, 461.73697, 343.218, 449.01996, 352.636, 449.66098);
generalPath.curveTo(348.77197, 450.145, 350.382, 458.83698, 357.14297, 456.58298);
generalPath.curveTo(353.11798, 458.516, 355.21097, 463.18298, 359.718, 462.05798);
generalPath.curveTo(356.82098, 463.024, 355.85498, 466.72397, 359.879, 468.81998);
generalPath.curveTo(363.743, 463.50797, 359.396, 444.51196, 345.23, 434.69098);
generalPath.closePath();
generalPath.moveTo(695.85, 257.07);
generalPath.curveTo(708.17096, 257.07, 718.15796, 247.08, 718.15796, 234.75801);
generalPath.curveTo(718.15796, 222.43802, 708.17, 212.44801, 695.85, 212.44801);

}

private void _paint1(Graphics2D g,float origAlpha) {
generalPath.curveTo(683.52496, 212.44801, 673.537, 222.43802, 673.537, 234.75801);
generalPath.curveTo(673.537, 247.08002, 683.52496, 257.07, 695.85, 257.07);
generalPath.closePath();
shape = generalPath;
g.setPaint(paint);
g.setStroke(stroke);
g.draw(shape);
g.setTransform(transformsStack.pop());
g.setComposite(AlphaComposite.getInstance(3, 1.0f * origAlpha));
transformsStack.push(g.getTransform());
g.transform(new AffineTransform(1.0f, 0.0f, 0.0f, 1.0f, 0.0f, 0.0f));
// _0_0_2_0_19
if (generalPath == null) {
   generalPath = new GeneralPath();
} else {
   generalPath.reset();
}
generalPath.moveTo(579.3, 284.02);
generalPath.curveTo(586.063, 277.58, 596.367, 274.361, 603.446, 279.19);
generalPath.curveTo(610.529, 284.02, 634.034, 289.815, 645.625, 281.766);
generalPath.curveTo(657.213, 273.71698, 662.688, 269.531, 667.838, 270.49698);
generalPath.curveTo(671.705, 276.29297, 676.37103, 279.029, 682.167, 279.512);
generalPath.curveTo(683.937, 281.444, 690.217, 283.054, 693.759, 282.57);
generalPath.curveTo(698.909, 283.858, 705.188, 282.249, 710.17596, 276.775);
generalPath.curveTo(717.90594, 277.902, 725.147, 272.107, 727.884, 263.415);
generalPath.curveTo(736.092, 262.449, 736.576, 253.272, 731.42596, 247.15501);
generalPath.curveTo(726.59595, 246.19002, 730.30096, 229.93001, 712.751, 233.15001);
generalPath.curveTo(720.159, 237.658, 714.521, 246.67201, 720.64197, 250.858);
generalPath.curveTo(716.45496, 250.858, 711.063, 252.629, 709.77496, 258.908);
generalPath.curveTo(711.384, 254.56099, 709.53394, 251.663, 708.40497, 250.69798);
generalPath.curveTo(708.56696, 246.99498, 700.35895, 237.89998, 692.62994, 241.19998);
generalPath.curveTo(698.18396, 242.40698, 695.04596, 251.34198, 699.0709, 254.72198);
generalPath.curveTo(696.1709, 254.88298, 693.1129, 256.33197, 691.3419, 258.90698);
generalPath.curveTo(689.24994, 255.20499, 681.84595, 251.34099, 677.3379, 251.01898);
generalPath.curveTo(677.3379, 249.73099, 677.0959, 247.15598, 676.5339, 245.86899);
generalPath.curveTo(674.5209, 242.00499, 672.8299, 237.41699, 673.63385, 231.54099);
generalPath.curveTo(669.7709, 235.72598, 666.55084, 241.52098, 664.62085, 245.70699);
generalPath.curveTo(658.5048, 241.52199, 643.37085, 247.63899, 636.28784, 249.24799);
generalPath.curveTo(629.20483, 250.85799, 605.3798, 246.99498, 599.90485, 241.19899);
generalPath.curveTo(594.4349, 235.40399, 583.80884, 231.86299, 573.82983, 228.965);
generalPath.curveTo(560.10486, 224.982, 559.9838, 209.97, 544.8508, 199.66699);
generalPath.curveTo(544.5308, 218.34099, 572.86383, 277.581, 579.30084, 284.02);
generalPath.closePath();
generalPath.moveTo(421.54, 426.32);
generalPath.curveTo(433.453, 426.32, 443.11102, 416.66202, 443.11102, 404.74902);
generalPath.curveTo(443.11102, 392.83603, 433.45303, 383.17902, 421.54004, 383.17902);
generalPath.curveTo(409.62704, 383.17902, 399.96906, 392.837, 399.96906, 404.74902);
generalPath.curveTo(399.96906, 416.66202, 409.62704, 426.32, 421.54004, 426.32);
generalPath.closePath();
shape = generalPath;
paint = new Color(255, 255, 255, 255);
g.setPaint(paint);
g.fill(shape);
paint = new Color(0, 0, 0, 255);
stroke = new BasicStroke(0.521f,0,0,4.0f,null,0.0f);
if (generalPath == null) {
   generalPath = new GeneralPath();
} else {
   generalPath.reset();
}
generalPath.moveTo(579.3, 284.02);
generalPath.curveTo(586.063, 277.58, 596.367, 274.361, 603.446, 279.19);
generalPath.curveTo(610.529, 284.02, 634.034, 289.815, 645.625, 281.766);
generalPath.curveTo(657.213, 273.71698, 662.688, 269.531, 667.838, 270.49698);
generalPath.curveTo(671.705, 276.29297, 676.37103, 279.029, 682.167, 279.512);
generalPath.curveTo(683.937, 281.444, 690.217, 283.054, 693.759, 282.57);
generalPath.curveTo(698.909, 283.858, 705.188, 282.249, 710.17596, 276.775);
generalPath.curveTo(717.90594, 277.902, 725.147, 272.107, 727.884, 263.415);
generalPath.curveTo(736.092, 262.449, 736.576, 253.272, 731.42596, 247.15501);
generalPath.curveTo(726.59595, 246.19002, 730.30096, 229.93001, 712.751, 233.15001);
generalPath.curveTo(720.159, 237.658, 714.521, 246.67201, 720.64197, 250.858);
generalPath.curveTo(716.45496, 250.858, 711.063, 252.629, 709.77496, 258.908);
generalPath.curveTo(711.384, 254.56099, 709.53394, 251.663, 708.40497, 250.69798);
generalPath.curveTo(708.56696, 246.99498, 700.35895, 237.89998, 692.62994, 241.19998);
generalPath.curveTo(698.18396, 242.40698, 695.04596, 251.34198, 699.0709, 254.72198);
generalPath.curveTo(696.1709, 254.88298, 693.1129, 256.33197, 691.3419, 258.90698);
generalPath.curveTo(689.24994, 255.20499, 681.84595, 251.34099, 677.3379, 251.01898);
generalPath.curveTo(677.3379, 249.73099, 677.0959, 247.15598, 676.5339, 245.86899);
generalPath.curveTo(674.5209, 242.00499, 672.8299, 237.41699, 673.63385, 231.54099);
generalPath.curveTo(669.7709, 235.72598, 666.55084, 241.52098, 664.62085, 245.70699);
generalPath.curveTo(658.5048, 241.52199, 643.37085, 247.63899, 636.28784, 249.24799);
generalPath.curveTo(629.20483, 250.85799, 605.3798, 246.99498, 599.90485, 241.19899);
generalPath.curveTo(594.4349, 235.40399, 583.80884, 231.86299, 573.82983, 228.965);
generalPath.curveTo(560.10486, 224.982, 559.9838, 209.97, 544.8508, 199.66699);
generalPath.curveTo(544.5308, 218.34099, 572.86383, 277.581, 579.30084, 284.02);
generalPath.closePath();
generalPath.moveTo(421.54, 426.32);
generalPath.curveTo(433.453, 426.32, 443.11102, 416.66202, 443.11102, 404.74902);
generalPath.curveTo(443.11102, 392.83603, 433.45303, 383.17902, 421.54004, 383.17902);
generalPath.curveTo(409.62704, 383.17902, 399.96906, 392.837, 399.96906, 404.74902);
generalPath.curveTo(399.96906, 416.66202, 409.62704, 426.32, 421.54004, 426.32);
generalPath.closePath();
shape = generalPath;
g.setPaint(paint);
g.setStroke(stroke);
g.draw(shape);
g.setTransform(transformsStack.pop());
g.setComposite(AlphaComposite.getInstance(3, 1.0f * origAlpha));
transformsStack.push(g.getTransform());
g.transform(new AffineTransform(1.0f, 0.0f, 0.0f, 1.0f, 0.0f, 0.0f));
// _0_0_2_0_20
if (generalPath == null) {
   generalPath = new GeneralPath();
} else {
   generalPath.reset();
}
generalPath.moveTo(370.02, 409.74);
generalPath.curveTo(374.366, 415.375, 381.771, 415.054, 384.83, 414.56998);
generalPath.curveTo(387.40598, 421.32898, 395.615, 421.16998, 399.15698, 424.86996);
generalPath.curveTo(402.69897, 428.57495, 414.77, 428.25397, 418.31198, 426.15796);
generalPath.curveTo(415.09497, 425.83795, 410.909, 423.90796, 406.88397, 420.52496);
generalPath.curveTo(402.02597, 416.44498, 404.30798, 408.29095, 400.44397, 405.39395);
generalPath.curveTo(403.34198, 402.17395, 403.82498, 396.86194, 403.18097, 394.76895);
generalPath.curveTo(406.24097, 392.99796, 408.49396, 390.09995, 408.81598, 388.65094);
generalPath.curveTo(414.12897, 388.32895, 418.796, 385.59293, 420.72897, 383.50095);
generalPath.curveTo(423.46597, 386.07596, 430.38696, 382.69495, 434.09198, 387.04095);
generalPath.curveTo(434.89597, 376.41595, 424.75397, 370.78195, 417.99197, 374.32394);
generalPath.curveTo(415.25397, 372.87595, 408.01196, 373.84195, 406.72397, 375.77396);
generalPath.curveTo(404.46997, 374.80695, 398.19196, 378.02695, 395.29398, 380.11996);
generalPath.curveTo(398.51398, 378.34998, 398.99597, 373.03696, 397.70798, 371.10495);
generalPath.curveTo(400.44498, 369.97794, 403.50397, 366.27496, 403.82498, 363.53894);
generalPath.curveTo(407.689, 364.18295, 413.48297, 361.60693, 416.05798, 362.25095);
generalPath.curveTo(411.87497, 356.77795, 404.95297, 354.84595, 397.869, 355.32895);
generalPath.curveTo(390.54398, 355.73196, 387.40598, 360.88293, 386.44, 366.43695);
generalPath.curveTo(382.094, 369.01294, 380.645, 377.70496, 382.255, 380.76395);
generalPath.curveTo(379.759, 380.68396, 377.42502, 383.09894, 376.46, 384.46695);
generalPath.curveTo(373.08, 383.01694, 368.25, 381.97195, 364.789, 381.97195);
generalPath.moveTo(366.32, 373.2);
generalPath.curveTo(364.871, 369.015, 366.79, 365.247, 367.769, 361.932);
generalPath.curveTo(370.264, 353.482, 368.73502, 351.307, 361.169, 352.43402);
generalPath.curveTo(360.525, 356.459, 364.389, 369.65903, 366.32, 373.2);
generalPath.closePath();
shape = generalPath;
paint = new Color(255, 255, 255, 255);
g.setPaint(paint);
g.fill(shape);
paint = new Color(0, 0, 0, 255);
stroke = new BasicStroke(0.521f,0,0,4.0f,null,0.0f);
if (generalPath == null) {
   generalPath = new GeneralPath();
} else {
   generalPath.reset();
}
generalPath.moveTo(370.02, 409.74);
generalPath.curveTo(374.366, 415.375, 381.771, 415.054, 384.83, 414.56998);
generalPath.curveTo(387.40598, 421.32898, 395.615, 421.16998, 399.15698, 424.86996);
generalPath.curveTo(402.69897, 428.57495, 414.77, 428.25397, 418.31198, 426.15796);
generalPath.curveTo(415.09497, 425.83795, 410.909, 423.90796, 406.88397, 420.52496);
generalPath.curveTo(402.02597, 416.44498, 404.30798, 408.29095, 400.44397, 405.39395);
generalPath.curveTo(403.34198, 402.17395, 403.82498, 396.86194, 403.18097, 394.76895);
generalPath.curveTo(406.24097, 392.99796, 408.49396, 390.09995, 408.81598, 388.65094);
generalPath.curveTo(414.12897, 388.32895, 418.796, 385.59293, 420.72897, 383.50095);
generalPath.curveTo(423.46597, 386.07596, 430.38696, 382.69495, 434.09198, 387.04095);
generalPath.curveTo(434.89597, 376.41595, 424.75397, 370.78195, 417.99197, 374.32394);
generalPath.curveTo(415.25397, 372.87595, 408.01196, 373.84195, 406.72397, 375.77396);
generalPath.curveTo(404.46997, 374.80695, 398.19196, 378.02695, 395.29398, 380.11996);
generalPath.curveTo(398.51398, 378.34998, 398.99597, 373.03696, 397.70798, 371.10495);
generalPath.curveTo(400.44498, 369.97794, 403.50397, 366.27496, 403.82498, 363.53894);
generalPath.curveTo(407.689, 364.18295, 413.48297, 361.60693, 416.05798, 362.25095);
generalPath.curveTo(411.87497, 356.77795, 404.95297, 354.84595, 397.869, 355.32895);
generalPath.curveTo(390.54398, 355.73196, 387.40598, 360.88293, 386.44, 366.43695);
generalPath.curveTo(382.094, 369.01294, 380.645, 377.70496, 382.255, 380.76395);
generalPath.curveTo(379.759, 380.68396, 377.42502, 383.09894, 376.46, 384.46695);
generalPath.curveTo(373.08, 383.01694, 368.25, 381.97195, 364.789, 381.97195);
generalPath.moveTo(366.32, 373.2);
generalPath.curveTo(364.871, 369.015, 366.79, 365.247, 367.769, 361.932);
generalPath.curveTo(370.264, 353.482, 368.73502, 351.307, 361.169, 352.43402);
generalPath.curveTo(360.525, 356.459, 364.389, 369.65903, 366.32, 373.2);
generalPath.closePath();
shape = generalPath;
g.setPaint(paint);
g.setStroke(stroke);
g.draw(shape);
g.setTransform(transformsStack.pop());
g.setComposite(AlphaComposite.getInstance(3, 1.0f * origAlpha));
transformsStack.push(g.getTransform());
g.transform(new AffineTransform(1.0f, 0.0f, 0.0f, 1.0f, 0.0f, 0.0f));
// _0_0_2_0_21
if (generalPath == null) {
   generalPath = new GeneralPath();
} else {
   generalPath.reset();
}
generalPath.moveTo(360.77, 352.91);
generalPath.curveTo(362.702, 354.842, 369.54398, 355.727, 370.26797, 349.61002);
generalPath.curveTo(371.09998, 342.588, 368.25598, 339.87003, 362.13797, 342.60703);
generalPath.curveTo(361.65598, 344.217, 361.09198, 350.81702, 360.76996, 352.91003);
generalPath.closePath();
shape = generalPath;
paint = new Color(255, 255, 255, 255);
g.setPaint(paint);
g.fill(shape);
paint = new Color(0, 0, 0, 255);
stroke = new BasicStroke(0.521f,0,0,4.0f,null,0.0f);
if (generalPath == null) {
   generalPath = new GeneralPath();
} else {
   generalPath.reset();
}
generalPath.moveTo(360.77, 352.91);
generalPath.curveTo(362.702, 354.842, 369.54398, 355.727, 370.26797, 349.61002);
generalPath.curveTo(371.09998, 342.588, 368.25598, 339.87003, 362.13797, 342.60703);
generalPath.curveTo(361.65598, 344.217, 361.09198, 350.81702, 360.76996, 352.91003);
generalPath.closePath();
shape = generalPath;
g.setPaint(paint);
g.setStroke(stroke);
g.draw(shape);
g.setTransform(transformsStack.pop());
g.setComposite(AlphaComposite.getInstance(3, 1.0f * origAlpha));
transformsStack.push(g.getTransform());
g.transform(new AffineTransform(1.0f, 0.0f, 0.0f, 1.0f, 0.0f, 0.0f));
// _0_0_2_0_22
if (generalPath == null) {
   generalPath = new GeneralPath();
} else {
   generalPath.reset();
}
generalPath.moveTo(362.22, 342.37);
generalPath.curveTo(364.796, 343.416, 370.35, 345.509, 373.408, 339.553);
generalPath.curveTo(375.974, 334.557, 372.603, 330.699, 367.291, 331.02002);
generalPath.curveTo(366.003, 332.47003, 363.42798, 337.62003, 362.21997, 342.37003);
generalPath.closePath();
shape = generalPath;
paint = new Color(255, 255, 255, 255);
g.setPaint(paint);
g.fill(shape);
paint = new Color(0, 0, 0, 255);
stroke = new BasicStroke(0.521f,0,0,4.0f,null,0.0f);
if (generalPath == null) {
   generalPath = new GeneralPath();
} else {
   generalPath.reset();
}
generalPath.moveTo(362.22, 342.37);
generalPath.curveTo(364.796, 343.416, 370.35, 345.509, 373.408, 339.553);
generalPath.curveTo(375.974, 334.557, 372.603, 330.699, 367.291, 331.02002);
generalPath.curveTo(366.003, 332.47003, 363.42798, 337.62003, 362.21997, 342.37003);
generalPath.closePath();
shape = generalPath;
g.setPaint(paint);
g.setStroke(stroke);
g.draw(shape);
g.setTransform(transformsStack.pop());
g.setComposite(AlphaComposite.getInstance(3, 1.0f * origAlpha));
transformsStack.push(g.getTransform());
g.transform(new AffineTransform(1.0f, 0.0f, 0.0f, 1.0f, 0.0f, 0.0f));
// _0_0_2_0_23
if (generalPath == null) {
   generalPath = new GeneralPath();
} else {
   generalPath.reset();
}
generalPath.moveTo(366.97, 330.54);
generalPath.curveTo(367.614, 332.47202, 374.214, 338.91, 379.043, 334.243);
generalPath.curveTo(383.873, 329.574, 383.873, 322.653, 376.628, 320.07703);
generalPath.curveTo(374.69598, 320.39804, 368.901, 327.15903, 366.97, 330.54004);
generalPath.closePath();
shape = generalPath;
paint = new Color(255, 255, 255, 255);
g.setPaint(paint);
g.fill(shape);
paint = new Color(0, 0, 0, 255);
stroke = new BasicStroke(0.521f,0,0,4.0f,null,0.0f);
if (generalPath == null) {
   generalPath = new GeneralPath();
} else {
   generalPath.reset();
}
generalPath.moveTo(366.97, 330.54);
generalPath.curveTo(367.614, 332.47202, 374.214, 338.91, 379.043, 334.243);
generalPath.curveTo(383.873, 329.574, 383.873, 322.653, 376.628, 320.07703);
generalPath.curveTo(374.69598, 320.39804, 368.901, 327.15903, 366.97, 330.54004);
generalPath.closePath();
shape = generalPath;
g.setPaint(paint);
g.setStroke(stroke);
g.draw(shape);
g.setTransform(transformsStack.pop());
g.setComposite(AlphaComposite.getInstance(3, 1.0f * origAlpha));
transformsStack.push(g.getTransform());
g.transform(new AffineTransform(1.0f, 0.0f, 0.0f, 1.0f, 0.0f, 0.0f));
// _0_0_2_0_24
if (generalPath == null) {
   generalPath = new GeneralPath();
} else {
   generalPath.reset();
}
generalPath.moveTo(376.62, 320.08);
generalPath.curveTo(378.069, 324.10397, 382.576, 331.026, 390.947, 327.80698);
generalPath.curveTo(399.318, 324.58698, 395.77698, 314.12396, 391.913, 312.03098);
generalPath.curveTo(389.659, 312.19098, 380.483, 316.37698, 376.62, 320.08);
generalPath.closePath();
shape = generalPath;
paint = new Color(255, 255, 255, 255);
g.setPaint(paint);
g.fill(shape);
paint = new Color(0, 0, 0, 255);
stroke = new BasicStroke(0.521f,0,0,4.0f,null,0.0f);
if (generalPath == null) {
   generalPath = new GeneralPath();
} else {
   generalPath.reset();
}
generalPath.moveTo(376.62, 320.08);
generalPath.curveTo(378.069, 324.10397, 382.576, 331.026, 390.947, 327.80698);
generalPath.curveTo(399.318, 324.58698, 395.77698, 314.12396, 391.913, 312.03098);
generalPath.curveTo(389.659, 312.19098, 380.483, 316.37698, 376.62, 320.08);
generalPath.closePath();
shape = generalPath;
g.setPaint(paint);
g.setStroke(stroke);
g.draw(shape);
g.setTransform(transformsStack.pop());
g.setComposite(AlphaComposite.getInstance(3, 1.0f * origAlpha));
transformsStack.push(g.getTransform());
g.transform(new AffineTransform(1.0f, 0.0f, 0.0f, 1.0f, 0.0f, 0.0f));
// _0_0_2_0_25
if (generalPath == null) {
   generalPath = new GeneralPath();
} else {
   generalPath.reset();
}
generalPath.moveTo(391.92, 312.03);
generalPath.curveTo(391.276, 315.572, 391.92, 325.23, 403.349, 325.069);
generalPath.curveTo(414.777, 324.909, 411.56, 311.547, 408.662, 309.615);
generalPath.curveTo(403.99298, 309.615, 396.106, 309.775, 391.91998, 312.03);
generalPath.closePath();
shape = generalPath;
paint = new Color(255, 255, 255, 255);
g.setPaint(paint);
g.fill(shape);
paint = new Color(0, 0, 0, 255);
stroke = new BasicStroke(0.521f,0,0,4.0f,null,0.0f);
if (generalPath == null) {
   generalPath = new GeneralPath();
} else {
   generalPath.reset();
}
generalPath.moveTo(391.92, 312.03);
generalPath.curveTo(391.276, 315.572, 391.92, 325.23, 403.349, 325.069);
generalPath.curveTo(414.777, 324.909, 411.56, 311.547, 408.662, 309.615);
generalPath.curveTo(403.99298, 309.615, 396.106, 309.775, 391.91998, 312.03);
generalPath.closePath();
shape = generalPath;
g.setPaint(paint);
g.setStroke(stroke);
g.draw(shape);
g.setTransform(transformsStack.pop());
g.setComposite(AlphaComposite.getInstance(3, 1.0f * origAlpha));
transformsStack.push(g.getTransform());
g.transform(new AffineTransform(1.0f, 0.0f, 0.0f, 1.0f, 0.0f, 0.0f));
// _0_0_2_0_26
if (generalPath == null) {
   generalPath = new GeneralPath();
} else {
   generalPath.reset();
}
generalPath.moveTo(409.14, 310.09);
generalPath.curveTo(407.85202, 312.827, 404.95, 330.84, 427.33102, 325.866);
generalPath.curveTo(430.22702, 325.222, 437.79404, 308.641, 409.14, 310.09);
generalPath.closePath();
shape = generalPath;
paint = new Color(255, 255, 255, 255);
g.setPaint(paint);
g.fill(shape);
paint = new Color(0, 0, 0, 255);
stroke = new BasicStroke(0.521f,0,0,4.0f,null,0.0f);
if (generalPath == null) {
   generalPath = new GeneralPath();
} else {
   generalPath.reset();
}
generalPath.moveTo(409.14, 310.09);
generalPath.curveTo(407.85202, 312.827, 404.95, 330.84, 427.33102, 325.866);
generalPath.curveTo(430.22702, 325.222, 437.79404, 308.641, 409.14, 310.09);
generalPath.closePath();
shape = generalPath;
g.setPaint(paint);
g.setStroke(stroke);
g.draw(shape);
g.setTransform(transformsStack.pop());
g.setComposite(AlphaComposite.getInstance(3, 1.0f * origAlpha));
transformsStack.push(g.getTransform());
g.transform(new AffineTransform(1.0f, 0.0f, 0.0f, 1.0f, 0.0f, 0.0f));
// _0_0_2_0_27
if (generalPath == null) {
   generalPath = new GeneralPath();
} else {
   generalPath.reset();
}
generalPath.moveTo(421.37, 311.7);
generalPath.curveTo(419.12, 313.953, 424.912, 332.144, 440.04498, 329.08502);
generalPath.curveTo(455.17798, 326.02603, 442.46198, 308.80203, 421.37, 311.7);
generalPath.closePath();
shape = generalPath;
paint = new Color(255, 255, 255, 255);
g.setPaint(paint);
g.fill(shape);
paint = new Color(0, 0, 0, 255);
stroke = new BasicStroke(0.521f,0,0,4.0f,null,0.0f);
if (generalPath == null) {
   generalPath = new GeneralPath();
} else {
   generalPath.reset();
}
generalPath.moveTo(421.37, 311.7);
generalPath.curveTo(419.12, 313.953, 424.912, 332.144, 440.04498, 329.08502);
generalPath.curveTo(455.17798, 326.02603, 442.46198, 308.80203, 421.37, 311.7);
generalPath.closePath();
shape = generalPath;
g.setPaint(paint);
g.setStroke(stroke);
g.draw(shape);
g.setTransform(transformsStack.pop());
g.setComposite(AlphaComposite.getInstance(3, 1.0f * origAlpha));
transformsStack.push(g.getTransform());
g.transform(new AffineTransform(1.0f, 0.0f, 0.0f, 1.0f, 0.0f, 0.0f));
// _0_0_2_0_28
if (generalPath == null) {
   generalPath = new GeneralPath();
} else {
   generalPath.reset();
}
generalPath.moveTo(434.25, 314.44);
generalPath.curveTo(431.837, 319.43, 435.462, 334.24, 454.133, 334.24);
generalPath.curveTo(471.054, 334.24, 453.246, 314.762, 434.25, 314.44);
generalPath.closePath();
shape = generalPath;
paint = new Color(255, 255, 255, 255);
g.setPaint(paint);
g.fill(shape);
paint = new Color(0, 0, 0, 255);
stroke = new BasicStroke(0.521f,0,0,4.0f,null,0.0f);
if (generalPath == null) {
   generalPath = new GeneralPath();
} else {
   generalPath.reset();
}
generalPath.moveTo(434.25, 314.44);
generalPath.curveTo(431.837, 319.43, 435.462, 334.24, 454.133, 334.24);
generalPath.curveTo(471.054, 334.24, 453.246, 314.762, 434.25, 314.44);
generalPath.closePath();
shape = generalPath;
g.setPaint(paint);
g.setStroke(stroke);
g.draw(shape);
g.setTransform(transformsStack.pop());
g.setComposite(AlphaComposite.getInstance(3, 1.0f * origAlpha));
transformsStack.push(g.getTransform());
g.transform(new AffineTransform(1.0f, 0.0f, 0.0f, 1.0f, 0.0f, 0.0f));
// _0_0_2_0_29
if (generalPath == null) {
   generalPath = new GeneralPath();
} else {
   generalPath.reset();
}
generalPath.moveTo(448.9, 318.79);
generalPath.curveTo(447.688, 321.556, 446.20398, 337.258, 468.21698, 338.59);
generalPath.curveTo(484.15497, 339.556, 480.292, 317.01898, 448.9, 318.79);
generalPath.closePath();
shape = generalPath;
paint = new Color(255, 255, 255, 255);
g.setPaint(paint);
g.fill(shape);
paint = new Color(0, 0, 0, 255);
stroke = new BasicStroke(0.521f,0,0,4.0f,null,0.0f);
if (generalPath == null) {
   generalPath = new GeneralPath();
} else {
   generalPath.reset();
}
generalPath.moveTo(448.9, 318.79);
generalPath.curveTo(447.688, 321.556, 446.20398, 337.258, 468.21698, 338.59);
generalPath.curveTo(484.15497, 339.556, 480.292, 317.01898, 448.9, 318.79);
generalPath.closePath();
shape = generalPath;
g.setPaint(paint);
g.setStroke(stroke);
g.draw(shape);
g.setTransform(transformsStack.pop());
g.setComposite(AlphaComposite.getInstance(3, 1.0f * origAlpha));
transformsStack.push(g.getTransform());
g.transform(new AffineTransform(1.0f, 0.0f, 0.0f, 1.0f, 0.0f, 0.0f));
// _0_0_2_0_30
if (generalPath == null) {
   generalPath = new GeneralPath();
} else {
   generalPath.reset();
}
generalPath.moveTo(472.57, 325.39);
generalPath.curveTo(469.837, 330.22, 466.937, 342.29303, 491.083, 343.259);
generalPath.curveTo(506.55402, 343.879, 497.04102, 325.712, 472.57, 325.39);
generalPath.closePath();
shape = generalPath;
paint = new Color(255, 255, 255, 255);
g.setPaint(paint);
g.fill(shape);
paint = new Color(0, 0, 0, 255);
stroke = new BasicStroke(0.521f,0,0,4.0f,null,0.0f);
if (generalPath == null) {
   generalPath = new GeneralPath();
} else {
   generalPath.reset();
}
generalPath.moveTo(472.57, 325.39);
generalPath.curveTo(469.837, 330.22, 466.937, 342.29303, 491.083, 343.259);
generalPath.curveTo(506.55402, 343.879, 497.04102, 325.712, 472.57, 325.39);
generalPath.closePath();
shape = generalPath;
g.setPaint(paint);
g.setStroke(stroke);
g.draw(shape);
g.setTransform(transformsStack.pop());
g.setComposite(AlphaComposite.getInstance(3, 1.0f * origAlpha));
transformsStack.push(g.getTransform());
g.transform(new AffineTransform(1.0f, 0.0f, 0.0f, 1.0f, 0.0f, 0.0f));
// _0_0_2_0_31
if (generalPath == null) {
   generalPath = new GeneralPath();
} else {
   generalPath.reset();
}
generalPath.moveTo(492.69, 329.09);
generalPath.curveTo(489.148, 333.91998, 491.757, 343.393, 500.736, 345.188);
generalPath.curveTo(512.006, 347.442, 513.615, 336.818, 505.88998, 331.666);
generalPath.curveTo(498.15997, 326.51498, 492.68997, 329.09, 492.68997, 329.09);
generalPath.closePath();
shape = generalPath;
paint = new Color(255, 255, 255, 255);
g.setPaint(paint);
g.fill(shape);
paint = new Color(0, 0, 0, 255);
stroke = new BasicStroke(0.521f,0,0,4.0f,null,0.0f);
if (generalPath == null) {
   generalPath = new GeneralPath();
} else {
   generalPath.reset();
}
generalPath.moveTo(492.69, 329.09);
generalPath.curveTo(489.148, 333.91998, 491.757, 343.393, 500.736, 345.188);
generalPath.curveTo(512.006, 347.442, 513.615, 336.818, 505.88998, 331.666);
generalPath.curveTo(498.15997, 326.51498, 492.68997, 329.09, 492.68997, 329.09);
generalPath.closePath();
shape = generalPath;
g.setPaint(paint);
g.setStroke(stroke);
g.draw(shape);
g.setTransform(transformsStack.pop());
g.setComposite(AlphaComposite.getInstance(3, 1.0f * origAlpha));
transformsStack.push(g.getTransform());
g.transform(new AffineTransform(1.0f, 0.0f, 0.0f, 1.0f, 0.0f, 0.0f));
// _0_0_2_0_32
if (generalPath == null) {
   generalPath = new GeneralPath();
} else {
   generalPath.reset();
}
generalPath.moveTo(503.64, 331.34);
generalPath.curveTo(501.065, 335.848, 502.66, 346.794, 519.736, 346.794);
generalPath.curveTo(523.278, 346.794, 536.80304, 332.95, 503.64, 331.34);
generalPath.closePath();
generalPath.moveTo(371.48, 541.27);
generalPath.curveTo(385.31, 541.27, 396.522, 530.057, 396.522, 516.228);
generalPath.curveTo(396.522, 502.39502, 385.31, 491.18204, 371.48, 491.18204);
generalPath.curveTo(357.64902, 491.18204, 346.437, 502.39505, 346.437, 516.228);
generalPath.curveTo(346.437, 530.057, 357.64902, 541.27, 371.48, 541.27);
generalPath.closePath();
shape = generalPath;
paint = new Color(255, 255, 255, 255);
g.setPaint(paint);
g.fill(shape);
paint = new Color(0, 0, 0, 255);
stroke = new BasicStroke(0.521f,0,0,4.0f,null,0.0f);
if (generalPath == null) {
   generalPath = new GeneralPath();
} else {
   generalPath.reset();
}
generalPath.moveTo(503.64, 331.34);
generalPath.curveTo(501.065, 335.848, 502.66, 346.794, 519.736, 346.794);
generalPath.curveTo(523.278, 346.794, 536.80304, 332.95, 503.64, 331.34);
generalPath.closePath();
generalPath.moveTo(371.48, 541.27);
generalPath.curveTo(385.31, 541.27, 396.522, 530.057, 396.522, 516.228);
generalPath.curveTo(396.522, 502.39502, 385.31, 491.18204, 371.48, 491.18204);
generalPath.curveTo(357.64902, 491.18204, 346.437, 502.39505, 346.437, 516.228);
generalPath.curveTo(346.437, 530.057, 357.64902, 541.27, 371.48, 541.27);
generalPath.closePath();
shape = generalPath;
g.setPaint(paint);
g.setStroke(stroke);
g.draw(shape);
g.setTransform(transformsStack.pop());
g.setComposite(AlphaComposite.getInstance(3, 1.0f * origAlpha));
transformsStack.push(g.getTransform());
g.transform(new AffineTransform(1.0f, 0.0f, 0.0f, 1.0f, 0.0f, 0.0f));
// _0_0_2_0_33
if (generalPath == null) {
   generalPath = new GeneralPath();
} else {
   generalPath.reset();
}
generalPath.moveTo(555.15, 177.13);
generalPath.curveTo(553.21704, 179.06201, 549.19604, 184.85701, 548.387, 187.11);
generalPath.curveTo(540.017, 212.223, 562.362, 230.981, 575.43304, 257.94);
generalPath.curveTo(585.73706, 279.19, 584.4501, 312.673, 568.35004, 333.922);
generalPath.curveTo(562.84204, 341.191, 564.48804, 343.259, 557.40405, 350.664);
generalPath.curveTo(554.6871, 353.505, 551.60803, 357.104, 552.5751, 367.406);
generalPath.curveTo(557.08307, 365.79602, 563.52106, 369.982, 564.80804, 373.52402);
generalPath.curveTo(568.028, 371.91403, 572.538, 372.558, 574.145, 374.489);
generalPath.curveTo(579.616, 371.914, 584.125, 373.20102, 588.953, 378.35303);
generalPath.curveTo(593.141, 377.709, 597.649, 378.35303, 601.833, 382.86002);
generalPath.curveTo(604.08704, 378.35303, 608.59503, 376.743, 611.812, 377.709);
generalPath.curveTo(611.491, 371.914, 617.287, 367.729, 622.437, 369.98203);
generalPath.curveTo(620.828, 362.25504, 627.912, 356.459, 634.675, 358.713);
generalPath.curveTo(640.466, 354.20602, 652.058, 353.884, 657.854, 360.64502);
generalPath.curveTo(647.55, 357.74802, 647.874, 368.695, 639.179, 367.72803);
generalPath.curveTo(641.43304, 374.16803, 635.637, 377.87003, 629.84503, 379.96204);
generalPath.curveTo(633.54504, 378.19205, 637.57, 376.09903, 638.85803, 378.35205);
generalPath.curveTo(642.078, 375.53604, 648.51605, 376.58206, 650.12805, 378.03104);
generalPath.curveTo(654.39105, 376.66302, 658.50006, 377.70905, 660.42804, 382.86005);
generalPath.curveTo(666.22504, 386.40204, 670.088, 395.41605, 665.90405, 402.17804);
generalPath.curveTo(664.616, 395.09503, 659.78705, 395.41705, 657.85406, 392.51904);
generalPath.curveTo(653.3451, 394.12903, 648.83704, 394.12903, 647.55005, 391.23105);
generalPath.curveTo(644.97504, 393.80704, 636.283, 396.06104, 632.42004, 392.19705);
generalPath.curveTo(630.97003, 397.99207, 625.98004, 402.82205, 620.18304, 402.82205);
generalPath.curveTo(621.79504, 407.32904, 617.28705, 415.05804, 613.74506, 418.92004);
generalPath.curveTo(619.22003, 421.81604, 617.60803, 428.25705, 616.32007, 432.12006);
generalPath.curveTo(624.69104, 433.40704, 617.6081, 440.81204, 632.0951, 445.64105);
generalPath.curveTo(625.0161, 447.89505, 611.1701, 445.64105, 609.2371, 436.94907);
generalPath.curveTo(602.1541, 436.62906, 597.3241, 429.54507, 597.6491, 422.13608);
generalPath.curveTo(592.17413, 416.98608, 591.3701, 409.5821, 598.93713, 404.4311);
generalPath.curveTo(592.4951, 406.3631, 588.9531, 396.0611, 579.61615, 400.2461);
generalPath.curveTo(574.9741, 402.3281, 562.7161, 398.7971, 562.8782, 394.4501);
generalPath.curveTo(560.94415, 397.6701, 549.1952, 396.38312, 547.58215, 390.9101);
generalPath.curveTo(543.7192, 393.0021, 534.70215, 389.46008, 534.8652, 384.1481);
generalPath.curveTo(529.87317, 386.4021, 523.1152, 382.3781, 523.4352, 377.2261);
generalPath.curveTo(518.76917, 376.5821, 518.28516, 372.39612, 518.6072, 368.8561);
generalPath.curveTo(514.4192, 366.9231, 515.54816, 362.8991, 517.15717, 358.0701);
generalPath.curveTo(514.26117, 354.8501, 515.54816, 350.3431, 517.8022, 346.1571);
generalPath.curveTo(514.5822, 342.9371, 515.2272, 339.0741, 516.1902, 334.5671);
generalPath.curveTo(500.73618, 333.2791, 481.3772, 329.5521, 436.99017, 315.8941);
generalPath.curveTo(370.02316, 295.2891, 351.99316, 343.5821, 366.80316, 373.8461);
generalPath.curveTo(383.89017, 408.7661, 364.87115, 416.3461, 370.66718, 442.4261);
generalPath.curveTo(376.78418, 443.71307, 380.00317, 448.8631, 379.6822, 454.33807);
generalPath.curveTo(383.3022, 454.49606, 385.8782, 457.87607, 384.5912, 464.31808);
generalPath.curveTo(387.6492, 463.7551, 391.59418, 464.6381, 394.1692, 467.21307);
generalPath.curveTo(396.4232, 463.03006, 403.8292, 462.06308, 407.6922, 466.89307);
generalPath.curveTo(416.0622, 466.24606, 420.2482, 473.00906, 419.9272, 481.38007);
generalPath.curveTo(424.4322, 489.43005, 422.82318, 499.25107, 417.99417, 505.52606);
generalPath.curveTo(418.47717, 502.14706, 417.99417, 497.31805, 417.83618, 494.42206);
generalPath.curveTo(417.5362, 489.09305, 410.10617, 487.98105, 410.91217, 483.63406);
generalPath.curveTo(407.04816, 483.95508, 403.34518, 481.86407, 402.05817, 478.96808);
generalPath.curveTo(399.80417, 480.89706, 396.58417, 481.5431, 393.84818, 480.57608);
generalPath.curveTo(398.19418, 482.5091, 401.57516, 490.23407, 400.28717, 495.3841);
generalPath.curveTo(402.54117, 499.2511, 402.05716, 506.3341, 399.32117, 509.3921);
generalPath.curveTo(398.03317, 515.6671, 393.20416, 517.9221, 386.92618, 515.1841);
generalPath.curveTo(390.46817, 512.9341, 391.75616, 508.9091, 391.59418, 505.5251);
generalPath.curveTo(389.3412, 503.5961, 388.21417, 499.8921, 388.0532, 497.6381);
generalPath.curveTo(381.7752, 498.6041, 373.08218, 493.29208, 371.4792, 491.19208);
generalPath.curveTo(357.6482, 491.19208, 346.4362, 502.4051, 346.4362, 516.2381);
generalPath.curveTo(345.79218, 511.0841, 339.27618, 506.0091, 340.08118, 501.6631);
generalPath.curveTo(336.21817, 489.7501, 341.69116, 478.6421, 357.46716, 476.3921);
generalPath.curveTo(355.53616, 471.8841, 362.29715, 467.2121, 359.72116, 462.06308);
generalPath.curveTo(356.43115, 455.4831, 350.38516, 446.93008, 341.37115, 436.95007);
generalPath.curveTo(346.84415, 427.61206, 345.23416, 415.05807, 342.01416, 407.33008);
generalPath.curveTo(337.39117, 396.23407, 332.99915, 398.96008, 316.57916, 416.98807);
generalPath.curveTo(289.81915, 446.37106, 254.11917, 438.23807, 222.56717, 457.55505);
generalPath.curveTo(214.18317, 462.68805, 205.82617, 464.63806, 214.84016, 455.62506);
generalPath.curveTo(223.85516, 446.60907, 247.68016, 437.59705, 263.13318, 429.86807);
generalPath.curveTo(292.07318, 415.39706, 316.5782, 391.23306, 326.23718, 344.2281);
generalPath.curveTo(348.93417, 233.7681, 432.47717, 270.1781, 485.27716, 290.78308);
generalPath.curveTo(534.84814, 310.1291, 525.8442, 266.31308, 500.73117, 239.91309);
generalPath.curveTo(470.54816, 208.18208, 476.58517, 183.25009, 490.75217, 163.28809);
generalPath.curveTo(516.1852, 159.74608, 564.96515, 168.60008, 555.14417, 177.13309);
generalPath.closePath();
shape = generalPath;
paint = new Color(255, 255, 255, 255);
g.setPaint(paint);
g.fill(shape);
paint = new Color(0, 0, 0, 255);
stroke = new BasicStroke(0.521f,0,0,4.0f,null,0.0f);
if (generalPath == null) {
   generalPath = new GeneralPath();
} else {
   generalPath.reset();
}
generalPath.moveTo(555.15, 177.13);
generalPath.curveTo(553.21704, 179.06201, 549.19604, 184.85701, 548.387, 187.11);
generalPath.curveTo(540.017, 212.223, 562.362, 230.981, 575.43304, 257.94);
generalPath.curveTo(585.73706, 279.19, 584.4501, 312.673, 568.35004, 333.922);
generalPath.curveTo(562.84204, 341.191, 564.48804, 343.259, 557.40405, 350.664);
generalPath.curveTo(554.6871, 353.505, 551.60803, 357.104, 552.5751, 367.406);
generalPath.curveTo(557.08307, 365.79602, 563.52106, 369.982, 564.80804, 373.52402);
generalPath.curveTo(568.028, 371.91403, 572.538, 372.558, 574.145, 374.489);
generalPath.curveTo(579.616, 371.914, 584.125, 373.20102, 588.953, 378.35303);
generalPath.curveTo(593.141, 377.709, 597.649, 378.35303, 601.833, 382.86002);
generalPath.curveTo(604.08704, 378.35303, 608.59503, 376.743, 611.812, 377.709);
generalPath.curveTo(611.491, 371.914, 617.287, 367.729, 622.437, 369.98203);
generalPath.curveTo(620.828, 362.25504, 627.912, 356.459, 634.675, 358.713);
generalPath.curveTo(640.466, 354.20602, 652.058, 353.884, 657.854, 360.64502);
generalPath.curveTo(647.55, 357.74802, 647.874, 368.695, 639.179, 367.72803);
generalPath.curveTo(641.43304, 374.16803, 635.637, 377.87003, 629.84503, 379.96204);
generalPath.curveTo(633.54504, 378.19205, 637.57, 376.09903, 638.85803, 378.35205);
generalPath.curveTo(642.078, 375.53604, 648.51605, 376.58206, 650.12805, 378.03104);
generalPath.curveTo(654.39105, 376.66302, 658.50006, 377.70905, 660.42804, 382.86005);
generalPath.curveTo(666.22504, 386.40204, 670.088, 395.41605, 665.90405, 402.17804);
generalPath.curveTo(664.616, 395.09503, 659.78705, 395.41705, 657.85406, 392.51904);
generalPath.curveTo(653.3451, 394.12903, 648.83704, 394.12903, 647.55005, 391.23105);
generalPath.curveTo(644.97504, 393.80704, 636.283, 396.06104, 632.42004, 392.19705);
generalPath.curveTo(630.97003, 397.99207, 625.98004, 402.82205, 620.18304, 402.82205);
generalPath.curveTo(621.79504, 407.32904, 617.28705, 415.05804, 613.74506, 418.92004);
generalPath.curveTo(619.22003, 421.81604, 617.60803, 428.25705, 616.32007, 432.12006);
generalPath.curveTo(624.69104, 433.40704, 617.6081, 440.81204, 632.0951, 445.64105);
generalPath.curveTo(625.0161, 447.89505, 611.1701, 445.64105, 609.2371, 436.94907);
generalPath.curveTo(602.1541, 436.62906, 597.3241, 429.54507, 597.6491, 422.13608);
generalPath.curveTo(592.17413, 416.98608, 591.3701, 409.5821, 598.93713, 404.4311);
generalPath.curveTo(592.4951, 406.3631, 588.9531, 396.0611, 579.61615, 400.2461);
generalPath.curveTo(574.9741, 402.3281, 562.7161, 398.7971, 562.8782, 394.4501);
generalPath.curveTo(560.94415, 397.6701, 549.1952, 396.38312, 547.58215, 390.9101);
generalPath.curveTo(543.7192, 393.0021, 534.70215, 389.46008, 534.8652, 384.1481);
generalPath.curveTo(529.87317, 386.4021, 523.1152, 382.3781, 523.4352, 377.2261);
generalPath.curveTo(518.76917, 376.5821, 518.28516, 372.39612, 518.6072, 368.8561);
generalPath.curveTo(514.4192, 366.9231, 515.54816, 362.8991, 517.15717, 358.0701);
generalPath.curveTo(514.26117, 354.8501, 515.54816, 350.3431, 517.8022, 346.1571);
generalPath.curveTo(514.5822, 342.9371, 515.2272, 339.0741, 516.1902, 334.5671);
generalPath.curveTo(500.73618, 333.2791, 481.3772, 329.5521, 436.99017, 315.8941);
generalPath.curveTo(370.02316, 295.2891, 351.99316, 343.5821, 366.80316, 373.8461);
generalPath.curveTo(383.89017, 408.7661, 364.87115, 416.3461, 370.66718, 442.4261);
generalPath.curveTo(376.78418, 443.71307, 380.00317, 448.8631, 379.6822, 454.33807);
generalPath.curveTo(383.3022, 454.49606, 385.8782, 457.87607, 384.5912, 464.31808);
generalPath.curveTo(387.6492, 463.7551, 391.59418, 464.6381, 394.1692, 467.21307);
generalPath.curveTo(396.4232, 463.03006, 403.8292, 462.06308, 407.6922, 466.89307);
generalPath.curveTo(416.0622, 466.24606, 420.2482, 473.00906, 419.9272, 481.38007);
generalPath.curveTo(424.4322, 489.43005, 422.82318, 499.25107, 417.99417, 505.52606);
generalPath.curveTo(418.47717, 502.14706, 417.99417, 497.31805, 417.83618, 494.42206);
generalPath.curveTo(417.5362, 489.09305, 410.10617, 487.98105, 410.91217, 483.63406);
generalPath.curveTo(407.04816, 483.95508, 403.34518, 481.86407, 402.05817, 478.96808);
generalPath.curveTo(399.80417, 480.89706, 396.58417, 481.5431, 393.84818, 480.57608);
generalPath.curveTo(398.19418, 482.5091, 401.57516, 490.23407, 400.28717, 495.3841);
generalPath.curveTo(402.54117, 499.2511, 402.05716, 506.3341, 399.32117, 509.3921);
generalPath.curveTo(398.03317, 515.6671, 393.20416, 517.9221, 386.92618, 515.1841);
generalPath.curveTo(390.46817, 512.9341, 391.75616, 508.9091, 391.59418, 505.5251);
generalPath.curveTo(389.3412, 503.5961, 388.21417, 499.8921, 388.0532, 497.6381);
generalPath.curveTo(381.7752, 498.6041, 373.08218, 493.29208, 371.4792, 491.19208);
generalPath.curveTo(357.6482, 491.19208, 346.4362, 502.4051, 346.4362, 516.2381);
generalPath.curveTo(345.79218, 511.0841, 339.27618, 506.0091, 340.08118, 501.6631);
generalPath.curveTo(336.21817, 489.7501, 341.69116, 478.6421, 357.46716, 476.3921);
generalPath.curveTo(355.53616, 471.8841, 362.29715, 467.2121, 359.72116, 462.06308);
generalPath.curveTo(356.43115, 455.4831, 350.38516, 446.93008, 341.37115, 436.95007);
generalPath.curveTo(346.84415, 427.61206, 345.23416, 415.05807, 342.01416, 407.33008);
generalPath.curveTo(337.39117, 396.23407, 332.99915, 398.96008, 316.57916, 416.98807);
generalPath.curveTo(289.81915, 446.37106, 254.11917, 438.23807, 222.56717, 457.55505);
generalPath.curveTo(214.18317, 462.68805, 205.82617, 464.63806, 214.84016, 455.62506);
generalPath.curveTo(223.85516, 446.60907, 247.68016, 437.59705, 263.13318, 429.86807);
generalPath.curveTo(292.07318, 415.39706, 316.5782, 391.23306, 326.23718, 344.2281);
generalPath.curveTo(348.93417, 233.7681, 432.47717, 270.1781, 485.27716, 290.78308);
generalPath.curveTo(534.84814, 310.1291, 525.8442, 266.31308, 500.73117, 239.91309);
generalPath.curveTo(470.54816, 208.18208, 476.58517, 183.25009, 490.75217, 163.28809);
generalPath.curveTo(516.1852, 159.74608, 564.96515, 168.60008, 555.14417, 177.13309);
generalPath.closePath();
shape = generalPath;
g.setPaint(paint);
g.setStroke(stroke);
g.draw(shape);
g.setTransform(transformsStack.pop());
g.setComposite(AlphaComposite.getInstance(3, 1.0f * origAlpha));
transformsStack.push(g.getTransform());
g.transform(new AffineTransform(1.0f, 0.0f, 0.0f, 1.0f, 0.0f, 0.0f));
// _0_0_2_0_34
if (generalPath == null) {
   generalPath = new GeneralPath();
} else {
   generalPath.reset();
}
generalPath.moveTo(644.82, 448.48);
generalPath.curveTo(660.037, 448.48, 672.374, 436.147, 672.374, 420.93002);
generalPath.curveTo(672.374, 405.71204, 660.036, 393.37604, 644.82, 393.37604);
generalPath.curveTo(629.603, 393.37604, 617.266, 405.71204, 617.266, 420.93005);
generalPath.curveTo(617.266, 436.14706, 629.604, 448.48004, 644.82, 448.48004);
generalPath.closePath();
shape = generalPath;
paint = new Color(255, 255, 255, 255);
g.setPaint(paint);
g.fill(shape);
paint = new Color(0, 0, 0, 255);
stroke = new BasicStroke(0.521f,0,0,4.0f,null,0.0f);
if (generalPath == null) {
   generalPath = new GeneralPath();
} else {
   generalPath.reset();
}
generalPath.moveTo(644.82, 448.48);
generalPath.curveTo(660.037, 448.48, 672.374, 436.147, 672.374, 420.93002);
generalPath.curveTo(672.374, 405.71204, 660.036, 393.37604, 644.82, 393.37604);
generalPath.curveTo(629.603, 393.37604, 617.266, 405.71204, 617.266, 420.93005);
generalPath.curveTo(617.266, 436.14706, 629.604, 448.48004, 644.82, 448.48004);
generalPath.closePath();
shape = generalPath;
g.setPaint(paint);
g.setStroke(stroke);
g.draw(shape);
g.setTransform(transformsStack.pop());
g.setTransform(transformsStack.pop());
g.setComposite(AlphaComposite.getInstance(3, 1.0f * origAlpha));
transformsStack.push(g.getTransform());
g.transform(new AffineTransform(1.0f, 0.0f, 0.0f, 1.0f, 0.0f, 0.0f));
// _0_0_2_1
g.setComposite(AlphaComposite.getInstance(3, 1.0f * origAlpha));
transformsStack.push(g.getTransform());
g.transform(new AffineTransform(1.0f, 0.0f, 0.0f, 1.0f, 0.0f, 0.0f));
// _0_0_2_1_0
paint = new Color(0, 0, 0, 255);
stroke = new BasicStroke(0.521f,0,0,4.0f,null,0.0f);
if (generalPath == null) {
   generalPath = new GeneralPath();
} else {
   generalPath.reset();
}
generalPath.moveTo(539.7, 178.41);
generalPath.curveTo(533.583, 205.455, 538.73303, 217.689, 547.75, 229.60101);
generalPath.curveTo(566.379, 254.22202, 581.23303, 310.41202, 559.983, 347.11102);
shape = generalPath;
g.setPaint(paint);
g.setStroke(stroke);
g.draw(shape);
g.setTransform(transformsStack.pop());
g.setComposite(AlphaComposite.getInstance(3, 1.0f * origAlpha));
transformsStack.push(g.getTransform());
g.transform(new AffineTransform(1.0f, 0.0f, 0.0f, 1.0f, 0.0f, 0.0f));
// _0_0_2_1_1
g.setComposite(AlphaComposite.getInstance(3, 1.0f * origAlpha));
transformsStack.push(g.getTransform());
g.transform(new AffineTransform(1.0f, 0.0f, 0.0f, 1.0f, 0.0f, 0.0f));
// _0_0_2_1_1_0
paint = new Color(0, 0, 0, 255);
stroke = new BasicStroke(0.521f,1,0,4.0f,null,0.0f);
if (generalPath == null) {
   generalPath = new GeneralPath();
} else {
   generalPath.reset();
}
generalPath.moveTo(571.89, 315.41);
generalPath.curveTo(574.465, 314.444, 579.294, 311.38602, 580.42303, 306.073);
generalPath.moveTo(573.82, 303.66);
generalPath.curveTo(574.624, 298.992, 581.866, 296.98, 582.028, 291.99);
generalPath.moveTo(573.98, 285.46);
generalPath.curveTo(573.497, 280.63, 581.22595, 276.284, 580.097, 271.455);
generalPath.moveTo(569.8, 268.08);
generalPath.curveTo(569.154, 265.343, 576.238, 260.192, 574.308, 255.846);
generalPath.moveTo(564.49, 251.18);
generalPath.curveTo(563.04, 248.12099, 567.87, 244.57999, 565.778, 241.35999);
generalPath.moveTo(556.76, 237.65);
generalPath.curveTo(556.27704, 235.558, 559.256, 230.97, 557.64703, 228.234);
generalPath.moveTo(549.03, 221.72);
generalPath.curveTo(549.67206, 220.91501, 552.25, 218.983, 551.2, 216.569);
generalPath.moveTo(543.72, 210.05);
generalPath.curveTo(544.766, 209.48601, 547.90295, 208.52, 547.503, 206.187);
shape = generalPath;
g.setPaint(paint);
g.setStroke(stroke);
g.draw(shape);
g.setTransform(transformsStack.pop());
g.setComposite(AlphaComposite.getInstance(3, 1.0f * origAlpha));
transformsStack.push(g.getTransform());
g.transform(new AffineTransform(1.0f, 0.0f, 0.0f, 1.0f, 0.0f, 0.0f));
// _0_0_2_1_1_1
paint = new Color(0, 0, 0, 255);
stroke = new BasicStroke(0.521f,1,1,4.0f,null,0.0f);
if (generalPath == null) {
   generalPath = new GeneralPath();
} else {
   generalPath.reset();
}
generalPath.moveTo(382.58, 513.57);
generalPath.curveTo(376.13998, 511.316, 368.09198, 514.537, 366.482, 520.012);
generalPath.moveTo(371.31, 525.0);
generalPath.curveTo(372.115, 519.53, 380.486, 517.112, 383.061, 519.687);
generalPath.curveTo(377.749, 516.792, 375.173, 527.09204, 379.841, 527.417);
generalPath.moveTo(423.15, 397.67);
generalPath.curveTo(419.288, 399.60202, 418.163, 406.68503, 423.15, 411.99902);
generalPath.moveTo(428.94, 399.28);
generalPath.curveTo(426.207, 401.534, 426.365, 408.295, 430.39, 409.905);
generalPath.curveTo(427.01, 407.49, 430.39, 403.305, 432.807, 403.144);
generalPath.curveTo(435.219, 402.983, 436.827, 405.88, 433.932, 408.778);
generalPath.moveTo(655.12, 415.21);
generalPath.curveTo(646.108, 412.797, 638.862, 423.25998, 647.07, 432.598);
generalPath.curveTo(646.912, 423.581, 653.35004, 417.62698, 661.237, 419.235);
generalPath.moveTo(657.61, 425.47);
generalPath.curveTo(655.393, 425.47, 654.148, 427.203, 654.148, 428.89);
generalPath.curveTo(654.148, 430.66202, 655.677, 432.35303, 658.17303, 432.35303);
generalPath.curveTo(659.78503, 432.35303, 661.07306, 430.50302, 661.07306, 429.05304);
generalPath.moveTo(689.4, 227.83);
generalPath.curveTo(690.85004, 233.30301, 698.41705, 235.557, 704.37103, 234.27);
generalPath.moveTo(704.37, 230.73);
generalPath.curveTo(699.703, 230.89099, 695.83997, 226.545, 696.162, 222.842);
generalPath.curveTo(696.162, 225.579, 702.441, 226.86699, 704.37, 225.096);
shape = generalPath;
g.setPaint(paint);
g.setStroke(stroke);
g.draw(shape);
g.setTransform(transformsStack.pop());
g.setComposite(AlphaComposite.getInstance(3, 1.0f * origAlpha));
transformsStack.push(g.getTransform());
g.transform(new AffineTransform(1.0f, 0.0f, 0.0f, 1.0f, 0.0f, 0.0f));
// _0_0_2_1_1_2
paint = new Color(0, 0, 0, 255);
stroke = new BasicStroke(0.521f,1,0,4.0f,null,0.0f);
if (generalPath == null) {
   generalPath = new GeneralPath();
} else {
   generalPath.reset();
}
generalPath.moveTo(384.83, 414.57);
generalPath.curveTo(383.542, 411.35, 388.694, 408.13, 388.85498, 405.07);
generalPath.curveTo(389.01498, 402.013, 394.65, 399.59802, 400.44498, 405.393);
generalPath.moveTo(397.71, 371.11);
generalPath.curveTo(396.58298, 371.593, 395.617, 372.237, 394.651, 372.559);
generalPath.moveTo(408.82, 388.65);
generalPath.curveTo(407.45102, 388.731, 404.635, 388.57, 403.105, 387.52298);
generalPath.moveTo(403.19, 394.77);
generalPath.curveTo(402.063, 395.33398, 399.56702, 396.3, 398.118, 396.62198);
generalPath.moveTo(347.97, 492.0);
generalPath.curveTo(347.809, 494.9, 350.707, 499.083, 352.316, 500.37);
generalPath.moveTo(360.53, 485.08);
generalPath.curveTo(358.92, 487.49298, 357.955, 491.68, 358.92, 494.576);
generalPath.moveTo(384.51, 494.74);
generalPath.curveTo(381.612, 492.80698, 383.544, 487.815, 383.22202, 484.598);
generalPath.curveTo(382.90002, 481.378, 386.60202, 476.228, 393.84702, 480.573);
generalPath.moveTo(357.47, 476.39);
generalPath.curveTo(360.368, 475.907, 363.426, 476.065, 365.358, 476.87003);
generalPath.moveTo(394.17, 467.21);
generalPath.curveTo(392.88202, 468.97998, 392.56003, 470.914, 392.40002, 472.202);
generalPath.moveTo(407.69, 466.89);
generalPath.curveTo(405.436, 466.89, 403.505, 468.49802, 402.539, 470.11002);
generalPath.moveTo(376.46, 384.47);
generalPath.curveTo(379.03598, 385.356, 385.716, 389.46, 385.95798, 393.727);
generalPath.moveTo(403.83, 363.54);
generalPath.curveTo(395.942, 363.379, 392.88397, 355.33002, 398.84, 355.33002);
generalPath.moveTo(418.0, 374.32);
generalPath.curveTo(414.942, 375.608, 416.392, 380.92, 420.737, 383.496);
generalPath.moveTo(399.16, 424.87);
generalPath.curveTo(397.63, 422.94, 399.643, 417.307, 404.633, 418.995);
generalPath.moveTo(410.91, 483.63);
generalPath.curveTo(411.23, 478.72202, 417.43, 475.822, 419.926, 481.376);
generalPath.moveTo(388.05, 497.63);
generalPath.curveTo(387.64697, 492.238, 390.384, 490.46802, 392.79797, 490.147);
generalPath.curveTo(395.21298, 489.826, 398.675, 491.834, 400.28497, 495.376);
generalPath.moveTo(340.08, 501.66);
generalPath.curveTo(340.40198, 498.44, 343.13898, 495.06, 346.03598, 495.543);
generalPath.moveTo(634.67, 358.71);
generalPath.curveTo(632.574, 360.24, 631.208, 367.08, 639.174, 367.725);
generalPath.moveTo(622.44, 369.98);
generalPath.curveTo(622.44, 370.785, 623.486, 371.91202, 624.132, 372.39502);
generalPath.moveTo(660.43, 382.86);
generalPath.curveTo(658.338, 381.25, 652.943, 387.77, 657.855, 392.51898);
generalPath.moveTo(609.24, 436.95);
generalPath.curveTo(608.032, 432.362, 612.298, 431.15402, 616.323, 432.12003);
generalPath.moveTo(598.94, 404.43);
generalPath.curveTo(601.353, 402.82, 603.77, 401.05, 606.828, 400.245);
generalPath.moveTo(597.65, 422.13);
generalPath.curveTo(597.65, 418.268, 599.58, 415.05002, 601.35004, 414.084);
generalPath.moveTo(611.81, 377.71);
generalPath.curveTo(611.49, 382.378, 613.423, 386.886, 614.873, 389.3);
generalPath.moveTo(650.13, 378.03);
generalPath.curveTo(647.793, 378.755, 645.7, 379.63998, 644.817, 381.572);
generalPath.moveTo(647.55, 391.23);
generalPath.curveTo(648.68, 390.264, 649.967, 389.138, 650.52997, 388.333);
generalPath.moveTo(708.4, 250.69);
generalPath.curveTo(708.4, 255.197, 702.767, 257.612, 699.067, 254.714);
generalPath.moveTo(720.64, 250.85);
generalPath.curveTo(723.132, 252.78201, 731.744, 250.931, 729.732, 245.94);
generalPath.moveTo(710.17, 276.77);
generalPath.curveTo(708.39996, 276.448, 705.33997, 274.516, 704.053, 272.90698);
generalPath.moveTo(727.88, 263.41);
generalPath.curveTo(724.984, 264.05402, 723.05, 263.41, 721.6, 262.766);
generalPath.moveTo(682.16, 279.51);
generalPath.curveTo(683.76794, 279.51, 687.62994, 278.866, 690.29, 277.49802);
generalPath.moveTo(677.33, 251.02);
generalPath.curveTo(675.23804, 250.78, 673.705, 251.181, 672.5, 251.98601);
generalPath.moveTo(709.77, 258.9);
generalPath.curveTo(709.20703, 260.913, 707.757, 264.051, 705.987, 265.41998);
shape = generalPath;
g.setPaint(paint);
g.setStroke(stroke);
g.draw(shape);
g.setTransform(transformsStack.pop());
g.setComposite(AlphaComposite.getInstance(3, 1.0f * origAlpha));
transformsStack.push(g.getTransform());
g.transform(new AffineTransform(1.0f, 0.0f, 0.0f, 1.0f, 0.0f, 0.0f));
// _0_0_2_1_1_3
paint = new Color(0, 0, 0, 255);
stroke = new BasicStroke(0.521f,1,1,4.0f,null,0.0f);
if (generalPath == null) {
   generalPath = new GeneralPath();
} else {
   generalPath.reset();
}
generalPath.moveTo(671.86, 265.99);

}

private void _paint2(Graphics2D g,float origAlpha) {
generalPath.curveTo(675.885, 264.22, 680.877, 277.90198, 690.535, 273.073);
generalPath.moveTo(691.34, 258.9);
generalPath.curveTo(690.052, 260.66998, 689.24805, 263.408, 689.086, 265.822);
shape = generalPath;
g.setPaint(paint);
g.setStroke(stroke);
g.draw(shape);
g.setTransform(transformsStack.pop());
g.setTransform(transformsStack.pop());
g.setComposite(AlphaComposite.getInstance(3, 1.0f * origAlpha));
transformsStack.push(g.getTransform());
g.transform(new AffineTransform(1.0f, 0.0f, 0.0f, 1.0f, 0.0f, 0.0f));
// _0_0_2_1_2
paint = new Color(0, 0, 0, 255);
stroke = new BasicStroke(0.521f,0,0,4.0f,null,0.0f);
if (generalPath == null) {
   generalPath = new GeneralPath();
} else {
   generalPath.reset();
}
generalPath.moveTo(498.81, 237.98);
generalPath.curveTo(500.098, 237.81999, 502.352, 237.336, 502.835, 235.726);
generalPath.moveTo(333.16, 387.85);
generalPath.curveTo(337.99, 390.587, 341.37, 395.255, 339.277, 402.177);
generalPath.moveTo(554.5, 223.17);
generalPath.curveTo(555.95, 224.136, 561.425, 224.136, 564.483, 223.01);
generalPath.moveTo(568.35, 226.39);
generalPath.curveTo(568.18695, 228.644, 568.83295, 237.175, 564.488, 238.946);
generalPath.moveTo(566.1, 237.82);
generalPath.curveTo(570.125, 239.108, 578.175, 238.625, 580.75, 231.22);
generalPath.moveTo(575.11, 237.49);
generalPath.curveTo(577.20197, 240.71, 577.84296, 246.988, 571.568, 250.36801);
generalPath.moveTo(576.72, 242.81);
generalPath.curveTo(581.38696, 244.42, 592.17395, 244.58, 591.045, 235.405);
generalPath.moveTo(587.35, 242.81);
generalPath.curveTo(590.56995, 247.317, 604.738, 252.63, 602.483, 243.293);
generalPath.moveTo(574.31, 255.84);
generalPath.curveTo(579.77997, 257.128, 587.51, 253.425, 584.29, 243.767);
generalPath.moveTo(599.74, 248.6);
generalPath.curveTo(600.544, 252.30301, 618.573, 256.16602, 616.161, 247.79501);
generalPath.moveTo(612.78, 252.63);
generalPath.curveTo(616.163, 260.357, 634.03, 259.713, 628.39703, 249.41);
generalPath.moveTo(625.5, 257.45);
generalPath.curveTo(629.042, 261.797, 644.821, 259.22, 638.542, 248.75702);
generalPath.moveTo(638.37, 257.29);
generalPath.curveTo(648.19, 264.695, 659.62, 254.07, 647.224, 246.343);
generalPath.moveTo(652.86, 254.88);
generalPath.curveTo(661.55597, 261.802, 672.18097, 249.24501, 664.614, 245.70401);
generalPath.moveTo(584.12, 251.98);
generalPath.curveTo(586.857, 252.78499, 592.653, 252.463, 593.94, 247.47299);
generalPath.moveTo(591.77, 250.85);
generalPath.curveTo(591.45, 258.17502, 603.766, 260.992, 606.903, 252.54001);
generalPath.moveTo(602.8, 257.13);
generalPath.curveTo(605.054, 261.96, 615.838, 263.89, 617.608, 256.969);
generalPath.moveTo(615.84, 260.19);
generalPath.curveTo(617.61005, 265.02, 626.948, 264.537, 629.523, 259.546);
generalPath.moveTo(626.14, 262.77);
generalPath.curveTo(629.036, 269.04797, 640.948, 269.04797, 643.68604, 259.87198);
generalPath.moveTo(641.6, 263.89);
generalPath.curveTo(646.26697, 266.78802, 656.25, 265.66, 655.44196, 256.64603);
generalPath.moveTo(653.51, 263.09);
generalPath.curveTo(660.43, 268.725, 670.252, 263.251, 665.42303, 253.75299);
generalPath.moveTo(664.94, 270.49);
generalPath.curveTo(668.644, 269.84598, 670.573, 262.44098, 666.71, 260.50998);
generalPath.moveTo(579.14, 271.78);
generalPath.curveTo(586.865, 267.595, 588.315, 260.512, 583.002, 253.59);
generalPath.moveTo(585.74, 264.7);
generalPath.curveTo(590.57, 267.59702, 599.744, 264.54, 601.35297, 257.45602);
generalPath.moveTo(592.34, 265.5);
generalPath.curveTo(595.073, 269.041, 595.557, 273.388, 592.015, 277.412);
generalPath.moveTo(594.59, 270.01);
generalPath.curveTo(603.12006, 264.698, 613.744, 274.518, 605.85706, 280.474);
generalPath.moveTo(604.41, 269.53);
generalPath.curveTo(606.34296, 269.047, 609.72296, 265.506, 610.04297, 261.481);
generalPath.moveTo(608.27, 273.23);
generalPath.curveTo(611.812, 269.527, 635.96204, 277.09402, 620.666, 284.82);
generalPath.moveTo(619.54, 263.09);
generalPath.curveTo(624.207, 264.86, 626.623, 271.461, 619.54, 273.715);
generalPath.moveTo(625.66, 279.19);
generalPath.curveTo(630.81, 273.878, 646.91, 277.258, 641.11395, 284.02);
generalPath.moveTo(637.25, 277.09);
generalPath.curveTo(640.146, 267.27, 657.371, 273.387, 651.738, 277.412);
generalPath.moveTo(633.71, 267.27);
generalPath.curveTo(634.193, 269.202, 634.35205, 274.03098, 631.135, 276.607);
generalPath.moveTo(648.2, 265.34);
generalPath.curveTo(648.84204, 266.94998, 648.683, 270.008, 647.23303, 271.94);
generalPath.moveTo(659.14, 265.5);
generalPath.curveTo(660.107, 267.27, 661.715, 270.651, 658.17303, 273.388);
generalPath.moveTo(521.35, 191.45);
generalPath.curveTo(521.508, 200.625, 524.73, 206.743, 537.125, 200.948);
generalPath.moveTo(525.21, 202.4);
generalPath.curveTo(519.093, 210.61, 526.01404, 219.46399, 538.08905, 210.61);
generalPath.moveTo(506.37, 206.42);
generalPath.curveTo(514.74, 215.435, 529.712, 208.83499, 520.053, 195.151);
generalPath.moveTo(530.2, 214.15);
generalPath.curveTo(528.58704, 223.004, 535.833, 224.775, 541.788, 220.75);
generalPath.moveTo(498.97, 207.87);
generalPath.curveTo(500.495, 216.771, 509.595, 223.80699, 518.449, 218.334);
generalPath.moveTo(509.92, 220.11);
generalPath.curveTo(509.92, 232.828, 527.466, 234.276, 531.491, 221.076);
generalPath.moveTo(525.21, 229.12);
generalPath.curveTo(530.843, 240.70999, 543.077, 236.04199, 547.10205, 228.95999);
generalPath.moveTo(512.81, 210.61);
generalPath.curveTo(515.064, 216.244, 519.573, 222.523, 530.035, 217.854);
generalPath.moveTo(480.62, 207.87);
generalPath.curveTo(482.07, 212.538, 490.44, 218.17299, 500.099, 211.733);
generalPath.moveTo(486.57, 213.83);
generalPath.curveTo(481.41602, 221.396, 491.72, 228.479, 504.116, 217.21);
generalPath.moveTo(492.69, 223.17);
generalPath.curveTo(494.782, 233.795, 498.965, 242.327, 514.098, 228.643);
generalPath.moveTo(506.53, 234.11);
generalPath.curveTo(512.005, 240.87, 520.376, 245.056, 528.263, 233.627);
shape = generalPath;
g.setPaint(paint);
g.setStroke(stroke);
g.draw(shape);
g.setTransform(transformsStack.pop());
g.setComposite(AlphaComposite.getInstance(3, 1.0f * origAlpha));
transformsStack.push(g.getTransform());
g.transform(new AffineTransform(1.0f, 0.0f, 0.0f, 1.0f, 0.0f, 0.0f));
// _0_0_2_1_3
paint = new Color(0, 0, 0, 255);
stroke = new BasicStroke(0.521f,0,0,4.0f,null,0.0f);
if (generalPath == null) {
   generalPath = new GeneralPath();
} else {
   generalPath.reset();
}
generalPath.moveTo(534.06, 236.04);
generalPath.curveTo(533.577, 244.08899, 535.185, 248.11299, 541.464, 247.791);
generalPath.curveTo(546.414, 247.538, 551.123, 243.606, 553.86, 239.421);
generalPath.moveTo(540.34, 247.8);
