package org.pushingpixels.demo.flamingo.svg.bigflag;

import java.awt.*;
import java.awt.geom.*;
import java.awt.image.BufferedImage;
import java.io.*;
import java.lang.ref.WeakReference;
import java.util.Base64;
import java.util.Stack;
import javax.imageio.ImageIO;
import javax.swing.SwingUtilities;
import javax.swing.plaf.UIResource;

import org.pushingpixels.neon.api.icon.NeonIcon;
import org.pushingpixels.neon.api.icon.NeonIconUIResource;

/**
 * This class has been automatically generated using <a
 * href="https://github.com/kirill-grouchnikov/radiance">Photon SVG transcoder</a>.
 */
public class Flag_of_Bhutan implements NeonIcon {
    private Shape shape = null;
    private GeneralPath generalPath = null;
    private Paint paint = null;
    private Stroke stroke = null;
    private Shape clip = null;
    private Stack<AffineTransform> transformsStack = new Stack<>();

    

	private void _paint0(Graphics2D g,float origAlpha) {
transformsStack.push(g.getTransform());
// 
g.setComposite(AlphaComposite.getInstance(3, 1.0f * origAlpha));
transformsStack.push(g.getTransform());
g.transform(new AffineTransform(1.0f, 0.0f, 0.0f, 1.0f, 0.0f, 0.0f));
// _0
g.setComposite(AlphaComposite.getInstance(3, 1.0f * origAlpha));
transformsStack.push(g.getTransform());
g.transform(new AffineTransform(1.0f, 0.0f, 0.0f, 1.0f, 0.0f, 0.0f));
// _0_0
g.setComposite(AlphaComposite.getInstance(3, 1.0f * origAlpha));
transformsStack.push(g.getTransform());
g.transform(new AffineTransform(1.0f, 0.0f, 0.0f, 1.0f, 0.0f, 0.0f));
// _0_0_0
if (generalPath == null) {
   generalPath = new GeneralPath();
} else {
   generalPath.reset();
}
generalPath.moveTo(0.0f, 0.0f);
generalPath.lineTo(900.0f, 0.0f);
generalPath.lineTo(900.0f, 600.0f);
generalPath.lineTo(0.0f, 600.0f);
generalPath.closePath();
shape = generalPath;
paint = new Color(255, 213, 32, 255);
g.setPaint(paint);
g.fill(shape);
g.setTransform(transformsStack.pop());
g.setComposite(AlphaComposite.getInstance(3, 1.0f * origAlpha));
transformsStack.push(g.getTransform());
g.transform(new AffineTransform(1.0f, 0.0f, 0.0f, 1.0f, 0.0f, 0.0f));
// _0_0_1
if (generalPath == null) {
   generalPath = new GeneralPath();
} else {
   generalPath.reset();
}
generalPath.moveTo(0.0f, 600.0f);
generalPath.lineTo(900.0f, 600.0f);
generalPath.lineTo(900.0f, 0.0f);
generalPath.closePath();
shape = generalPath;
paint = new Color(255, 78, 18, 255);
g.setPaint(paint);
g.fill(shape);
g.setTransform(transformsStack.pop());
g.setComposite(AlphaComposite.getInstance(3, 1.0f * origAlpha));
transformsStack.push(g.getTransform());
g.transform(new AffineTransform(1.0f, 0.0f, 0.0f, 1.0f, 0.0f, 0.0f));
// _0_0_2
g.setComposite(AlphaComposite.getInstance(3, 1.0f * origAlpha));
transformsStack.push(g.getTransform());
g.transform(new AffineTransform(1.0f, 0.0f, 0.0f, 1.0f, 0.0f, 0.0f));
// _0_0_2_0
g.setComposite(AlphaComposite.getInstance(3, 1.0f * origAlpha));
transformsStack.push(g.getTransform());
g.transform(new AffineTransform(1.0f, 0.0f, 0.0f, 1.0f, 0.0f, 0.0f));
// _0_0_2_0_0
if (generalPath == null) {
   generalPath = new GeneralPath();
} else {
   generalPath.reset();
}
generalPath.moveTo(481.74f, 187.59f);
generalPath.curveTo(476.753f, 185.81999f, 473.53198f, 188.39499f, 473.694f, 194.834f);
generalPath.curveTo(473.853f, 201.274f, 477.236f, 204.976f, 482.224f, 202.561f);
generalPath.lineTo(481.74f, 187.591f);
generalPath.closePath();
shape = generalPath;
paint = new Color(255, 255, 255, 255);
g.setPaint(paint);
g.fill(shape);
paint = new Color(0, 0, 0, 255);
stroke = new BasicStroke(0.521f,0,0,4.0f,null,0.0f);
if (generalPath == null) {
   generalPath = new GeneralPath();
} else {
   generalPath.reset();
}
generalPath.moveTo(481.74f, 187.59f);
generalPath.curveTo(476.753f, 185.81999f, 473.53198f, 188.39499f, 473.694f, 194.834f);
generalPath.curveTo(473.853f, 201.274f, 477.236f, 204.976f, 482.224f, 202.561f);
generalPath.lineTo(481.74f, 187.591f);
generalPath.closePath();
shape = generalPath;
g.setPaint(paint);
g.setStroke(stroke);
g.draw(shape);
g.setTransform(transformsStack.pop());
g.setComposite(AlphaComposite.getInstance(3, 1.0f * origAlpha));
transformsStack.push(g.getTransform());
g.transform(new AffineTransform(1.0f, 0.0f, 0.0f, 1.0f, 0.0f, 0.0f));
// _0_0_2_0_1
if (generalPath == null) {
   generalPath = new GeneralPath();
} else {
   generalPath.reset();
}
generalPath.moveTo(486.12f, 175.53f);
generalPath.curveTo(481.966f, 172.25f, 478.09f, 173.656f, 476.17398f, 179.806f);
generalPath.curveTo(474.258f, 185.955f, 476.27f, 190.548f, 481.77f, 189.864f);
generalPath.lineTo(486.12f, 175.531f);
generalPath.closePath();
shape = generalPath;
paint = new Color(255, 255, 255, 255);
g.setPaint(paint);
g.fill(shape);
paint = new Color(0, 0, 0, 255);
stroke = new BasicStroke(0.521f,0,0,4.0f,null,0.0f);
if (generalPath == null) {
   generalPath = new GeneralPath();
} else {
   generalPath.reset();
}
generalPath.moveTo(486.12f, 175.53f);
generalPath.curveTo(481.966f, 172.25f, 478.09f, 173.656f, 476.17398f, 179.806f);
generalPath.curveTo(474.258f, 185.955f, 476.27f, 190.548f, 481.77f, 189.864f);
generalPath.lineTo(486.12f, 175.531f);
generalPath.closePath();
shape = generalPath;
g.setPaint(paint);
g.setStroke(stroke);
g.draw(shape);
g.setTransform(transformsStack.pop());
g.setComposite(AlphaComposite.getInstance(3, 1.0f * origAlpha));
transformsStack.push(g.getTransform());
g.transform(new AffineTransform(1.0f, 0.0f, 0.0f, 1.0f, 0.0f, 0.0f));
// _0_0_2_0_2
if (generalPath == null) {
   generalPath = new GeneralPath();
} else {
   generalPath.reset();
}
generalPath.moveTo(493.04f, 163.86f);
generalPath.curveTo(489.46002f, 159.955f, 485.41f, 160.722f, 482.532f, 166.485f);
generalPath.curveTo(479.657f, 172.248f, 480.907f, 177.103f, 486.449f, 177.31f);
generalPath.lineTo(493.04f, 163.86f);
generalPath.closePath();
generalPath.moveTo(488.5f, 220.59f);
generalPath.curveTo(482.383f, 222.844f, 481.737f, 231.215f, 485.604f, 236.366f);
generalPath.curveTo(489.467f, 241.517f, 496.55002f, 242.483f, 500.41202f, 236.366f);
generalPath.lineTo(488.502f, 220.586f);
generalPath.closePath();
shape = generalPath;
paint = new Color(255, 255, 255, 255);
g.setPaint(paint);
g.fill(shape);
paint = new Color(0, 0, 0, 255);
stroke = new BasicStroke(0.521f,0,0,4.0f,null,0.0f);
if (generalPath == null) {
   generalPath = new GeneralPath();
} else {
   generalPath.reset();
}
generalPath.moveTo(493.04f, 163.86f);
generalPath.curveTo(489.46002f, 159.955f, 485.41f, 160.722f, 482.532f, 166.485f);
generalPath.curveTo(479.657f, 172.248f, 480.907f, 177.103f, 486.449f, 177.31f);
generalPath.lineTo(493.04f, 163.86f);
generalPath.closePath();
generalPath.moveTo(488.5f, 220.59f);
generalPath.curveTo(482.383f, 222.844f, 481.737f, 231.215f, 485.604f, 236.366f);
generalPath.curveTo(489.467f, 241.517f, 496.55002f, 242.483f, 500.41202f, 236.366f);
generalPath.lineTo(488.502f, 220.586f);
generalPath.closePath();
shape = generalPath;
g.setPaint(paint);
g.setStroke(stroke);
g.draw(shape);
g.setTransform(transformsStack.pop());
g.setComposite(AlphaComposite.getInstance(3, 1.0f * origAlpha));
transformsStack.push(g.getTransform());
g.transform(new AffineTransform(1.0f, 0.0f, 0.0f, 1.0f, 0.0f, 0.0f));
// _0_0_2_0_3
if (generalPath == null) {
   generalPath = new GeneralPath();
} else {
   generalPath.reset();
}
generalPath.moveTo(481.42f, 202.88f);
generalPath.curveTo(475.62402f, 200.948f, 470.403f, 208.733f, 469.50702f, 215.75801f);
generalPath.curveTo(468.38202f, 224.61201f, 455.824f, 227.50902f, 462.74902f, 240.87102f);
generalPath.curveTo(464.19403f, 232.33902f, 469.83203f, 227.67102f, 474.33704f, 227.34901f);
generalPath.curveTo(478.84503f, 227.02701f, 485.60703f, 226.06102f, 488.50403f, 220.58801f);
generalPath.lineTo(481.42f, 202.88f);
generalPath.closePath();
generalPath.moveTo(499.77f, 237.33f);
generalPath.curveTo(493.007f, 238.94f, 492.03998f, 247.955f, 496.87f, 254.394f);
generalPath.curveTo(501.003f, 259.90698f, 513.933f, 258.579f, 513.612f, 253.106f);
generalPath.lineTo(499.77f, 237.33f);
generalPath.closePath();
generalPath.moveTo(518.93f, 291.58f);
generalPath.curveTo(519.25f, 285.78497f, 509.918f, 283.53098f, 505.409f, 284.658f);
generalPath.curveTo(500.901f, 285.785f, 492.288f, 284.498f, 490.276f, 279.668f);
generalPath.curveTo(488.668f, 283.531f, 491.001f, 287.717f, 497.522f, 289.809f);
generalPath.curveTo(502.45502f, 291.39398f, 502.351f, 294.961f, 500.901f, 296.57098f);
generalPath.curveTo(504.605f, 297.215f, 515.551f, 297.215f, 518.93f, 291.581f);
generalPath.closePath();
shape = generalPath;
paint = new Color(255, 255, 255, 255);
g.setPaint(paint);
g.fill(shape);
paint = new Color(0, 0, 0, 255);
stroke = new BasicStroke(0.521f,0,0,4.0f,null,0.0f);
if (generalPath == null) {
   generalPath = new GeneralPath();
} else {
   generalPath.reset();
}
generalPath.moveTo(481.42f, 202.88f);
generalPath.curveTo(475.62402f, 200.948f, 470.403f, 208.733f, 469.50702f, 215.75801f);
generalPath.curveTo(468.38202f, 224.61201f, 455.824f, 227.50902f, 462.74902f, 240.87102f);
generalPath.curveTo(464.19403f, 232.33902f, 469.83203f, 227.67102f, 474.33704f, 227.34901f);
generalPath.curveTo(478.84503f, 227.02701f, 485.60703f, 226.06102f, 488.50403f, 220.58801f);
generalPath.lineTo(481.42f, 202.88f);
generalPath.closePath();
generalPath.moveTo(499.77f, 237.33f);
generalPath.curveTo(493.007f, 238.94f, 492.03998f, 247.955f, 496.87f, 254.394f);
generalPath.curveTo(501.003f, 259.90698f, 513.933f, 258.579f, 513.612f, 253.106f);
generalPath.lineTo(499.77f, 237.33f);
generalPath.closePath();
generalPath.moveTo(518.93f, 291.58f);
generalPath.curveTo(519.25f, 285.78497f, 509.918f, 283.53098f, 505.409f, 284.658f);
generalPath.curveTo(500.901f, 285.785f, 492.288f, 284.498f, 490.276f, 279.668f);
generalPath.curveTo(488.668f, 283.531f, 491.001f, 287.717f, 497.522f, 289.809f);
generalPath.curveTo(502.45502f, 291.39398f, 502.351f, 294.961f, 500.901f, 296.57098f);
generalPath.curveTo(504.605f, 297.215f, 515.551f, 297.215f, 518.93f, 291.581f);
generalPath.closePath();
shape = generalPath;
g.setPaint(paint);
g.setStroke(stroke);
g.draw(shape);
g.setTransform(transformsStack.pop());
g.setComposite(AlphaComposite.getInstance(3, 1.0f * origAlpha));
transformsStack.push(g.getTransform());
g.transform(new AffineTransform(1.0f, 0.0f, 0.0f, 1.0f, 0.0f, 0.0f));
// _0_0_2_0_4
if (generalPath == null) {
   generalPath = new GeneralPath();
} else {
   generalPath.reset();
}
generalPath.moveTo(513.62f, 254.56f);
generalPath.curveTo(507.02f, 251.663f, 503.107f, 256.076f, 500.582f, 260.355f);
generalPath.curveTo(496.878f, 266.633f, 485.449f, 258.58502f, 481.586f, 266.95502f);
generalPath.curveTo(486.819f, 264.70203f, 492.144f, 269.50803f, 494.624f, 271.14102f);
generalPath.curveTo(501.707f, 275.80902f, 515.391f, 274.36102f, 517.324f, 263.41403f);
generalPath.lineTo(513.62f, 254.56003f);
generalPath.closePath();
shape = generalPath;
paint = new Color(255, 255, 255, 255);
g.setPaint(paint);
g.fill(shape);
paint = new Color(0, 0, 0, 255);
stroke = new BasicStroke(0.521f,0,0,4.0f,null,0.0f);
if (generalPath == null) {
   generalPath = new GeneralPath();
} else {
   generalPath.reset();
}
generalPath.moveTo(513.62f, 254.56f);
generalPath.curveTo(507.02f, 251.663f, 503.107f, 256.076f, 500.582f, 260.355f);
generalPath.curveTo(496.878f, 266.633f, 485.449f, 258.58502f, 481.586f, 266.95502f);
generalPath.curveTo(486.819f, 264.70203f, 492.144f, 269.50803f, 494.624f, 271.14102f);
generalPath.curveTo(501.707f, 275.80902f, 515.391f, 274.36102f, 517.324f, 263.41403f);
generalPath.lineTo(513.62f, 254.56003f);
generalPath.closePath();
shape = generalPath;
g.setPaint(paint);
g.setStroke(stroke);
g.draw(shape);
g.setTransform(transformsStack.pop());
g.setComposite(AlphaComposite.getInstance(3, 1.0f * origAlpha));
transformsStack.push(g.getTransform());
g.transform(new AffineTransform(1.0f, 0.0f, 0.0f, 1.0f, 0.0f, 0.0f));
// _0_0_2_0_5
if (generalPath == null) {
   generalPath = new GeneralPath();
} else {
   generalPath.reset();
}
generalPath.moveTo(517.48f, 262.28f);
generalPath.curveTo(510.87997f, 267.27f, 508.305f, 273.226f, 508.468f, 277.251f);
generalPath.curveTo(508.62997f, 281.276f, 514.263f, 290.129f, 520.381f, 290.612f);
generalPath.curveTo(523.922f, 283.368f, 525.693f, 268.075f, 517.48096f, 262.28f);
generalPath.closePath();
generalPath.moveTo(490.12f, 293.35f);
generalPath.curveTo(490.12f, 290.935f, 493.662f, 289.97f, 496.074f, 290.77402f);
generalPath.curveTo(498.491f, 291.579f, 502.191f, 293.99402f, 500.904f, 296.57f);
generalPath.lineTo(490.12f, 293.35f);
generalPath.closePath();
generalPath.moveTo(453.73f, 280.15f);
generalPath.curveTo(453.088f, 277.253f, 457.755f, 272.262f, 464.034f, 274.999f);
generalPath.curveTo(470.309f, 277.735f, 471.117f, 283.048f, 468.538f, 285.141f);
generalPath.lineTo(453.72998f, 280.151f);
generalPath.closePath();
shape = generalPath;
paint = new Color(255, 255, 255, 255);
g.setPaint(paint);
g.fill(shape);
paint = new Color(0, 0, 0, 255);
stroke = new BasicStroke(0.521f,0,0,4.0f,null,0.0f);
if (generalPath == null) {
   generalPath = new GeneralPath();
} else {
   generalPath.reset();
}
generalPath.moveTo(517.48f, 262.28f);
generalPath.curveTo(510.87997f, 267.27f, 508.305f, 273.226f, 508.468f, 277.251f);
generalPath.curveTo(508.62997f, 281.276f, 514.263f, 290.129f, 520.381f, 290.612f);
generalPath.curveTo(523.922f, 283.368f, 525.693f, 268.075f, 517.48096f, 262.28f);
generalPath.closePath();
generalPath.moveTo(490.12f, 293.35f);
generalPath.curveTo(490.12f, 290.935f, 493.662f, 289.97f, 496.074f, 290.77402f);
generalPath.curveTo(498.491f, 291.579f, 502.191f, 293.99402f, 500.904f, 296.57f);
generalPath.lineTo(490.12f, 293.35f);
generalPath.closePath();
generalPath.moveTo(453.73f, 280.15f);
generalPath.curveTo(453.088f, 277.253f, 457.755f, 272.262f, 464.034f, 274.999f);
generalPath.curveTo(470.309f, 277.735f, 471.117f, 283.048f, 468.538f, 285.141f);
generalPath.lineTo(453.72998f, 280.151f);
generalPath.closePath();
shape = generalPath;
g.setPaint(paint);
g.setStroke(stroke);
g.draw(shape);
g.setTransform(transformsStack.pop());
g.setComposite(AlphaComposite.getInstance(3, 1.0f * origAlpha));
transformsStack.push(g.getTransform());
g.transform(new AffineTransform(1.0f, 0.0f, 0.0f, 1.0f, 0.0f, 0.0f));
// _0_0_2_0_6
if (generalPath == null) {
   generalPath = new GeneralPath();
} else {
   generalPath.reset();
}
generalPath.moveTo(469.02f, 285.46f);
generalPath.curveTo(468.537f, 283.85f, 473.05698f, 280.63498f, 480.774f, 282.56198f);
generalPath.curveTo(488.499f, 284.494f, 490.39398f, 289.469f, 490.112f, 293.348f);
generalPath.lineTo(469.019f, 285.46f);
generalPath.closePath();
generalPath.moveTo(452.93f, 280.15f);
generalPath.curveTo(456.955f, 277.09198f, 455.43f, 271.29498f, 451.8f, 269.525f);
generalPath.curveTo(445.19998f, 266.305f, 447.61697f, 257.935f, 443.43f, 256.32498f);
generalPath.curveTo(439.24698f, 254.71498f, 435.222f, 251.81699f, 435.06f, 248.91998f);
generalPath.curveTo(432.968f, 252.94398f, 434.255f, 256.64697f, 437.155f, 259.223f);
generalPath.curveTo(440.051f, 261.79898f, 434.901f, 272.262f, 438.601f, 274.999f);
generalPath.lineTo(452.93002f, 280.15f);
generalPath.closePath();
generalPath.moveTo(366.64f, 277.9f);
generalPath.curveTo(363.26f, 272.58798f, 355.21002f, 273.554f, 351.83002f, 277.25598f);
generalPath.curveTo(348.45f, 280.95898f, 348.933f, 286.43198f, 352.152f, 288.84598f);
generalPath.lineTo(366.64f, 277.9f);
generalPath.closePath();
generalPath.moveTo(385.96f, 270.01f);
generalPath.curveTo(384.672f, 262.927f, 376.13998f, 262.122f, 371.472f, 263.893f);
generalPath.curveTo(366.804f, 265.663f, 363.58398f, 272.747f, 366.642f, 277.898f);
generalPath.lineTo(385.961f, 270.01f);
generalPath.closePath();
shape = generalPath;
paint = new Color(255, 255, 255, 255);
g.setPaint(paint);
g.fill(shape);
paint = new Color(0, 0, 0, 255);
stroke = new BasicStroke(0.521f,0,0,4.0f,null,0.0f);
if (generalPath == null) {
   generalPath = new GeneralPath();
} else {
   generalPath.reset();
}
generalPath.moveTo(469.02f, 285.46f);
generalPath.curveTo(468.537f, 283.85f, 473.05698f, 280.63498f, 480.774f, 282.56198f);
generalPath.curveTo(488.499f, 284.494f, 490.39398f, 289.469f, 490.112f, 293.348f);
generalPath.lineTo(469.019f, 285.46f);
generalPath.closePath();
generalPath.moveTo(452.93f, 280.15f);
generalPath.curveTo(456.955f, 277.09198f, 455.43f, 271.29498f, 451.8f, 269.525f);
generalPath.curveTo(445.19998f, 266.305f, 447.61697f, 257.935f, 443.43f, 256.32498f);
generalPath.curveTo(439.24698f, 254.71498f, 435.222f, 251.81699f, 435.06f, 248.91998f);
generalPath.curveTo(432.968f, 252.94398f, 434.255f, 256.64697f, 437.155f, 259.223f);
generalPath.curveTo(440.051f, 261.79898f, 434.901f, 272.262f, 438.601f, 274.999f);
generalPath.lineTo(452.93002f, 280.15f);
generalPath.closePath();
generalPath.moveTo(366.64f, 277.9f);
generalPath.curveTo(363.26f, 272.58798f, 355.21002f, 273.554f, 351.83002f, 277.25598f);
generalPath.curveTo(348.45f, 280.95898f, 348.933f, 286.43198f, 352.152f, 288.84598f);
generalPath.lineTo(366.64f, 277.9f);
generalPath.closePath();
generalPath.moveTo(385.96f, 270.01f);
generalPath.curveTo(384.672f, 262.927f, 376.13998f, 262.122f, 371.472f, 263.893f);
generalPath.curveTo(366.804f, 265.663f, 363.58398f, 272.747f, 366.642f, 277.898f);
generalPath.lineTo(385.961f, 270.01f);
generalPath.closePath();
shape = generalPath;
g.setPaint(paint);
g.setStroke(stroke);
g.draw(shape);
g.setTransform(transformsStack.pop());
g.setComposite(AlphaComposite.getInstance(3, 1.0f * origAlpha));
transformsStack.push(g.getTransform());
g.transform(new AffineTransform(1.0f, 0.0f, 0.0f, 1.0f, 0.0f, 0.0f));
// _0_0_2_0_7
if (generalPath == null) {
   generalPath = new GeneralPath();
} else {
   generalPath.reset();
}
generalPath.moveTo(398.84f, 269.04f);
generalPath.curveTo(401.898f, 263.084f, 395.943f, 254.23001f, 389.181f, 252.94202f);
generalPath.curveTo(383.537f, 251.86801f, 376.866f, 251.89601f, 374.693f, 246.34201f);
generalPath.curveTo(373.32498f, 251.17201f, 376.947f, 254.23001f, 381.133f, 256.967f);
generalPath.curveTo(385.318f, 259.704f, 380.327f, 266.78702f, 387.089f, 270.811f);
generalPath.lineTo(398.841f, 269.04102f);
generalPath.closePath();
shape = generalPath;
paint = new Color(255, 255, 255, 255);
g.setPaint(paint);
g.fill(shape);
paint = new Color(0, 0, 0, 255);
stroke = new BasicStroke(0.521f,0,0,4.0f,null,0.0f);
if (generalPath == null) {
   generalPath = new GeneralPath();
} else {
   generalPath.reset();
}
generalPath.moveTo(398.84f, 269.04f);
generalPath.curveTo(401.898f, 263.084f, 395.943f, 254.23001f, 389.181f, 252.94202f);
generalPath.curveTo(383.537f, 251.86801f, 376.866f, 251.89601f, 374.693f, 246.34201f);
generalPath.curveTo(373.32498f, 251.17201f, 376.947f, 254.23001f, 381.133f, 256.967f);
generalPath.curveTo(385.318f, 259.704f, 380.327f, 266.78702f, 387.089f, 270.811f);
generalPath.lineTo(398.841f, 269.04102f);
generalPath.closePath();
shape = generalPath;
g.setPaint(paint);
g.setStroke(stroke);
g.draw(shape);
g.setTransform(transformsStack.pop());
g.setComposite(AlphaComposite.getInstance(3, 1.0f * origAlpha));
transformsStack.push(g.getTransform());
g.transform(new AffineTransform(1.0f, 0.0f, 0.0f, 1.0f, 0.0f, 0.0f));
// _0_0_2_0_8
if (generalPath == null) {
   generalPath = new GeneralPath();
} else {
   generalPath.reset();
}
generalPath.moveTo(398.2f, 269.25f);
generalPath.curveTo(396.79102f, 264.983f, 399.64902f, 259.307f, 405.432f, 259.705f);
generalPath.curveTo(411.217f, 260.103f, 414.512f, 264.305f, 411.962f, 269.56f);
generalPath.lineTo(398.199f, 269.25f);
generalPath.closePath();
shape = generalPath;
paint = new Color(255, 255, 255, 255);
g.setPaint(paint);
g.fill(shape);
paint = new Color(0, 0, 0, 255);
stroke = new BasicStroke(0.521f,0,0,4.0f,null,0.0f);
if (generalPath == null) {
   generalPath = new GeneralPath();
} else {
   generalPath.reset();
}
generalPath.moveTo(398.2f, 269.25f);
generalPath.curveTo(396.79102f, 264.983f, 399.64902f, 259.307f, 405.432f, 259.705f);
generalPath.curveTo(411.217f, 260.103f, 414.512f, 264.305f, 411.962f, 269.56f);
generalPath.lineTo(398.199f, 269.25f);
generalPath.closePath();
shape = generalPath;
g.setPaint(paint);
g.setStroke(stroke);
g.draw(shape);
g.setTransform(transformsStack.pop());
g.setComposite(AlphaComposite.getInstance(3, 1.0f * origAlpha));
transformsStack.push(g.getTransform());
g.transform(new AffineTransform(1.0f, 0.0f, 0.0f, 1.0f, 0.0f, 0.0f));
// _0_0_2_0_9
if (generalPath == null) {
   generalPath = new GeneralPath();
} else {
   generalPath.reset();
}
generalPath.moveTo(411.07f, 269.57f);
generalPath.curveTo(410.27402f, 265.148f, 413.9f, 259.93f, 419.57f, 261.135f);
generalPath.curveTo(425.242f, 262.34f, 427.913f, 266.965f, 424.65402f, 271.81f);
generalPath.lineTo(411.07f, 269.57f);
generalPath.closePath();
shape = generalPath;
paint = new Color(255, 255, 255, 255);
g.setPaint(paint);
g.fill(shape);
paint = new Color(0, 0, 0, 255);
stroke = new BasicStroke(0.521f,0,0,4.0f,null,0.0f);
if (generalPath == null) {
   generalPath = new GeneralPath();
} else {
   generalPath.reset();
}
generalPath.moveTo(411.07f, 269.57f);
generalPath.curveTo(410.27402f, 265.148f, 413.9f, 259.93f, 419.57f, 261.135f);
generalPath.curveTo(425.242f, 262.34f, 427.913f, 266.965f, 424.65402f, 271.81f);
generalPath.lineTo(411.07f, 269.57f);
generalPath.closePath();
shape = generalPath;
g.setPaint(paint);
g.setStroke(stroke);
g.draw(shape);
g.setTransform(transformsStack.pop());
g.setComposite(AlphaComposite.getInstance(3, 1.0f * origAlpha));
transformsStack.push(g.getTransform());
g.transform(new AffineTransform(1.0f, 0.0f, 0.0f, 1.0f, 0.0f, 0.0f));
// _0_0_2_0_10
if (generalPath == null) {
   generalPath = new GeneralPath();
} else {
   generalPath.reset();
}
generalPath.moveTo(423.86f, 271.6f);
generalPath.curveTo(423.28497f, 267.143f, 427.168f, 262.112f, 432.77197f, 263.599f);
generalPath.curveTo(438.37698f, 265.086f, 440.81396f, 269.839f, 437.31396f, 274.514f);
generalPath.lineTo(423.86f, 271.6f);
generalPath.closePath();
generalPath.moveTo(326.72f, 345.35f);
generalPath.curveTo(315.934f, 345.35f, 313.3f, 347.918f, 311.749f, 359.03302f);
generalPath.curveTo(309.817f, 372.877f, 328.65198f, 374.48703f, 326.72f, 345.35f);
generalPath.closePath();
shape = generalPath;
paint = new Color(255, 255, 255, 255);
g.setPaint(paint);
g.fill(shape);
paint = new Color(0, 0, 0, 255);
stroke = new BasicStroke(0.521f,0,0,4.0f,null,0.0f);
if (generalPath == null) {
   generalPath = new GeneralPath();
} else {
   generalPath.reset();
}
generalPath.moveTo(423.86f, 271.6f);
generalPath.curveTo(423.28497f, 267.143f, 427.168f, 262.112f, 432.77197f, 263.599f);
generalPath.curveTo(438.37698f, 265.086f, 440.81396f, 269.839f, 437.31396f, 274.514f);
generalPath.lineTo(423.86f, 271.6f);
generalPath.closePath();
generalPath.moveTo(326.72f, 345.35f);
generalPath.curveTo(315.934f, 345.35f, 313.3f, 347.918f, 311.749f, 359.03302f);
generalPath.curveTo(309.817f, 372.877f, 328.65198f, 374.48703f, 326.72f, 345.35f);
generalPath.closePath();
shape = generalPath;
g.setPaint(paint);
g.setStroke(stroke);
g.draw(shape);
g.setTransform(transformsStack.pop());
g.setComposite(AlphaComposite.getInstance(3, 1.0f * origAlpha));
transformsStack.push(g.getTransform());
g.transform(new AffineTransform(1.0f, 0.0f, 0.0f, 1.0f, 0.0f, 0.0f));
// _0_0_2_0_11
if (generalPath == null) {
   generalPath = new GeneralPath();
} else {
   generalPath.reset();
}
generalPath.moveTo(331.55f, 330.86f);
generalPath.curveTo(314.969f, 324.58197f, 305.955f, 350.82098f, 289.53497f, 346.15298f);
generalPath.curveTo(295.40997f, 355.49f, 309.65298f, 346.16998f, 314.96896f, 347.119f);
generalPath.curveTo(323.98398f, 348.72897f, 343.46198f, 345.348f, 331.54996f, 330.85898f);
generalPath.closePath();
generalPath.moveTo(320.76f, 366.76f);
generalPath.curveTo(312.55002f, 363.058f, 303.696f, 375.614f, 305.306f, 381.087f);
generalPath.curveTo(307.35f, 388.039f, 326.072f, 382.375f, 320.76f, 366.76f);
generalPath.closePath();
generalPath.moveTo(282.45f, 420.85f);
generalPath.curveTo(286.958f, 422.133f, 292.43002f, 424.712f, 291.46503f, 433.404f);
generalPath.curveTo(290.49902f, 442.09598f, 274.08002f, 459.804f, 259.27002f, 460.771f);
generalPath.curveTo(244.46002f, 461.738f, 239.14702f, 479.604f, 226.43002f, 474.613f);
generalPath.curveTo(238.34203f, 472.363f, 238.34203f, 458.838f, 247.67902f, 454.655f);
generalPath.curveTo(240.91702f, 452.238f, 237.37602f, 467.534f, 228.68402f, 467.534f);
generalPath.curveTo(219.99103f, 467.534f, 215.80602f, 481.376f, 205.18102f, 480.409f);
generalPath.curveTo(194.55602f, 479.44598f, 193.43802f, 497.263f, 172.18102f, 497.47598f);
generalPath.curveTo(155.92102f, 497.63397f, 135.80002f, 516.63f, 128.55602f, 508.422f);
generalPath.curveTo(144.33202f, 506.168f, 150.69801f, 497.426f, 160.10802f, 487.814f);
generalPath.curveTo(175.24002f, 472.36398f, 192.30402f, 479.284f, 198.09802f, 465.60098f);
generalPath.curveTo(191.17603f, 470.26797f, 183.12802f, 472.521f, 175.24002f, 472.36398f);
generalPath.curveTo(165.33801f, 472.159f, 154.47401f, 488.13898f, 143.36603f, 481.055f);
generalPath.curveTo(149.80502f, 480.251f, 153.99103f, 477.514f, 160.75203f, 470.43f);
generalPath.curveTo(167.67503f, 463.176f, 177.83502f, 467.86398f, 185.86504f, 460.451f);
generalPath.curveTo(198.42104f, 448.85898f, 209.20703f, 458.51797f, 221.28003f, 444.03f);
generalPath.curveTo(217.89903f, 442.422f, 210.65503f, 443.547f, 203.89403f, 447.088f);
generalPath.curveTo(197.13203f, 450.63f, 188.44003f, 444.67203f, 180.71303f, 448.859f);
generalPath.curveTo(181.67802f, 439.363f, 199.70802f, 444.797f, 210.97702f, 438.234f);
generalPath.curveTo(223.69502f, 430.83002f, 234.23901f, 433.001f, 244.30002f, 433.888f);
generalPath.curveTo(230.29501f, 433.809f, 224.82202f, 420.525f, 205.50502f, 424.388f);
generalPath.curveTo(197.08002f, 426.076f, 190.37302f, 412.8f, 182.00201f, 419.559f);
generalPath.curveTo(182.24202f, 414.572f, 191.01701f, 410.546f, 200.03201f, 415.37598f);
generalPath.curveTo(209.04602f, 420.205f, 212.68001f, 411.14996f, 230.61801f, 422.45898f);
generalPath.curveTo(238.02301f, 427.12598f, 250.74f, 419.559f, 258.78802f, 424.551f);
generalPath.curveTo(257.74203f, 421.49298f, 253.15402f, 419.559f, 247.76202f, 419.96298f);
generalPath.curveTo(251.14203f, 413.04297f, 272.95502f, 413.926f, 282.45203f, 420.85098f);
generalPath.closePath();
shape = generalPath;
paint = new Color(255, 255, 255, 255);
g.setPaint(paint);
g.fill(shape);
paint = new Color(0, 0, 0, 255);
stroke = new BasicStroke(0.521f,0,0,4.0f,null,0.0f);
if (generalPath == null) {
   generalPath = new GeneralPath();
} else {
   generalPath.reset();
}
generalPath.moveTo(331.55f, 330.86f);
generalPath.curveTo(314.969f, 324.58197f, 305.955f, 350.82098f, 289.53497f, 346.15298f);
generalPath.curveTo(295.40997f, 355.49f, 309.65298f, 346.16998f, 314.96896f, 347.119f);
generalPath.curveTo(323.98398f, 348.72897f, 343.46198f, 345.348f, 331.54996f, 330.85898f);
generalPath.closePath();
generalPath.moveTo(320.76f, 366.76f);
generalPath.curveTo(312.55002f, 363.058f, 303.696f, 375.614f, 305.306f, 381.087f);
generalPath.curveTo(307.35f, 388.039f, 326.072f, 382.375f, 320.76f, 366.76f);
generalPath.closePath();
generalPath.moveTo(282.45f, 420.85f);
generalPath.curveTo(286.958f, 422.133f, 292.43002f, 424.712f, 291.46503f, 433.404f);
generalPath.curveTo(290.49902f, 442.09598f, 274.08002f, 459.804f, 259.27002f, 460.771f);
generalPath.curveTo(244.46002f, 461.738f, 239.14702f, 479.604f, 226.43002f, 474.613f);
generalPath.curveTo(238.34203f, 472.363f, 238.34203f, 458.838f, 247.67902f, 454.655f);
generalPath.curveTo(240.91702f, 452.238f, 237.37602f, 467.534f, 228.68402f, 467.534f);
generalPath.curveTo(219.99103f, 467.534f, 215.80602f, 481.376f, 205.18102f, 480.409f);
generalPath.curveTo(194.55602f, 479.44598f, 193.43802f, 497.263f, 172.18102f, 497.47598f);
generalPath.curveTo(155.92102f, 497.63397f, 135.80002f, 516.63f, 128.55602f, 508.422f);
generalPath.curveTo(144.33202f, 506.168f, 150.69801f, 497.426f, 160.10802f, 487.814f);
generalPath.curveTo(175.24002f, 472.36398f, 192.30402f, 479.284f, 198.09802f, 465.60098f);
generalPath.curveTo(191.17603f, 470.26797f, 183.12802f, 472.521f, 175.24002f, 472.36398f);
generalPath.curveTo(165.33801f, 472.159f, 154.47401f, 488.13898f, 143.36603f, 481.055f);
generalPath.curveTo(149.80502f, 480.251f, 153.99103f, 477.514f, 160.75203f, 470.43f);
generalPath.curveTo(167.67503f, 463.176f, 177.83502f, 467.86398f, 185.86504f, 460.451f);
generalPath.curveTo(198.42104f, 448.85898f, 209.20703f, 458.51797f, 221.28003f, 444.03f);
generalPath.curveTo(217.89903f, 442.422f, 210.65503f, 443.547f, 203.89403f, 447.088f);
generalPath.curveTo(197.13203f, 450.63f, 188.44003f, 444.67203f, 180.71303f, 448.859f);
generalPath.curveTo(181.67802f, 439.363f, 199.70802f, 444.797f, 210.97702f, 438.234f);
generalPath.curveTo(223.69502f, 430.83002f, 234.23901f, 433.001f, 244.30002f, 433.888f);
generalPath.curveTo(230.29501f, 433.809f, 224.82202f, 420.525f, 205.50502f, 424.388f);
generalPath.curveTo(197.08002f, 426.076f, 190.37302f, 412.8f, 182.00201f, 419.559f);
generalPath.curveTo(182.24202f, 414.572f, 191.01701f, 410.546f, 200.03201f, 415.37598f);
generalPath.curveTo(209.04602f, 420.205f, 212.68001f, 411.14996f, 230.61801f, 422.45898f);
generalPath.curveTo(238.02301f, 427.12598f, 250.74f, 419.559f, 258.78802f, 424.551f);
generalPath.curveTo(257.74203f, 421.49298f, 253.15402f, 419.559f, 247.76202f, 419.96298f);
generalPath.curveTo(251.14203f, 413.04297f, 272.95502f, 413.926f, 282.45203f, 420.85098f);
generalPath.closePath();
shape = generalPath;
g.setPaint(paint);
g.setStroke(stroke);
g.draw(shape);
g.setTransform(transformsStack.pop());
g.setComposite(AlphaComposite.getInstance(3, 1.0f * origAlpha));
transformsStack.push(g.getTransform());
g.transform(new AffineTransform(1.0f, 0.0f, 0.0f, 1.0f, 0.0f, 0.0f));
// _0_0_2_0_12
if (generalPath == null) {
   generalPath = new GeneralPath();
} else {
   generalPath.reset();
}
generalPath.moveTo(296.78f, 410.38f);
generalPath.curveTo(289.697f, 404.907f, 279.877f, 411.508f, 273.116f, 408.931f);
generalPath.curveTo(273.116f, 413.437f, 275.37f, 420.201f, 282.775f, 422.775f);
generalPath.curveTo(285.029f, 421.167f, 295.16998f, 412.31198f, 296.78f, 410.38f);
generalPath.closePath();
shape = generalPath;
paint = new Color(255, 255, 255, 255);
g.setPaint(paint);
g.fill(shape);
paint = new Color(0, 0, 0, 255);
stroke = new BasicStroke(0.521f,0,0,4.0f,null,0.0f);
if (generalPath == null) {
   generalPath = new GeneralPath();
} else {
   generalPath.reset();
}
generalPath.moveTo(296.78f, 410.38f);
generalPath.curveTo(289.697f, 404.907f, 279.877f, 411.508f, 273.116f, 408.931f);
generalPath.curveTo(273.116f, 413.437f, 275.37f, 420.201f, 282.775f, 422.775f);
generalPath.curveTo(285.029f, 421.167f, 295.16998f, 412.31198f, 296.78f, 410.38f);
generalPath.closePath();
shape = generalPath;
g.setPaint(paint);
g.setStroke(stroke);
g.draw(shape);
g.setTransform(transformsStack.pop());
g.setComposite(AlphaComposite.getInstance(3, 1.0f * origAlpha));
transformsStack.push(g.getTransform());
g.transform(new AffineTransform(1.0f, 0.0f, 0.0f, 1.0f, 0.0f, 0.0f));
// _0_0_2_0_13
if (generalPath == null) {
   generalPath = new GeneralPath();
} else {
   generalPath.reset();
}
generalPath.moveTo(307.89f, 394.77f);
generalPath.curveTo(296.782f, 389.136f, 294.851f, 403.13998f, 286.15802f, 400.24298f);
generalPath.curveTo(286.48f, 404.26797f, 289.7f, 409.258f, 296.78302f, 410.38498f);
generalPath.lineTo(307.89102f, 394.77f);
generalPath.closePath();
shape = generalPath;
paint = new Color(255, 255, 255, 255);
g.setPaint(paint);
g.fill(shape);
paint = new Color(0, 0, 0, 255);
stroke = new BasicStroke(0.521f,0,0,4.0f,null,0.0f);
if (generalPath == null) {
   generalPath = new GeneralPath();
} else {
   generalPath.reset();
}
generalPath.moveTo(307.89f, 394.77f);
generalPath.curveTo(296.782f, 389.136f, 294.851f, 403.13998f, 286.15802f, 400.24298f);
generalPath.curveTo(286.48f, 404.26797f, 289.7f, 409.258f, 296.78302f, 410.38498f);
generalPath.lineTo(307.89102f, 394.77f);
generalPath.closePath();
shape = generalPath;
g.setPaint(paint);
g.setStroke(stroke);
g.draw(shape);
g.setTransform(transformsStack.pop());
g.setComposite(AlphaComposite.getInstance(3, 1.0f * origAlpha));
transformsStack.push(g.getTransform());
g.transform(new AffineTransform(1.0f, 0.0f, 0.0f, 1.0f, 0.0f, 0.0f));
// _0_0_2_0_14
if (generalPath == null) {
   generalPath = new GeneralPath();
} else {
   generalPath.reset();
}
generalPath.moveTo(314.49f, 382.05f);
generalPath.curveTo(298.06998f, 375.61f, 295.977f, 391.387f, 286.319f, 388.328f);
generalPath.curveTo(288.573f, 393.801f, 302.417f, 396.698f, 309.5f, 394.768f);
generalPath.lineTo(314.49f, 382.05002f);
generalPath.closePath();
generalPath.moveTo(337.02f, 312.99f);
generalPath.curveTo(332.67297f, 306.873f, 323.498f, 311.86298f, 322.04898f, 319.107f);
generalPath.curveTo(320.59998f, 326.35098f, 324.141f, 336.49298f, 330.25897f, 334.23898f);
generalPath.lineTo(337.01898f, 312.99f);
generalPath.closePath();
shape = generalPath;
paint = new Color(255, 255, 255, 255);
g.setPaint(paint);
g.fill(shape);
paint = new Color(0, 0, 0, 255);
stroke = new BasicStroke(0.521f,0,0,4.0f,null,0.0f);
if (generalPath == null) {
   generalPath = new GeneralPath();
} else {
   generalPath.reset();
}
generalPath.moveTo(314.49f, 382.05f);
generalPath.curveTo(298.06998f, 375.61f, 295.977f, 391.387f, 286.319f, 388.328f);
generalPath.curveTo(288.573f, 393.801f, 302.417f, 396.698f, 309.5f, 394.768f);
generalPath.lineTo(314.49f, 382.05002f);
generalPath.closePath();
generalPath.moveTo(337.02f, 312.99f);
generalPath.curveTo(332.67297f, 306.873f, 323.498f, 311.86298f, 322.04898f, 319.107f);
generalPath.curveTo(320.59998f, 326.35098f, 324.141f, 336.49298f, 330.25897f, 334.23898f);
generalPath.lineTo(337.01898f, 312.99f);
generalPath.closePath();
shape = generalPath;
g.setPaint(paint);
g.setStroke(stroke);
g.draw(shape);
g.setTransform(transformsStack.pop());
g.setComposite(AlphaComposite.getInstance(3, 1.0f * origAlpha));
transformsStack.push(g.getTransform());
g.transform(new AffineTransform(1.0f, 0.0f, 0.0f, 1.0f, 0.0f, 0.0f));
// _0_0_2_0_15
if (generalPath == null) {
   generalPath = new GeneralPath();
} else {
   generalPath.reset();
}
generalPath.moveTo(348.13f, 293.67f);
generalPath.curveTo(340.564f, 291.90002f, 331.871f, 292.704f, 332.837f, 300.11002f);
generalPath.curveTo(329.939f, 301.397f, 329.134f, 310.89502f, 337.022f, 312.98703f);
generalPath.lineTo(348.13f, 293.66904f);
generalPath.closePath();
shape = generalPath;
paint = new Color(255, 255, 255, 255);
g.setPaint(paint);
g.fill(shape);
paint = new Color(0, 0, 0, 255);
stroke = new BasicStroke(0.521f,0,0,4.0f,null,0.0f);
if (generalPath == null) {
   generalPath = new GeneralPath();
} else {
   generalPath.reset();
}
generalPath.moveTo(348.13f, 293.67f);
generalPath.curveTo(340.564f, 291.90002f, 331.871f, 292.704f, 332.837f, 300.11002f);
generalPath.curveTo(329.939f, 301.397f, 329.134f, 310.89502f, 337.022f, 312.98703f);
generalPath.lineTo(348.13f, 293.66904f);
generalPath.closePath();
shape = generalPath;
g.setPaint(paint);
g.setStroke(stroke);
g.draw(shape);
g.setTransform(transformsStack.pop());
g.setComposite(AlphaComposite.getInstance(3, 1.0f * origAlpha));
transformsStack.push(g.getTransform());
g.transform(new AffineTransform(1.0f, 0.0f, 0.0f, 1.0f, 0.0f, 0.0f));
// _0_0_2_0_16
if (generalPath == null) {
   generalPath = new GeneralPath();
} else {
   generalPath.reset();
}
generalPath.moveTo(353.12f, 288.68f);
generalPath.curveTo(345.715f, 279.987f, 337.457f, 280.19f, 332.837f, 283.85f);
generalPath.curveTo(324.305f, 290.612f, 316.014f, 286.74802f, 315.773f, 293.51f);
generalPath.curveTo(320.92502f, 289.565f, 325.432f, 294.314f, 329.617f, 292.86502f);
generalPath.curveTo(333.802f, 291.41702f, 336.861f, 299.46503f, 348.452f, 296.08502f);
generalPath.lineTo(353.12f, 288.68002f);
generalPath.closePath();
generalPath.moveTo(335.25f, 418.6f);
generalPath.curveTo(336.377f, 420.69202f, 343.299f, 421.65802f, 346.68f, 418.117f);
generalPath.curveTo(351.16f, 413.421f, 346.197f, 400.407f, 339.11398f, 399.44202f);
generalPath.curveTo(332.03098f, 398.476f, 331.387f, 414.092f, 335.24997f, 418.6f);
generalPath.closePath();
shape = generalPath;
paint = new Color(255, 255, 255, 255);
g.setPaint(paint);
g.fill(shape);
paint = new Color(0, 0, 0, 255);
stroke = new BasicStroke(0.521f,0,0,4.0f,null,0.0f);
if (generalPath == null) {
   generalPath = new GeneralPath();
} else {
   generalPath.reset();
}
generalPath.moveTo(353.12f, 288.68f);
generalPath.curveTo(345.715f, 279.987f, 337.457f, 280.19f, 332.837f, 283.85f);
generalPath.curveTo(324.305f, 290.612f, 316.014f, 286.74802f, 315.773f, 293.51f);
generalPath.curveTo(320.92502f, 289.565f, 325.432f, 294.314f, 329.617f, 292.86502f);
generalPath.curveTo(333.802f, 291.41702f, 336.861f, 299.46503f, 348.452f, 296.08502f);
generalPath.lineTo(353.12f, 288.68002f);
generalPath.closePath();
generalPath.moveTo(335.25f, 418.6f);
generalPath.curveTo(336.377f, 420.69202f, 343.299f, 421.65802f, 346.68f, 418.117f);
generalPath.curveTo(351.16f, 413.421f, 346.197f, 400.407f, 339.11398f, 399.44202f);
generalPath.curveTo(332.03098f, 398.476f, 331.387f, 414.092f, 335.24997f, 418.6f);
generalPath.closePath();
shape = generalPath;
g.setPaint(paint);
g.setStroke(stroke);
g.draw(shape);
g.setTransform(transformsStack.pop());
g.setComposite(AlphaComposite.getInstance(3, 1.0f * origAlpha));
transformsStack.push(g.getTransform());
g.transform(new AffineTransform(1.0f, 0.0f, 0.0f, 1.0f, 0.0f, 0.0f));
// _0_0_2_0_17
if (generalPath == null) {
   generalPath = new GeneralPath();
} else {
   generalPath.reset();
}
generalPath.moveTo(327.2f, 418.92f);
generalPath.curveTo(337.341f, 422.62003f, 341.68802f, 414.25f, 336.21503f, 408.93903f);
generalPath.curveTo(334.765f, 410.709f, 329.45303f, 417.14902f, 327.2f, 418.92f);
generalPath.closePath();
shape = generalPath;
paint = new Color(255, 255, 255, 255);
g.setPaint(paint);
g.fill(shape);
paint = new Color(0, 0, 0, 255);
stroke = new BasicStroke(0.521f,0,0,4.0f,null,0.0f);
if (generalPath == null) {
   generalPath = new GeneralPath();
} else {
   generalPath.reset();
}
generalPath.moveTo(327.2f, 418.92f);
generalPath.curveTo(337.341f, 422.62003f, 341.68802f, 414.25f, 336.21503f, 408.93903f);
generalPath.curveTo(334.765f, 410.709f, 329.45303f, 417.14902f, 327.2f, 418.92f);
generalPath.closePath();
shape = generalPath;
g.setPaint(paint);
g.setStroke(stroke);
g.draw(shape);
g.setTransform(transformsStack.pop());
g.setComposite(AlphaComposite.getInstance(3, 1.0f * origAlpha));
transformsStack.push(g.getTransform());
g.transform(new AffineTransform(1.0f, 0.0f, 0.0f, 1.0f, 0.0f, 0.0f));
// _0_0_2_0_18
if (generalPath == null) {
   generalPath = new GeneralPath();
} else {
   generalPath.reset();
}
generalPath.moveTo(289.21f, 432.76f);
generalPath.curveTo(287.27798f, 438.556f, 277.297f, 439.523f, 266.029f, 457.552f);
generalPath.curveTo(254.76f, 475.581f, 243.97499f, 468.015f, 241.23799f, 480.41f);
generalPath.curveTo(254.76f, 469.464f, 265.38f, 476.73502f, 273.43298f, 465.922f);
generalPath.curveTo(285.66797f, 449.501f, 295.74197f, 451.859f, 300.478f, 440.809f);
generalPath.curveTo(307.238f, 425.034f, 336.859f, 425.35498f, 338.469f, 400.565f);
generalPath.curveTo(328.48898f, 398.633f, 296.936f, 425.355f, 289.21f, 432.759f);
generalPath.closePath();
generalPath.moveTo(543.24f, 189.36f);
generalPath.curveTo(556.119f, 193.545f, 556.44f, 210.287f, 571.248f, 215.76f);
generalPath.curveTo(586.061f, 221.233f, 587.511f, 234.433f, 599.581f, 231.21399f);
generalPath.curveTo(588.31396f, 228.15498f, 589.118f, 215.116f, 577.368f, 211.896f);
generalPath.curveTo(563.58496f, 208.12f, 558.372f, 187.105f, 547.422f, 183.886f);
generalPath.moveTo(602.32f, 276.77f);
generalPath.curveTo(604.57404f, 281.921f, 604.253f, 291.097f, 596.203f, 293.512f);
generalPath.curveTo(600.549f, 296.249f, 606.986f, 293.672f, 610.528f, 287.71698f);
generalPath.curveTo(605.216f, 299.468f, 608.758f, 310.093f, 617.128f, 312.18597f);
generalPath.curveTo(613.10297f, 303.97598f, 622.12f, 300.11197f, 619.224f, 294.8f);
generalPath.curveTo(624.537f, 297.054f, 629.204f, 304.29797f, 629.041f, 308.805f);
generalPath.curveTo(635.966f, 301.078f, 623.891f, 290.775f, 626.145f, 283.53198f);
generalPath.lineTo(602.32f, 276.771f);
generalPath.closePath();
generalPath.moveTo(518.93f, 359.51f);
generalPath.curveTo(511.042f, 352.588f, 507.676f, 361.32f, 503.797f, 358.302f);
generalPath.curveTo(500.177f, 355.48502f, 495.347f, 355.082f, 493.497f, 357.9f);
generalPath.curveTo(500.259f, 358.142f, 496.95502f, 363.373f, 510.07602f, 364.66098f);
generalPath.curveTo(496.95502f, 365.54697f, 499.372f, 380.19598f, 490.59702f, 379.47098f);
generalPath.curveTo(499.93503f, 388.32498f, 504.764f, 371.58298f, 512.33f, 374.32098f);
generalPath.curveTo(510.07602f, 374.964f, 515.872f, 380.27597f, 511.84702f, 387.35898f);
generalPath.curveTo(518.367f, 387.19897f, 521.02203f, 378.18298f, 521.83f, 373.51498f);
generalPath.lineTo(518.93f, 359.50998f);
generalPath.closePath();
generalPath.moveTo(345.23f, 434.69f);
generalPath.curveTo(342.332f, 432.277f, 333.961f, 431.148f, 330.742f, 433.082f);
generalPath.curveTo(327.522f, 435.011f, 328.65f, 435.494f, 332.512f, 435.819f);
generalPath.curveTo(336.37698f, 436.14f, 341.365f, 442.39f, 332.996f, 442.74f);
generalPath.curveTo(329.132f, 442.89798f, 330.42f, 452.236f, 322.371f, 452.882f);
generalPath.curveTo(325.671f, 456.90698f, 335.089f, 454.249f, 338.469f, 449.82397f);
generalPath.curveTo(337.82498f, 453.44397f, 342.654f, 456.744f, 340.723f, 461.09097f);
generalPath.curveTo(346.679f, 461.73697f, 343.218f, 449.01996f, 352.636f, 449.66098f);
generalPath.curveTo(348.77197f, 450.145f, 350.382f, 458.83698f, 357.14297f, 456.58298f);
generalPath.curveTo(353.11798f, 458.516f, 355.21097f, 463.18298f, 359.718f, 462.05798f);
generalPath.curveTo(356.82098f, 463.024f, 355.85498f, 466.72397f, 359.879f, 468.81998f);
generalPath.curveTo(363.743f, 463.50797f, 359.396f, 444.51196f, 345.23f, 434.69098f);
generalPath.closePath();
generalPath.moveTo(695.85f, 257.07f);
generalPath.curveTo(708.17096f, 257.07f, 718.15796f, 247.08f, 718.15796f, 234.75801f);
generalPath.curveTo(718.15796f, 222.43802f, 708.17f, 212.44801f, 695.85f, 212.44801f);
generalPath.curveTo(683.52496f, 212.44801f, 673.537f, 222.43802f, 673.537f, 234.75801f);
generalPath.curveTo(673.537f, 247.08002f, 683.52496f, 257.07f, 695.85f, 257.07f);
generalPath.closePath();
shape = generalPath;
paint = new Color(255, 255, 255, 255);
g.setPaint(paint);
g.fill(shape);
paint = new Color(0, 0, 0, 255);
stroke = new BasicStroke(0.521f,0,0,4.0f,null,0.0f);
if (generalPath == null) {
   generalPath = new GeneralPath();
} else {
   generalPath.reset();
}
generalPath.moveTo(289.21f, 432.76f);
generalPath.curveTo(287.27798f, 438.556f, 277.297f, 439.523f, 266.029f, 457.552f);
generalPath.curveTo(254.76f, 475.581f, 243.97499f, 468.015f, 241.23799f, 480.41f);
generalPath.curveTo(254.76f, 469.464f, 265.38f, 476.73502f, 273.43298f, 465.922f);
generalPath.curveTo(285.66797f, 449.501f, 295.74197f, 451.859f, 300.478f, 440.809f);
generalPath.curveTo(307.238f, 425.034f, 336.859f, 425.35498f, 338.469f, 400.565f);
generalPath.curveTo(328.48898f, 398.633f, 296.936f, 425.355f, 289.21f, 432.759f);
generalPath.closePath();
generalPath.moveTo(543.24f, 189.36f);
generalPath.curveTo(556.119f, 193.545f, 556.44f, 210.287f, 571.248f, 215.76f);
generalPath.curveTo(586.061f, 221.233f, 587.511f, 234.433f, 599.581f, 231.21399f);
generalPath.curveTo(588.31396f, 228.15498f, 589.118f, 215.116f, 577.368f, 211.896f);
generalPath.curveTo(563.58496f, 208.12f, 558.372f, 187.105f, 547.422f, 183.886f);
generalPath.moveTo(602.32f, 276.77f);
generalPath.curveTo(604.57404f, 281.921f, 604.253f, 291.097f, 596.203f, 293.512f);
generalPath.curveTo(600.549f, 296.249f, 606.986f, 293.672f, 610.528f, 287.71698f);
generalPath.curveTo(605.216f, 299.468f, 608.758f, 310.093f, 617.128f, 312.18597f);
generalPath.curveTo(613.10297f, 303.97598f, 622.12f, 300.11197f, 619.224f, 294.8f);
generalPath.curveTo(624.537f, 297.054f, 629.204f, 304.29797f, 629.041f, 308.805f);
generalPath.curveTo(635.966f, 301.078f, 623.891f, 290.775f, 626.145f, 283.53198f);
generalPath.lineTo(602.32f, 276.771f);
generalPath.closePath();
generalPath.moveTo(518.93f, 359.51f);
generalPath.curveTo(511.042f, 352.588f, 507.676f, 361.32f, 503.797f, 358.302f);
generalPath.curveTo(500.177f, 355.48502f, 495.347f, 355.082f, 493.497f, 357.9f);
generalPath.curveTo(500.259f, 358.142f, 496.95502f, 363.373f, 510.07602f, 364.66098f);
generalPath.curveTo(496.95502f, 365.54697f, 499.372f, 380.19598f, 490.59702f, 379.47098f);
generalPath.curveTo(499.93503f, 388.32498f, 504.764f, 371.58298f, 512.33f, 374.32098f);
generalPath.curveTo(510.07602f, 374.964f, 515.872f, 380.27597f, 511.84702f, 387.35898f);
generalPath.curveTo(518.367f, 387.19897f, 521.02203f, 378.18298f, 521.83f, 373.51498f);
generalPath.lineTo(518.93f, 359.50998f);
generalPath.closePath();
generalPath.moveTo(345.23f, 434.69f);
generalPath.curveTo(342.332f, 432.277f, 333.961f, 431.148f, 330.742f, 433.082f);
generalPath.curveTo(327.522f, 435.011f, 328.65f, 435.494f, 332.512f, 435.819f);
generalPath.curveTo(336.37698f, 436.14f, 341.365f, 442.39f, 332.996f, 442.74f);
generalPath.curveTo(329.132f, 442.89798f, 330.42f, 452.236f, 322.371f, 452.882f);
generalPath.curveTo(325.671f, 456.90698f, 335.089f, 454.249f, 338.469f, 449.82397f);
generalPath.curveTo(337.82498f, 453.44397f, 342.654f, 456.744f, 340.723f, 461.09097f);
generalPath.curveTo(346.679f, 461.73697f, 343.218f, 449.01996f, 352.636f, 449.66098f);
generalPath.curveTo(348.77197f, 450.145f, 350.382f, 458.83698f, 357.14297f, 456.58298f);
generalPath.curveTo(353.11798f, 458.516f, 355.21097f, 463.18298f, 359.718f, 462.05798f);
generalPath.curveTo(356.82098f, 463.024f, 355.85498f, 466.72397f, 359.879f, 468.81998f);
generalPath.curveTo(363.743f, 463.50797f, 359.396f, 444.51196f, 345.23f, 434.69098f);
generalPath.closePath();
generalPath.moveTo(695.85f, 257.07f);
generalPath.curveTo(708.17096f, 257.07f, 718.15796f, 247.08f, 718.15796f, 234.75801f);
generalPath.curveTo(718.15796f, 222.43802f, 708.17f, 212.44801f, 695.85f, 212.44801f);

}

private void _paint1(Graphics2D g,float origAlpha) {
generalPath.curveTo(683.52496f, 212.44801f, 673.537f, 222.43802f, 673.537f, 234.75801f);
generalPath.curveTo(673.537f, 247.08002f, 683.52496f, 257.07f, 695.85f, 257.07f);
generalPath.closePath();
shape = generalPath;
g.setPaint(paint);
g.setStroke(stroke);
g.draw(shape);
g.setTransform(transformsStack.pop());
g.setComposite(AlphaComposite.getInstance(3, 1.0f * origAlpha));
transformsStack.push(g.getTransform());
g.transform(new AffineTransform(1.0f, 0.0f, 0.0f, 1.0f, 0.0f, 0.0f));
// _0_0_2_0_19
if (generalPath == null) {
   generalPath = new GeneralPath();
} else {
   generalPath.reset();
}
generalPath.moveTo(579.3f, 284.02f);
generalPath.curveTo(586.063f, 277.58f, 596.367f, 274.361f, 603.446f, 279.19f);
generalPath.curveTo(610.529f, 284.02f, 634.034f, 289.815f, 645.625f, 281.766f);
generalPath.curveTo(657.213f, 273.71698f, 662.688f, 269.531f, 667.838f, 270.49698f);
generalPath.curveTo(671.705f, 276.29297f, 676.37103f, 279.029f, 682.167f, 279.512f);
generalPath.curveTo(683.937f, 281.444f, 690.217f, 283.054f, 693.759f, 282.57f);
generalPath.curveTo(698.909f, 283.858f, 705.188f, 282.249f, 710.17596f, 276.775f);
generalPath.curveTo(717.90594f, 277.902f, 725.147f, 272.107f, 727.884f, 263.415f);
generalPath.curveTo(736.092f, 262.449f, 736.576f, 253.272f, 731.42596f, 247.15501f);
generalPath.curveTo(726.59595f, 246.19002f, 730.30096f, 229.93001f, 712.751f, 233.15001f);
generalPath.curveTo(720.159f, 237.658f, 714.521f, 246.67201f, 720.64197f, 250.858f);
generalPath.curveTo(716.45496f, 250.858f, 711.063f, 252.629f, 709.77496f, 258.908f);
generalPath.curveTo(711.384f, 254.56099f, 709.53394f, 251.663f, 708.40497f, 250.69798f);
generalPath.curveTo(708.56696f, 246.99498f, 700.35895f, 237.89998f, 692.62994f, 241.19998f);
generalPath.curveTo(698.18396f, 242.40698f, 695.04596f, 251.34198f, 699.0709f, 254.72198f);
generalPath.curveTo(696.1709f, 254.88298f, 693.1129f, 256.33197f, 691.3419f, 258.90698f);
generalPath.curveTo(689.24994f, 255.20499f, 681.84595f, 251.34099f, 677.3379f, 251.01898f);
generalPath.curveTo(677.3379f, 249.73099f, 677.0959f, 247.15598f, 676.5339f, 245.86899f);
generalPath.curveTo(674.5209f, 242.00499f, 672.8299f, 237.41699f, 673.63385f, 231.54099f);
generalPath.curveTo(669.7709f, 235.72598f, 666.55084f, 241.52098f, 664.62085f, 245.70699f);
generalPath.curveTo(658.5048f, 241.52199f, 643.37085f, 247.63899f, 636.28784f, 249.24799f);
generalPath.curveTo(629.20483f, 250.85799f, 605.3798f, 246.99498f, 599.90485f, 241.19899f);
generalPath.curveTo(594.4349f, 235.40399f, 583.80884f, 231.86299f, 573.82983f, 228.965f);
generalPath.curveTo(560.10486f, 224.982f, 559.9838f, 209.97f, 544.8508f, 199.66699f);
generalPath.curveTo(544.5308f, 218.34099f, 572.86383f, 277.581f, 579.30084f, 284.02f);
generalPath.closePath();
generalPath.moveTo(421.54f, 426.32f);
generalPath.curveTo(433.453f, 426.32f, 443.11102f, 416.66202f, 443.11102f, 404.74902f);
generalPath.curveTo(443.11102f, 392.83603f, 433.45303f, 383.17902f, 421.54004f, 383.17902f);
generalPath.curveTo(409.62704f, 383.17902f, 399.96906f, 392.837f, 399.96906f, 404.74902f);
generalPath.curveTo(399.96906f, 416.66202f, 409.62704f, 426.32f, 421.54004f, 426.32f);
generalPath.closePath();
shape = generalPath;
paint = new Color(255, 255, 255, 255);
g.setPaint(paint);
g.fill(shape);
paint = new Color(0, 0, 0, 255);
stroke = new BasicStroke(0.521f,0,0,4.0f,null,0.0f);
if (generalPath == null) {
   generalPath = new GeneralPath();
} else {
   generalPath.reset();
}
generalPath.moveTo(579.3f, 284.02f);
generalPath.curveTo(586.063f, 277.58f, 596.367f, 274.361f, 603.446f, 279.19f);
generalPath.curveTo(610.529f, 284.02f, 634.034f, 289.815f, 645.625f, 281.766f);
generalPath.curveTo(657.213f, 273.71698f, 662.688f, 269.531f, 667.838f, 270.49698f);
generalPath.curveTo(671.705f, 276.29297f, 676.37103f, 279.029f, 682.167f, 279.512f);
generalPath.curveTo(683.937f, 281.444f, 690.217f, 283.054f, 693.759f, 282.57f);
generalPath.curveTo(698.909f, 283.858f, 705.188f, 282.249f, 710.17596f, 276.775f);
generalPath.curveTo(717.90594f, 277.902f, 725.147f, 272.107f, 727.884f, 263.415f);
generalPath.curveTo(736.092f, 262.449f, 736.576f, 253.272f, 731.42596f, 247.15501f);
generalPath.curveTo(726.59595f, 246.19002f, 730.30096f, 229.93001f, 712.751f, 233.15001f);
generalPath.curveTo(720.159f, 237.658f, 714.521f, 246.67201f, 720.64197f, 250.858f);
generalPath.curveTo(716.45496f, 250.858f, 711.063f, 252.629f, 709.77496f, 258.908f);
generalPath.curveTo(711.384f, 254.56099f, 709.53394f, 251.663f, 708.40497f, 250.69798f);
generalPath.curveTo(708.56696f, 246.99498f, 700.35895f, 237.89998f, 692.62994f, 241.19998f);
generalPath.curveTo(698.18396f, 242.40698f, 695.04596f, 251.34198f, 699.0709f, 254.72198f);
generalPath.curveTo(696.1709f, 254.88298f, 693.1129f, 256.33197f, 691.3419f, 258.90698f);
generalPath.curveTo(689.24994f, 255.20499f, 681.84595f, 251.34099f, 677.3379f, 251.01898f);
generalPath.curveTo(677.3379f, 249.73099f, 677.0959f, 247.15598f, 676.5339f, 245.86899f);
generalPath.curveTo(674.5209f, 242.00499f, 672.8299f, 237.41699f, 673.63385f, 231.54099f);
generalPath.curveTo(669.7709f, 235.72598f, 666.55084f, 241.52098f, 664.62085f, 245.70699f);
generalPath.curveTo(658.5048f, 241.52199f, 643.37085f, 247.63899f, 636.28784f, 249.24799f);
generalPath.curveTo(629.20483f, 250.85799f, 605.3798f, 246.99498f, 599.90485f, 241.19899f);
generalPath.curveTo(594.4349f, 235.40399f, 583.80884f, 231.86299f, 573.82983f, 228.965f);
generalPath.curveTo(560.10486f, 224.982f, 559.9838f, 209.97f, 544.8508f, 199.66699f);
generalPath.curveTo(544.5308f, 218.34099f, 572.86383f, 277.581f, 579.30084f, 284.02f);
generalPath.closePath();
generalPath.moveTo(421.54f, 426.32f);
generalPath.curveTo(433.453f, 426.32f, 443.11102f, 416.66202f, 443.11102f, 404.74902f);
generalPath.curveTo(443.11102f, 392.83603f, 433.45303f, 383.17902f, 421.54004f, 383.17902f);
generalPath.curveTo(409.62704f, 383.17902f, 399.96906f, 392.837f, 399.96906f, 404.74902f);
generalPath.curveTo(399.96906f, 416.66202f, 409.62704f, 426.32f, 421.54004f, 426.32f);
generalPath.closePath();
shape = generalPath;
g.setPaint(paint);
g.setStroke(stroke);
g.draw(shape);
g.setTransform(transformsStack.pop());
g.setComposite(AlphaComposite.getInstance(3, 1.0f * origAlpha));
transformsStack.push(g.getTransform());
g.transform(new AffineTransform(1.0f, 0.0f, 0.0f, 1.0f, 0.0f, 0.0f));
// _0_0_2_0_20
if (generalPath == null) {
   generalPath = new GeneralPath();
} else {
   generalPath.reset();
}
generalPath.moveTo(370.02f, 409.74f);
generalPath.curveTo(374.366f, 415.375f, 381.771f, 415.054f, 384.83f, 414.56998f);
generalPath.curveTo(387.40598f, 421.32898f, 395.615f, 421.16998f, 399.15698f, 424.86996f);
generalPath.curveTo(402.69897f, 428.57495f, 414.77f, 428.25397f, 418.31198f, 426.15796f);
generalPath.curveTo(415.09497f, 425.83795f, 410.909f, 423.90796f, 406.88397f, 420.52496f);
generalPath.curveTo(402.02597f, 416.44498f, 404.30798f, 408.29095f, 400.44397f, 405.39395f);
generalPath.curveTo(403.34198f, 402.17395f, 403.82498f, 396.86194f, 403.18097f, 394.76895f);
generalPath.curveTo(406.24097f, 392.99796f, 408.49396f, 390.09995f, 408.81598f, 388.65094f);
generalPath.curveTo(414.12897f, 388.32895f, 418.796f, 385.59293f, 420.72897f, 383.50095f);
generalPath.curveTo(423.46597f, 386.07596f, 430.38696f, 382.69495f, 434.09198f, 387.04095f);
generalPath.curveTo(434.89597f, 376.41595f, 424.75397f, 370.78195f, 417.99197f, 374.32394f);
generalPath.curveTo(415.25397f, 372.87595f, 408.01196f, 373.84195f, 406.72397f, 375.77396f);
generalPath.curveTo(404.46997f, 374.80695f, 398.19196f, 378.02695f, 395.29398f, 380.11996f);
generalPath.curveTo(398.51398f, 378.34998f, 398.99597f, 373.03696f, 397.70798f, 371.10495f);
generalPath.curveTo(400.44498f, 369.97794f, 403.50397f, 366.27496f, 403.82498f, 363.53894f);
generalPath.curveTo(407.689f, 364.18295f, 413.48297f, 361.60693f, 416.05798f, 362.25095f);
generalPath.curveTo(411.87497f, 356.77795f, 404.95297f, 354.84595f, 397.869f, 355.32895f);
generalPath.curveTo(390.54398f, 355.73196f, 387.40598f, 360.88293f, 386.44f, 366.43695f);
generalPath.curveTo(382.094f, 369.01294f, 380.645f, 377.70496f, 382.255f, 380.76395f);
generalPath.curveTo(379.759f, 380.68396f, 377.42502f, 383.09894f, 376.46f, 384.46695f);
generalPath.curveTo(373.08f, 383.01694f, 368.25f, 381.97195f, 364.789f, 381.97195f);
generalPath.moveTo(366.32f, 373.2f);
generalPath.curveTo(364.871f, 369.015f, 366.79f, 365.247f, 367.769f, 361.932f);
generalPath.curveTo(370.264f, 353.482f, 368.73502f, 351.307f, 361.169f, 352.43402f);
generalPath.curveTo(360.525f, 356.459f, 364.389f, 369.65903f, 366.32f, 373.2f);
generalPath.closePath();
shape = generalPath;
paint = new Color(255, 255, 255, 255);
g.setPaint(paint);
g.fill(shape);
paint = new Color(0, 0, 0, 255);
stroke = new BasicStroke(0.521f,0,0,4.0f,null,0.0f);
if (generalPath == null) {
   generalPath = new GeneralPath();
} else {
   generalPath.reset();
}
generalPath.moveTo(370.02f, 409.74f);
generalPath.curveTo(374.366f, 415.375f, 381.771f, 415.054f, 384.83f, 414.56998f);
generalPath.curveTo(387.40598f, 421.32898f, 395.615f, 421.16998f, 399.15698f, 424.86996f);
generalPath.curveTo(402.69897f, 428.57495f, 414.77f, 428.25397f, 418.31198f, 426.15796f);
generalPath.curveTo(415.09497f, 425.83795f, 410.909f, 423.90796f, 406.88397f, 420.52496f);
generalPath.curveTo(402.02597f, 416.44498f, 404.30798f, 408.29095f, 400.44397f, 405.39395f);
generalPath.curveTo(403.34198f, 402.17395f, 403.82498f, 396.86194f, 403.18097f, 394.76895f);
generalPath.curveTo(406.24097f, 392.99796f, 408.49396f, 390.09995f, 408.81598f, 388.65094f);
generalPath.curveTo(414.12897f, 388.32895f, 418.796f, 385.59293f, 420.72897f, 383.50095f);
generalPath.curveTo(423.46597f, 386.07596f, 430.38696f, 382.69495f, 434.09198f, 387.04095f);
generalPath.curveTo(434.89597f, 376.41595f, 424.75397f, 370.78195f, 417.99197f, 374.32394f);
generalPath.curveTo(415.25397f, 372.87595f, 408.01196f, 373.84195f, 406.72397f, 375.77396f);
generalPath.curveTo(404.46997f, 374.80695f, 398.19196f, 378.02695f, 395.29398f, 380.11996f);
generalPath.curveTo(398.51398f, 378.34998f, 398.99597f, 373.03696f, 397.70798f, 371.10495f);
generalPath.curveTo(400.44498f, 369.97794f, 403.50397f, 366.27496f, 403.82498f, 363.53894f);
generalPath.curveTo(407.689f, 364.18295f, 413.48297f, 361.60693f, 416.05798f, 362.25095f);
generalPath.curveTo(411.87497f, 356.77795f, 404.95297f, 354.84595f, 397.869f, 355.32895f);
generalPath.curveTo(390.54398f, 355.73196f, 387.40598f, 360.88293f, 386.44f, 366.43695f);
generalPath.curveTo(382.094f, 369.01294f, 380.645f, 377.70496f, 382.255f, 380.76395f);
generalPath.curveTo(379.759f, 380.68396f, 377.42502f, 383.09894f, 376.46f, 384.46695f);
generalPath.curveTo(373.08f, 383.01694f, 368.25f, 381.97195f, 364.789f, 381.97195f);
generalPath.moveTo(366.32f, 373.2f);
generalPath.curveTo(364.871f, 369.015f, 366.79f, 365.247f, 367.769f, 361.932f);
generalPath.curveTo(370.264f, 353.482f, 368.73502f, 351.307f, 361.169f, 352.43402f);
generalPath.curveTo(360.525f, 356.459f, 364.389f, 369.65903f, 366.32f, 373.2f);
generalPath.closePath();
shape = generalPath;
g.setPaint(paint);
g.setStroke(stroke);
g.draw(shape);
g.setTransform(transformsStack.pop());
g.setComposite(AlphaComposite.getInstance(3, 1.0f * origAlpha));
transformsStack.push(g.getTransform());
g.transform(new AffineTransform(1.0f, 0.0f, 0.0f, 1.0f, 0.0f, 0.0f));
// _0_0_2_0_21
if (generalPath == null) {
   generalPath = new GeneralPath();
} else {
   generalPath.reset();
}
generalPath.moveTo(360.77f, 352.91f);
generalPath.curveTo(362.702f, 354.842f, 369.54398f, 355.727f, 370.26797f, 349.61002f);
generalPath.curveTo(371.09998f, 342.588f, 368.25598f, 339.87003f, 362.13797f, 342.60703f);
generalPath.curveTo(361.65598f, 344.217f, 361.09198f, 350.81702f, 360.76996f, 352.91003f);
generalPath.closePath();
shape = generalPath;
paint = new Color(255, 255, 255, 255);
g.setPaint(paint);
g.fill(shape);
paint = new Color(0, 0, 0, 255);
stroke = new BasicStroke(0.521f,0,0,4.0f,null,0.0f);
if (generalPath == null) {
   generalPath = new GeneralPath();
} else {
   generalPath.reset();
}
generalPath.moveTo(360.77f, 352.91f);
generalPath.curveTo(362.702f, 354.842f, 369.54398f, 355.727f, 370.26797f, 349.61002f);
generalPath.curveTo(371.09998f, 342.588f, 368.25598f, 339.87003f, 362.13797f, 342.60703f);
generalPath.curveTo(361.65598f, 344.217f, 361.09198f, 350.81702f, 360.76996f, 352.91003f);
generalPath.closePath();
shape = generalPath;
g.setPaint(paint);
g.setStroke(stroke);
g.draw(shape);
g.setTransform(transformsStack.pop());
g.setComposite(AlphaComposite.getInstance(3, 1.0f * origAlpha));
transformsStack.push(g.getTransform());
g.transform(new AffineTransform(1.0f, 0.0f, 0.0f, 1.0f, 0.0f, 0.0f));
// _0_0_2_0_22
if (generalPath == null) {
   generalPath = new GeneralPath();
} else {
   generalPath.reset();
}
generalPath.moveTo(362.22f, 342.37f);
generalPath.curveTo(364.796f, 343.416f, 370.35f, 345.509f, 373.408f, 339.553f);
generalPath.curveTo(375.974f, 334.557f, 372.603f, 330.699f, 367.291f, 331.02002f);
generalPath.curveTo(366.003f, 332.47003f, 363.42798f, 337.62003f, 362.21997f, 342.37003f);
generalPath.closePath();
shape = generalPath;
paint = new Color(255, 255, 255, 255);
g.setPaint(paint);
g.fill(shape);
paint = new Color(0, 0, 0, 255);
stroke = new BasicStroke(0.521f,0,0,4.0f,null,0.0f);
if (generalPath == null) {
   generalPath = new GeneralPath();
} else {
   generalPath.reset();
}
generalPath.moveTo(362.22f, 342.37f);
generalPath.curveTo(364.796f, 343.416f, 370.35f, 345.509f, 373.408f, 339.553f);
generalPath.curveTo(375.974f, 334.557f, 372.603f, 330.699f, 367.291f, 331.02002f);
generalPath.curveTo(366.003f, 332.47003f, 363.42798f, 337.62003f, 362.21997f, 342.37003f);
generalPath.closePath();
shape = generalPath;
g.setPaint(paint);
g.setStroke(stroke);
g.draw(shape);
g.setTransform(transformsStack.pop());
g.setComposite(AlphaComposite.getInstance(3, 1.0f * origAlpha));
transformsStack.push(g.getTransform());
g.transform(new AffineTransform(1.0f, 0.0f, 0.0f, 1.0f, 0.0f, 0.0f));
// _0_0_2_0_23
if (generalPath == null) {
   generalPath = new GeneralPath();
} else {
   generalPath.reset();
}
generalPath.moveTo(366.97f, 330.54f);
generalPath.curveTo(367.614f, 332.47202f, 374.214f, 338.91f, 379.043f, 334.243f);
generalPath.curveTo(383.873f, 329.574f, 383.873f, 322.653f, 376.628f, 320.07703f);
generalPath.curveTo(374.69598f, 320.39804f, 368.901f, 327.15903f, 366.97f, 330.54004f);
generalPath.closePath();
shape = generalPath;
paint = new Color(255, 255, 255, 255);
g.setPaint(paint);
g.fill(shape);
paint = new Color(0, 0, 0, 255);
stroke = new BasicStroke(0.521f,0,0,4.0f,null,0.0f);
if (generalPath == null) {
   generalPath = new GeneralPath();
} else {
   generalPath.reset();
}
generalPath.moveTo(366.97f, 330.54f);
generalPath.curveTo(367.614f, 332.47202f, 374.214f, 338.91f, 379.043f, 334.243f);
generalPath.curveTo(383.873f, 329.574f, 383.873f, 322.653f, 376.628f, 320.07703f);
generalPath.curveTo(374.69598f, 320.39804f, 368.901f, 327.15903f, 366.97f, 330.54004f);
generalPath.closePath();
shape = generalPath;
g.setPaint(paint);
g.setStroke(stroke);
g.draw(shape);
g.setTransform(transformsStack.pop());
g.setComposite(AlphaComposite.getInstance(3, 1.0f * origAlpha));
transformsStack.push(g.getTransform());
g.transform(new AffineTransform(1.0f, 0.0f, 0.0f, 1.0f, 0.0f, 0.0f));
// _0_0_2_0_24
if (generalPath == null) {
   generalPath = new GeneralPath();
} else {
   generalPath.reset();
}
generalPath.moveTo(376.62f, 320.08f);
generalPath.curveTo(378.069f, 324.10397f, 382.576f, 331.026f, 390.947f, 327.80698f);
generalPath.curveTo(399.318f, 324.58698f, 395.77698f, 314.12396f, 391.913f, 312.03098f);
generalPath.curveTo(389.659f, 312.19098f, 380.483f, 316.37698f, 376.62f, 320.08f);
generalPath.closePath();
shape = generalPath;
paint = new Color(255, 255, 255, 255);
g.setPaint(paint);
g.fill(shape);
paint = new Color(0, 0, 0, 255);
stroke = new BasicStroke(0.521f,0,0,4.0f,null,0.0f);
if (generalPath == null) {
   generalPath = new GeneralPath();
} else {
   generalPath.reset();
}
generalPath.moveTo(376.62f, 320.08f);
generalPath.curveTo(378.069f, 324.10397f, 382.576f, 331.026f, 390.947f, 327.80698f);
generalPath.curveTo(399.318f, 324.58698f, 395.77698f, 314.12396f, 391.913f, 312.03098f);
generalPath.curveTo(389.659f, 312.19098f, 380.483f, 316.37698f, 376.62f, 320.08f);
generalPath.closePath();
shape = generalPath;
g.setPaint(paint);
g.setStroke(stroke);
g.draw(shape);
g.setTransform(transformsStack.pop());
g.setComposite(AlphaComposite.getInstance(3, 1.0f * origAlpha));
transformsStack.push(g.getTransform());
g.transform(new AffineTransform(1.0f, 0.0f, 0.0f, 1.0f, 0.0f, 0.0f));
// _0_0_2_0_25
if (generalPath == null) {
   generalPath = new GeneralPath();
} else {
   generalPath.reset();
}
generalPath.moveTo(391.92f, 312.03f);
generalPath.curveTo(391.276f, 315.572f, 391.92f, 325.23f, 403.349f, 325.069f);
generalPath.curveTo(414.777f, 324.909f, 411.56f, 311.547f, 408.662f, 309.615f);
generalPath.curveTo(403.99298f, 309.615f, 396.106f, 309.775f, 391.91998f, 312.03f);
generalPath.closePath();
shape = generalPath;
paint = new Color(255, 255, 255, 255);
g.setPaint(paint);
g.fill(shape);
paint = new Color(0, 0, 0, 255);
stroke = new BasicStroke(0.521f,0,0,4.0f,null,0.0f);
if (generalPath == null) {
   generalPath = new GeneralPath();
} else {
   generalPath.reset();
}
generalPath.moveTo(391.92f, 312.03f);
generalPath.curveTo(391.276f, 315.572f, 391.92f, 325.23f, 403.349f, 325.069f);
generalPath.curveTo(414.777f, 324.909f, 411.56f, 311.547f, 408.662f, 309.615f);
generalPath.curveTo(403.99298f, 309.615f, 396.106f, 309.775f, 391.91998f, 312.03f);
generalPath.closePath();
shape = generalPath;
g.setPaint(paint);
g.setStroke(stroke);
g.draw(shape);
g.setTransform(transformsStack.pop());
g.setComposite(AlphaComposite.getInstance(3, 1.0f * origAlpha));
transformsStack.push(g.getTransform());
g.transform(new AffineTransform(1.0f, 0.0f, 0.0f, 1.0f, 0.0f, 0.0f));
// _0_0_2_0_26
if (generalPath == null) {
   generalPath = new GeneralPath();
} else {
   generalPath.reset();
}
generalPath.moveTo(409.14f, 310.09f);
generalPath.curveTo(407.85202f, 312.827f, 404.95f, 330.84f, 427.33102f, 325.866f);
generalPath.curveTo(430.22702f, 325.222f, 437.79404f, 308.641f, 409.14f, 310.09f);
generalPath.closePath();
shape = generalPath;
paint = new Color(255, 255, 255, 255);
g.setPaint(paint);
g.fill(shape);
paint = new Color(0, 0, 0, 255);
stroke = new BasicStroke(0.521f,0,0,4.0f,null,0.0f);
if (generalPath == null) {
   generalPath = new GeneralPath();
} else {
   generalPath.reset();
}
generalPath.moveTo(409.14f, 310.09f);
generalPath.curveTo(407.85202f, 312.827f, 404.95f, 330.84f, 427.33102f, 325.866f);
generalPath.curveTo(430.22702f, 325.222f, 437.79404f, 308.641f, 409.14f, 310.09f);
generalPath.closePath();
shape = generalPath;
g.setPaint(paint);
g.setStroke(stroke);
g.draw(shape);
g.setTransform(transformsStack.pop());
g.setComposite(AlphaComposite.getInstance(3, 1.0f * origAlpha));
transformsStack.push(g.getTransform());
g.transform(new AffineTransform(1.0f, 0.0f, 0.0f, 1.0f, 0.0f, 0.0f));
// _0_0_2_0_27
if (generalPath == null) {
   generalPath = new GeneralPath();
} else {
   generalPath.reset();
}
generalPath.moveTo(421.37f, 311.7f);
generalPath.curveTo(419.12f, 313.953f, 424.912f, 332.144f, 440.04498f, 329.08502f);
generalPath.curveTo(455.17798f, 326.02603f, 442.46198f, 308.80203f, 421.37f, 311.7f);
generalPath.closePath();
shape = generalPath;
paint = new Color(255, 255, 255, 255);
g.setPaint(paint);
g.fill(shape);
paint = new Color(0, 0, 0, 255);
stroke = new BasicStroke(0.521f,0,0,4.0f,null,0.0f);
if (generalPath == null) {
   generalPath = new GeneralPath();
} else {
   generalPath.reset();
}
generalPath.moveTo(421.37f, 311.7f);
generalPath.curveTo(419.12f, 313.953f, 424.912f, 332.144f, 440.04498f, 329.08502f);
generalPath.curveTo(455.17798f, 326.02603f, 442.46198f, 308.80203f, 421.37f, 311.7f);
generalPath.closePath();
shape = generalPath;
g.setPaint(paint);
g.setStroke(stroke);
g.draw(shape);
g.setTransform(transformsStack.pop());
g.setComposite(AlphaComposite.getInstance(3, 1.0f * origAlpha));
transformsStack.push(g.getTransform());
g.transform(new AffineTransform(1.0f, 0.0f, 0.0f, 1.0f, 0.0f, 0.0f));
// _0_0_2_0_28
if (generalPath == null) {
   generalPath = new GeneralPath();
} else {
   generalPath.reset();
}
generalPath.moveTo(434.25f, 314.44f);
generalPath.curveTo(431.837f, 319.43f, 435.462f, 334.24f, 454.133f, 334.24f);
generalPath.curveTo(471.054f, 334.24f, 453.246f, 314.762f, 434.25f, 314.44f);
generalPath.closePath();
shape = generalPath;
paint = new Color(255, 255, 255, 255);
g.setPaint(paint);
g.fill(shape);
paint = new Color(0, 0, 0, 255);
stroke = new BasicStroke(0.521f,0,0,4.0f,null,0.0f);
if (generalPath == null) {
   generalPath = new GeneralPath();
} else {
   generalPath.reset();
}
generalPath.moveTo(434.25f, 314.44f);
generalPath.curveTo(431.837f, 319.43f, 435.462f, 334.24f, 454.133f, 334.24f);
generalPath.curveTo(471.054f, 334.24f, 453.246f, 314.762f, 434.25f, 314.44f);
generalPath.closePath();
shape = generalPath;
g.setPaint(paint);
g.setStroke(stroke);
g.draw(shape);
g.setTransform(transformsStack.pop());
g.setComposite(AlphaComposite.getInstance(3, 1.0f * origAlpha));
transformsStack.push(g.getTransform());
g.transform(new AffineTransform(1.0f, 0.0f, 0.0f, 1.0f, 0.0f, 0.0f));
// _0_0_2_0_29
if (generalPath == null) {
   generalPath = new GeneralPath();
} else {
   generalPath.reset();
}
generalPath.moveTo(448.9f, 318.79f);
generalPath.curveTo(447.688f, 321.556f, 446.20398f, 337.258f, 468.21698f, 338.59f);
generalPath.curveTo(484.15497f, 339.556f, 480.292f, 317.01898f, 448.9f, 318.79f);
generalPath.closePath();
shape = generalPath;
paint = new Color(255, 255, 255, 255);
g.setPaint(paint);
g.fill(shape);
paint = new Color(0, 0, 0, 255);
stroke = new BasicStroke(0.521f,0,0,4.0f,null,0.0f);
if (generalPath == null) {
   generalPath = new GeneralPath();
} else {
   generalPath.reset();
}
generalPath.moveTo(448.9f, 318.79f);
generalPath.curveTo(447.688f, 321.556f, 446.20398f, 337.258f, 468.21698f, 338.59f);
generalPath.curveTo(484.15497f, 339.556f, 480.292f, 317.01898f, 448.9f, 318.79f);
generalPath.closePath();
shape = generalPath;
g.setPaint(paint);
g.setStroke(stroke);
g.draw(shape);
g.setTransform(transformsStack.pop());
g.setComposite(AlphaComposite.getInstance(3, 1.0f * origAlpha));
transformsStack.push(g.getTransform());
g.transform(new AffineTransform(1.0f, 0.0f, 0.0f, 1.0f, 0.0f, 0.0f));
// _0_0_2_0_30
if (generalPath == null) {
   generalPath = new GeneralPath();
} else {
   generalPath.reset();
}
generalPath.moveTo(472.57f, 325.39f);
generalPath.curveTo(469.837f, 330.22f, 466.937f, 342.29303f, 491.083f, 343.259f);
generalPath.curveTo(506.55402f, 343.879f, 497.04102f, 325.712f, 472.57f, 325.39f);
generalPath.closePath();
shape = generalPath;
paint = new Color(255, 255, 255, 255);
g.setPaint(paint);
g.fill(shape);
paint = new Color(0, 0, 0, 255);
stroke = new BasicStroke(0.521f,0,0,4.0f,null,0.0f);
if (generalPath == null) {
   generalPath = new GeneralPath();
} else {
   generalPath.reset();
}
generalPath.moveTo(472.57f, 325.39f);
generalPath.curveTo(469.837f, 330.22f, 466.937f, 342.29303f, 491.083f, 343.259f);
generalPath.curveTo(506.55402f, 343.879f, 497.04102f, 325.712f, 472.57f, 325.39f);
generalPath.closePath();
shape = generalPath;
g.setPaint(paint);
g.setStroke(stroke);
g.draw(shape);
g.setTransform(transformsStack.pop());
g.setComposite(AlphaComposite.getInstance(3, 1.0f * origAlpha));
transformsStack.push(g.getTransform());
g.transform(new AffineTransform(1.0f, 0.0f, 0.0f, 1.0f, 0.0f, 0.0f));
// _0_0_2_0_31
if (generalPath == null) {
   generalPath = new GeneralPath();
} else {
   generalPath.reset();
}
generalPath.moveTo(492.69f, 329.09f);
generalPath.curveTo(489.148f, 333.91998f, 491.757f, 343.393f, 500.736f, 345.188f);
generalPath.curveTo(512.006f, 347.442f, 513.615f, 336.818f, 505.88998f, 331.666f);
generalPath.curveTo(498.15997f, 326.51498f, 492.68997f, 329.09f, 492.68997f, 329.09f);
generalPath.closePath();
shape = generalPath;
paint = new Color(255, 255, 255, 255);
g.setPaint(paint);
g.fill(shape);
paint = new Color(0, 0, 0, 255);
stroke = new BasicStroke(0.521f,0,0,4.0f,null,0.0f);
if (generalPath == null) {
   generalPath = new GeneralPath();
} else {
   generalPath.reset();
}
generalPath.moveTo(492.69f, 329.09f);
generalPath.curveTo(489.148f, 333.91998f, 491.757f, 343.393f, 500.736f, 345.188f);
generalPath.curveTo(512.006f, 347.442f, 513.615f, 336.818f, 505.88998f, 331.666f);
generalPath.curveTo(498.15997f, 326.51498f, 492.68997f, 329.09f, 492.68997f, 329.09f);
generalPath.closePath();
shape = generalPath;
g.setPaint(paint);
g.setStroke(stroke);
g.draw(shape);
g.setTransform(transformsStack.pop());
g.setComposite(AlphaComposite.getInstance(3, 1.0f * origAlpha));
transformsStack.push(g.getTransform());
g.transform(new AffineTransform(1.0f, 0.0f, 0.0f, 1.0f, 0.0f, 0.0f));
// _0_0_2_0_32
if (generalPath == null) {
   generalPath = new GeneralPath();
} else {
   generalPath.reset();
}
generalPath.moveTo(503.64f, 331.34f);
generalPath.curveTo(501.065f, 335.848f, 502.66f, 346.794f, 519.736f, 346.794f);
generalPath.curveTo(523.278f, 346.794f, 536.80304f, 332.95f, 503.64f, 331.34f);
generalPath.closePath();
generalPath.moveTo(371.48f, 541.27f);
generalPath.curveTo(385.31f, 541.27f, 396.522f, 530.057f, 396.522f, 516.228f);
generalPath.curveTo(396.522f, 502.39502f, 385.31f, 491.18204f, 371.48f, 491.18204f);
generalPath.curveTo(357.64902f, 491.18204f, 346.437f, 502.39505f, 346.437f, 516.228f);
generalPath.curveTo(346.437f, 530.057f, 357.64902f, 541.27f, 371.48f, 541.27f);
generalPath.closePath();
shape = generalPath;
paint = new Color(255, 255, 255, 255);
g.setPaint(paint);
g.fill(shape);
paint = new Color(0, 0, 0, 255);
stroke = new BasicStroke(0.521f,0,0,4.0f,null,0.0f);
if (generalPath == null) {
   generalPath = new GeneralPath();
} else {
   generalPath.reset();
}
generalPath.moveTo(503.64f, 331.34f);
generalPath.curveTo(501.065f, 335.848f, 502.66f, 346.794f, 519.736f, 346.794f);
generalPath.curveTo(523.278f, 346.794f, 536.80304f, 332.95f, 503.64f, 331.34f);
generalPath.closePath();
generalPath.moveTo(371.48f, 541.27f);
generalPath.curveTo(385.31f, 541.27f, 396.522f, 530.057f, 396.522f, 516.228f);
generalPath.curveTo(396.522f, 502.39502f, 385.31f, 491.18204f, 371.48f, 491.18204f);
generalPath.curveTo(357.64902f, 491.18204f, 346.437f, 502.39505f, 346.437f, 516.228f);
generalPath.curveTo(346.437f, 530.057f, 357.64902f, 541.27f, 371.48f, 541.27f);
generalPath.closePath();
shape = generalPath;
g.setPaint(paint);
g.setStroke(stroke);
g.draw(shape);
g.setTransform(transformsStack.pop());
g.setComposite(AlphaComposite.getInstance(3, 1.0f * origAlpha));
transformsStack.push(g.getTransform());
g.transform(new AffineTransform(1.0f, 0.0f, 0.0f, 1.0f, 0.0f, 0.0f));
// _0_0_2_0_33
if (generalPath == null) {
   generalPath = new GeneralPath();
} else {
   generalPath.reset();
}
generalPath.moveTo(555.15f, 177.13f);
generalPath.curveTo(553.21704f, 179.06201f, 549.19604f, 184.85701f, 548.387f, 187.11f);
generalPath.curveTo(540.017f, 212.223f, 562.362f, 230.981f, 575.43304f, 257.94f);
generalPath.curveTo(585.73706f, 279.19f, 584.4501f, 312.673f, 568.35004f, 333.922f);
generalPath.curveTo(562.84204f, 341.191f, 564.48804f, 343.259f, 557.40405f, 350.664f);
generalPath.curveTo(554.6871f, 353.505f, 551.60803f, 357.104f, 552.5751f, 367.406f);
generalPath.curveTo(557.08307f, 365.79602f, 563.52106f, 369.982f, 564.80804f, 373.52402f);
generalPath.curveTo(568.028f, 371.91403f, 572.538f, 372.558f, 574.145f, 374.489f);
generalPath.curveTo(579.616f, 371.914f, 584.125f, 373.20102f, 588.953f, 378.35303f);
generalPath.curveTo(593.141f, 377.709f, 597.649f, 378.35303f, 601.833f, 382.86002f);
generalPath.curveTo(604.08704f, 378.35303f, 608.59503f, 376.743f, 611.812f, 377.709f);
generalPath.curveTo(611.491f, 371.914f, 617.287f, 367.729f, 622.437f, 369.98203f);
generalPath.curveTo(620.828f, 362.25504f, 627.912f, 356.459f, 634.675f, 358.713f);
generalPath.curveTo(640.466f, 354.20602f, 652.058f, 353.884f, 657.854f, 360.64502f);
generalPath.curveTo(647.55f, 357.74802f, 647.874f, 368.695f, 639.179f, 367.72803f);
generalPath.curveTo(641.43304f, 374.16803f, 635.637f, 377.87003f, 629.84503f, 379.96204f);
generalPath.curveTo(633.54504f, 378.19205f, 637.57f, 376.09903f, 638.85803f, 378.35205f);
generalPath.curveTo(642.078f, 375.53604f, 648.51605f, 376.58206f, 650.12805f, 378.03104f);
generalPath.curveTo(654.39105f, 376.66302f, 658.50006f, 377.70905f, 660.42804f, 382.86005f);
generalPath.curveTo(666.22504f, 386.40204f, 670.088f, 395.41605f, 665.90405f, 402.17804f);
generalPath.curveTo(664.616f, 395.09503f, 659.78705f, 395.41705f, 657.85406f, 392.51904f);
generalPath.curveTo(653.3451f, 394.12903f, 648.83704f, 394.12903f, 647.55005f, 391.23105f);
generalPath.curveTo(644.97504f, 393.80704f, 636.283f, 396.06104f, 632.42004f, 392.19705f);
generalPath.curveTo(630.97003f, 397.99207f, 625.98004f, 402.82205f, 620.18304f, 402.82205f);
generalPath.curveTo(621.79504f, 407.32904f, 617.28705f, 415.05804f, 613.74506f, 418.92004f);
generalPath.curveTo(619.22003f, 421.81604f, 617.60803f, 428.25705f, 616.32007f, 432.12006f);
generalPath.curveTo(624.69104f, 433.40704f, 617.6081f, 440.81204f, 632.0951f, 445.64105f);
generalPath.curveTo(625.0161f, 447.89505f, 611.1701f, 445.64105f, 609.2371f, 436.94907f);
generalPath.curveTo(602.1541f, 436.62906f, 597.3241f, 429.54507f, 597.6491f, 422.13608f);
generalPath.curveTo(592.17413f, 416.98608f, 591.3701f, 409.5821f, 598.93713f, 404.4311f);
generalPath.curveTo(592.4951f, 406.3631f, 588.9531f, 396.0611f, 579.61615f, 400.2461f);
generalPath.curveTo(574.9741f, 402.3281f, 562.7161f, 398.7971f, 562.8782f, 394.4501f);
generalPath.curveTo(560.94415f, 397.6701f, 549.1952f, 396.38312f, 547.58215f, 390.9101f);
generalPath.curveTo(543.7192f, 393.0021f, 534.70215f, 389.46008f, 534.8652f, 384.1481f);
generalPath.curveTo(529.87317f, 386.4021f, 523.1152f, 382.3781f, 523.4352f, 377.2261f);
generalPath.curveTo(518.76917f, 376.5821f, 518.28516f, 372.39612f, 518.6072f, 368.8561f);
generalPath.curveTo(514.4192f, 366.9231f, 515.54816f, 362.8991f, 517.15717f, 358.0701f);
generalPath.curveTo(514.26117f, 354.8501f, 515.54816f, 350.3431f, 517.8022f, 346.1571f);
generalPath.curveTo(514.5822f, 342.9371f, 515.2272f, 339.0741f, 516.1902f, 334.5671f);
generalPath.curveTo(500.73618f, 333.2791f, 481.3772f, 329.5521f, 436.99017f, 315.8941f);
generalPath.curveTo(370.02316f, 295.2891f, 351.99316f, 343.5821f, 366.80316f, 373.8461f);
generalPath.curveTo(383.89017f, 408.7661f, 364.87115f, 416.3461f, 370.66718f, 442.4261f);
generalPath.curveTo(376.78418f, 443.71307f, 380.00317f, 448.8631f, 379.6822f, 454.33807f);
generalPath.curveTo(383.3022f, 454.49606f, 385.8782f, 457.87607f, 384.5912f, 464.31808f);
generalPath.curveTo(387.6492f, 463.7551f, 391.59418f, 464.6381f, 394.1692f, 467.21307f);
generalPath.curveTo(396.4232f, 463.03006f, 403.8292f, 462.06308f, 407.6922f, 466.89307f);
generalPath.curveTo(416.0622f, 466.24606f, 420.2482f, 473.00906f, 419.9272f, 481.38007f);
generalPath.curveTo(424.4322f, 489.43005f, 422.82318f, 499.25107f, 417.99417f, 505.52606f);
generalPath.curveTo(418.47717f, 502.14706f, 417.99417f, 497.31805f, 417.83618f, 494.42206f);
generalPath.curveTo(417.5362f, 489.09305f, 410.10617f, 487.98105f, 410.91217f, 483.63406f);
generalPath.curveTo(407.04816f, 483.95508f, 403.34518f, 481.86407f, 402.05817f, 478.96808f);
generalPath.curveTo(399.80417f, 480.89706f, 396.58417f, 481.5431f, 393.84818f, 480.57608f);
generalPath.curveTo(398.19418f, 482.5091f, 401.57516f, 490.23407f, 400.28717f, 495.3841f);
generalPath.curveTo(402.54117f, 499.2511f, 402.05716f, 506.3341f, 399.32117f, 509.3921f);
generalPath.curveTo(398.03317f, 515.6671f, 393.20416f, 517.9221f, 386.92618f, 515.1841f);
generalPath.curveTo(390.46817f, 512.9341f, 391.75616f, 508.9091f, 391.59418f, 505.5251f);
generalPath.curveTo(389.3412f, 503.5961f, 388.21417f, 499.8921f, 388.0532f, 497.6381f);
generalPath.curveTo(381.7752f, 498.6041f, 373.08218f, 493.29208f, 371.4792f, 491.19208f);
generalPath.curveTo(357.6482f, 491.19208f, 346.4362f, 502.4051f, 346.4362f, 516.2381f);
generalPath.curveTo(345.79218f, 511.0841f, 339.27618f, 506.0091f, 340.08118f, 501.6631f);
generalPath.curveTo(336.21817f, 489.7501f, 341.69116f, 478.6421f, 357.46716f, 476.3921f);
generalPath.curveTo(355.53616f, 471.8841f, 362.29715f, 467.2121f, 359.72116f, 462.06308f);
generalPath.curveTo(356.43115f, 455.4831f, 350.38516f, 446.93008f, 341.37115f, 436.95007f);
generalPath.curveTo(346.84415f, 427.61206f, 345.23416f, 415.05807f, 342.01416f, 407.33008f);
generalPath.curveTo(337.39117f, 396.23407f, 332.99915f, 398.96008f, 316.57916f, 416.98807f);
generalPath.curveTo(289.81915f, 446.37106f, 254.11917f, 438.23807f, 222.56717f, 457.55505f);
generalPath.curveTo(214.18317f, 462.68805f, 205.82617f, 464.63806f, 214.84016f, 455.62506f);
generalPath.curveTo(223.85516f, 446.60907f, 247.68016f, 437.59705f, 263.13318f, 429.86807f);
generalPath.curveTo(292.07318f, 415.39706f, 316.5782f, 391.23306f, 326.23718f, 344.2281f);
generalPath.curveTo(348.93417f, 233.7681f, 432.47717f, 270.1781f, 485.27716f, 290.78308f);
generalPath.curveTo(534.84814f, 310.1291f, 525.8442f, 266.31308f, 500.73117f, 239.91309f);
generalPath.curveTo(470.54816f, 208.18208f, 476.58517f, 183.25009f, 490.75217f, 163.28809f);
generalPath.curveTo(516.1852f, 159.74608f, 564.96515f, 168.60008f, 555.14417f, 177.13309f);
generalPath.closePath();
shape = generalPath;
paint = new Color(255, 255, 255, 255);
g.setPaint(paint);
g.fill(shape);
paint = new Color(0, 0, 0, 255);
stroke = new BasicStroke(0.521f,0,0,4.0f,null,0.0f);
if (generalPath == null) {
   generalPath = new GeneralPath();
} else {
   generalPath.reset();
}
generalPath.moveTo(555.15f, 177.13f);
generalPath.curveTo(553.21704f, 179.06201f, 549.19604f, 184.85701f, 548.387f, 187.11f);
generalPath.curveTo(540.017f, 212.223f, 562.362f, 230.981f, 575.43304f, 257.94f);
generalPath.curveTo(585.73706f, 279.19f, 584.4501f, 312.673f, 568.35004f, 333.922f);
generalPath.curveTo(562.84204f, 341.191f, 564.48804f, 343.259f, 557.40405f, 350.664f);
generalPath.curveTo(554.6871f, 353.505f, 551.60803f, 357.104f, 552.5751f, 367.406f);
generalPath.curveTo(557.08307f, 365.79602f, 563.52106f, 369.982f, 564.80804f, 373.52402f);
generalPath.curveTo(568.028f, 371.91403f, 572.538f, 372.558f, 574.145f, 374.489f);
generalPath.curveTo(579.616f, 371.914f, 584.125f, 373.20102f, 588.953f, 378.35303f);
generalPath.curveTo(593.141f, 377.709f, 597.649f, 378.35303f, 601.833f, 382.86002f);
generalPath.curveTo(604.08704f, 378.35303f, 608.59503f, 376.743f, 611.812f, 377.709f);
generalPath.curveTo(611.491f, 371.914f, 617.287f, 367.729f, 622.437f, 369.98203f);
generalPath.curveTo(620.828f, 362.25504f, 627.912f, 356.459f, 634.675f, 358.713f);
generalPath.curveTo(640.466f, 354.20602f, 652.058f, 353.884f, 657.854f, 360.64502f);
generalPath.curveTo(647.55f, 357.74802f, 647.874f, 368.695f, 639.179f, 367.72803f);
generalPath.curveTo(641.43304f, 374.16803f, 635.637f, 377.87003f, 629.84503f, 379.96204f);
generalPath.curveTo(633.54504f, 378.19205f, 637.57f, 376.09903f, 638.85803f, 378.35205f);
generalPath.curveTo(642.078f, 375.53604f, 648.51605f, 376.58206f, 650.12805f, 378.03104f);
generalPath.curveTo(654.39105f, 376.66302f, 658.50006f, 377.70905f, 660.42804f, 382.86005f);
generalPath.curveTo(666.22504f, 386.40204f, 670.088f, 395.41605f, 665.90405f, 402.17804f);
generalPath.curveTo(664.616f, 395.09503f, 659.78705f, 395.41705f, 657.85406f, 392.51904f);
generalPath.curveTo(653.3451f, 394.12903f, 648.83704f, 394.12903f, 647.55005f, 391.23105f);
generalPath.curveTo(644.97504f, 393.80704f, 636.283f, 396.06104f, 632.42004f, 392.19705f);
generalPath.curveTo(630.97003f, 397.99207f, 625.98004f, 402.82205f, 620.18304f, 402.82205f);
generalPath.curveTo(621.79504f, 407.32904f, 617.28705f, 415.05804f, 613.74506f, 418.92004f);
generalPath.curveTo(619.22003f, 421.81604f, 617.60803f, 428.25705f, 616.32007f, 432.12006f);
generalPath.curveTo(624.69104f, 433.40704f, 617.6081f, 440.81204f, 632.0951f, 445.64105f);
generalPath.curveTo(625.0161f, 447.89505f, 611.1701f, 445.64105f, 609.2371f, 436.94907f);
generalPath.curveTo(602.1541f, 436.62906f, 597.3241f, 429.54507f, 597.6491f, 422.13608f);
generalPath.curveTo(592.17413f, 416.98608f, 591.3701f, 409.5821f, 598.93713f, 404.4311f);
generalPath.curveTo(592.4951f, 406.3631f, 588.9531f, 396.0611f, 579.61615f, 400.2461f);
generalPath.curveTo(574.9741f, 402.3281f, 562.7161f, 398.7971f, 562.8782f, 394.4501f);
generalPath.curveTo(560.94415f, 397.6701f, 549.1952f, 396.38312f, 547.58215f, 390.9101f);
generalPath.curveTo(543.7192f, 393.0021f, 534.70215f, 389.46008f, 534.8652f, 384.1481f);
generalPath.curveTo(529.87317f, 386.4021f, 523.1152f, 382.3781f, 523.4352f, 377.2261f);
generalPath.curveTo(518.76917f, 376.5821f, 518.28516f, 372.39612f, 518.6072f, 368.8561f);
generalPath.curveTo(514.4192f, 366.9231f, 515.54816f, 362.8991f, 517.15717f, 358.0701f);
generalPath.curveTo(514.26117f, 354.8501f, 515.54816f, 350.3431f, 517.8022f, 346.1571f);
generalPath.curveTo(514.5822f, 342.9371f, 515.2272f, 339.0741f, 516.1902f, 334.5671f);
generalPath.curveTo(500.73618f, 333.2791f, 481.3772f, 329.5521f, 436.99017f, 315.8941f);
generalPath.curveTo(370.02316f, 295.2891f, 351.99316f, 343.5821f, 366.80316f, 373.8461f);
generalPath.curveTo(383.89017f, 408.7661f, 364.87115f, 416.3461f, 370.66718f, 442.4261f);
generalPath.curveTo(376.78418f, 443.71307f, 380.00317f, 448.8631f, 379.6822f, 454.33807f);
generalPath.curveTo(383.3022f, 454.49606f, 385.8782f, 457.87607f, 384.5912f, 464.31808f);
generalPath.curveTo(387.6492f, 463.7551f, 391.59418f, 464.6381f, 394.1692f, 467.21307f);
generalPath.curveTo(396.4232f, 463.03006f, 403.8292f, 462.06308f, 407.6922f, 466.89307f);
generalPath.curveTo(416.0622f, 466.24606f, 420.2482f, 473.00906f, 419.9272f, 481.38007f);
generalPath.curveTo(424.4322f, 489.43005f, 422.82318f, 499.25107f, 417.99417f, 505.52606f);
generalPath.curveTo(418.47717f, 502.14706f, 417.99417f, 497.31805f, 417.83618f, 494.42206f);
generalPath.curveTo(417.5362f, 489.09305f, 410.10617f, 487.98105f, 410.91217f, 483.63406f);
generalPath.curveTo(407.04816f, 483.95508f, 403.34518f, 481.86407f, 402.05817f, 478.96808f);
generalPath.curveTo(399.80417f, 480.89706f, 396.58417f, 481.5431f, 393.84818f, 480.57608f);
generalPath.curveTo(398.19418f, 482.5091f, 401.57516f, 490.23407f, 400.28717f, 495.3841f);
generalPath.curveTo(402.54117f, 499.2511f, 402.05716f, 506.3341f, 399.32117f, 509.3921f);
generalPath.curveTo(398.03317f, 515.6671f, 393.20416f, 517.9221f, 386.92618f, 515.1841f);
generalPath.curveTo(390.46817f, 512.9341f, 391.75616f, 508.9091f, 391.59418f, 505.5251f);
generalPath.curveTo(389.3412f, 503.5961f, 388.21417f, 499.8921f, 388.0532f, 497.6381f);
generalPath.curveTo(381.7752f, 498.6041f, 373.08218f, 493.29208f, 371.4792f, 491.19208f);
generalPath.curveTo(357.6482f, 491.19208f, 346.4362f, 502.4051f, 346.4362f, 516.2381f);
generalPath.curveTo(345.79218f, 511.0841f, 339.27618f, 506.0091f, 340.08118f, 501.6631f);
generalPath.curveTo(336.21817f, 489.7501f, 341.69116f, 478.6421f, 357.46716f, 476.3921f);
generalPath.curveTo(355.53616f, 471.8841f, 362.29715f, 467.2121f, 359.72116f, 462.06308f);
generalPath.curveTo(356.43115f, 455.4831f, 350.38516f, 446.93008f, 341.37115f, 436.95007f);
generalPath.curveTo(346.84415f, 427.61206f, 345.23416f, 415.05807f, 342.01416f, 407.33008f);
generalPath.curveTo(337.39117f, 396.23407f, 332.99915f, 398.96008f, 316.57916f, 416.98807f);
generalPath.curveTo(289.81915f, 446.37106f, 254.11917f, 438.23807f, 222.56717f, 457.55505f);
generalPath.curveTo(214.18317f, 462.68805f, 205.82617f, 464.63806f, 214.84016f, 455.62506f);
generalPath.curveTo(223.85516f, 446.60907f, 247.68016f, 437.59705f, 263.13318f, 429.86807f);
generalPath.curveTo(292.07318f, 415.39706f, 316.5782f, 391.23306f, 326.23718f, 344.2281f);
generalPath.curveTo(348.93417f, 233.7681f, 432.47717f, 270.1781f, 485.27716f, 290.78308f);
generalPath.curveTo(534.84814f, 310.1291f, 525.8442f, 266.31308f, 500.73117f, 239.91309f);
generalPath.curveTo(470.54816f, 208.18208f, 476.58517f, 183.25009f, 490.75217f, 163.28809f);
generalPath.curveTo(516.1852f, 159.74608f, 564.96515f, 168.60008f, 555.14417f, 177.13309f);
generalPath.closePath();
shape = generalPath;
g.setPaint(paint);
g.setStroke(stroke);
g.draw(shape);
g.setTransform(transformsStack.pop());
g.setComposite(AlphaComposite.getInstance(3, 1.0f * origAlpha));
transformsStack.push(g.getTransform());
g.transform(new AffineTransform(1.0f, 0.0f, 0.0f, 1.0f, 0.0f, 0.0f));
// _0_0_2_0_34
if (generalPath == null) {
   generalPath = new GeneralPath();
} else {
   generalPath.reset();
}
generalPath.moveTo(644.82f, 448.48f);
generalPath.curveTo(660.037f, 448.48f, 672.374f, 436.147f, 672.374f, 420.93002f);
generalPath.curveTo(672.374f, 405.71204f, 660.036f, 393.37604f, 644.82f, 393.37604f);
generalPath.curveTo(629.603f, 393.37604f, 617.266f, 405.71204f, 617.266f, 420.93005f);
generalPath.curveTo(617.266f, 436.14706f, 629.604f, 448.48004f, 644.82f, 448.48004f);
generalPath.closePath();
shape = generalPath;
paint = new Color(255, 255, 255, 255);
g.setPaint(paint);
g.fill(shape);
paint = new Color(0, 0, 0, 255);
stroke = new BasicStroke(0.521f,0,0,4.0f,null,0.0f);
if (generalPath == null) {
   generalPath = new GeneralPath();
} else {
   generalPath.reset();
}
generalPath.moveTo(644.82f, 448.48f);
generalPath.curveTo(660.037f, 448.48f, 672.374f, 436.147f, 672.374f, 420.93002f);
generalPath.curveTo(672.374f, 405.71204f, 660.036f, 393.37604f, 644.82f, 393.37604f);
generalPath.curveTo(629.603f, 393.37604f, 617.266f, 405.71204f, 617.266f, 420.93005f);
generalPath.curveTo(617.266f, 436.14706f, 629.604f, 448.48004f, 644.82f, 448.48004f);
generalPath.closePath();
shape = generalPath;
g.setPaint(paint);
g.setStroke(stroke);
g.draw(shape);
g.setTransform(transformsStack.pop());
g.setTransform(transformsStack.pop());
g.setComposite(AlphaComposite.getInstance(3, 1.0f * origAlpha));
transformsStack.push(g.getTransform());
g.transform(new AffineTransform(1.0f, 0.0f, 0.0f, 1.0f, 0.0f, 0.0f));
// _0_0_2_1
g.setComposite(AlphaComposite.getInstance(3, 1.0f * origAlpha));
transformsStack.push(g.getTransform());
g.transform(new AffineTransform(1.0f, 0.0f, 0.0f, 1.0f, 0.0f, 0.0f));
// _0_0_2_1_0
paint = new Color(0, 0, 0, 255);
stroke = new BasicStroke(0.521f,0,0,4.0f,null,0.0f);
if (generalPath == null) {
   generalPath = new GeneralPath();
} else {
   generalPath.reset();
}
generalPath.moveTo(539.7f, 178.41f);
generalPath.curveTo(533.583f, 205.455f, 538.73303f, 217.689f, 547.75f, 229.60101f);
generalPath.curveTo(566.379f, 254.22202f, 581.23303f, 310.41202f, 559.983f, 347.11102f);
shape = generalPath;
g.setPaint(paint);
g.setStroke(stroke);
g.draw(shape);
g.setTransform(transformsStack.pop());
g.setComposite(AlphaComposite.getInstance(3, 1.0f * origAlpha));
transformsStack.push(g.getTransform());
g.transform(new AffineTransform(1.0f, 0.0f, 0.0f, 1.0f, 0.0f, 0.0f));
// _0_0_2_1_1
g.setComposite(AlphaComposite.getInstance(3, 1.0f * origAlpha));
transformsStack.push(g.getTransform());
g.transform(new AffineTransform(1.0f, 0.0f, 0.0f, 1.0f, 0.0f, 0.0f));
// _0_0_2_1_1_0
paint = new Color(0, 0, 0, 255);
stroke = new BasicStroke(0.521f,1,0,4.0f,null,0.0f);
if (generalPath == null) {
   generalPath = new GeneralPath();
} else {
   generalPath.reset();
}
generalPath.moveTo(571.89f, 315.41f);
generalPath.curveTo(574.465f, 314.444f, 579.294f, 311.38602f, 580.42303f, 306.073f);
generalPath.moveTo(573.82f, 303.66f);
generalPath.curveTo(574.624f, 298.992f, 581.866f, 296.98f, 582.028f, 291.99f);
generalPath.moveTo(573.98f, 285.46f);
generalPath.curveTo(573.497f, 280.63f, 581.22595f, 276.284f, 580.097f, 271.455f);
generalPath.moveTo(569.8f, 268.08f);
generalPath.curveTo(569.154f, 265.343f, 576.238f, 260.192f, 574.308f, 255.846f);
generalPath.moveTo(564.49f, 251.18f);
generalPath.curveTo(563.04f, 248.12099f, 567.87f, 244.57999f, 565.778f, 241.35999f);
generalPath.moveTo(556.76f, 237.65f);
generalPath.curveTo(556.27704f, 235.558f, 559.256f, 230.97f, 557.64703f, 228.234f);
generalPath.moveTo(549.03f, 221.72f);
generalPath.curveTo(549.67206f, 220.91501f, 552.25f, 218.983f, 551.2f, 216.569f);
generalPath.moveTo(543.72f, 210.05f);
generalPath.curveTo(544.766f, 209.48601f, 547.90295f, 208.52f, 547.503f, 206.187f);
shape = generalPath;
g.setPaint(paint);
g.setStroke(stroke);
g.draw(shape);
g.setTransform(transformsStack.pop());
g.setComposite(AlphaComposite.getInstance(3, 1.0f * origAlpha));
transformsStack.push(g.getTransform());
g.transform(new AffineTransform(1.0f, 0.0f, 0.0f, 1.0f, 0.0f, 0.0f));
// _0_0_2_1_1_1
paint = new Color(0, 0, 0, 255);
stroke = new BasicStroke(0.521f,1,1,4.0f,null,0.0f);
if (generalPath == null) {
   generalPath = new GeneralPath();
} else {
   generalPath.reset();
}
generalPath.moveTo(382.58f, 513.57f);
generalPath.curveTo(376.13998f, 511.316f, 368.09198f, 514.537f, 366.482f, 520.012f);
generalPath.moveTo(371.31f, 525.0f);
generalPath.curveTo(372.115f, 519.53f, 380.486f, 517.112f, 383.061f, 519.687f);
generalPath.curveTo(377.749f, 516.792f, 375.173f, 527.09204f, 379.841f, 527.417f);
generalPath.moveTo(423.15f, 397.67f);
generalPath.curveTo(419.288f, 399.60202f, 418.163f, 406.68503f, 423.15f, 411.99902f);
generalPath.moveTo(428.94f, 399.28f);
generalPath.curveTo(426.207f, 401.534f, 426.365f, 408.295f, 430.39f, 409.905f);
generalPath.curveTo(427.01f, 407.49f, 430.39f, 403.305f, 432.807f, 403.144f);
generalPath.curveTo(435.219f, 402.983f, 436.827f, 405.88f, 433.932f, 408.778f);
generalPath.moveTo(655.12f, 415.21f);
generalPath.curveTo(646.108f, 412.797f, 638.862f, 423.25998f, 647.07f, 432.598f);
generalPath.curveTo(646.912f, 423.581f, 653.35004f, 417.62698f, 661.237f, 419.235f);
generalPath.moveTo(657.61f, 425.47f);
generalPath.curveTo(655.393f, 425.47f, 654.148f, 427.203f, 654.148f, 428.89f);
generalPath.curveTo(654.148f, 430.66202f, 655.677f, 432.35303f, 658.17303f, 432.35303f);
generalPath.curveTo(659.78503f, 432.35303f, 661.07306f, 430.50302f, 661.07306f, 429.05304f);
generalPath.moveTo(689.4f, 227.83f);
generalPath.curveTo(690.85004f, 233.30301f, 698.41705f, 235.557f, 704.37103f, 234.27f);
generalPath.moveTo(704.37f, 230.73f);
generalPath.curveTo(699.703f, 230.89099f, 695.83997f, 226.545f, 696.162f, 222.842f);
generalPath.curveTo(696.162f, 225.579f, 702.441f, 226.86699f, 704.37f, 225.096f);
shape = generalPath;
g.setPaint(paint);
g.setStroke(stroke);
g.draw(shape);
g.setTransform(transformsStack.pop());
g.setComposite(AlphaComposite.getInstance(3, 1.0f * origAlpha));
transformsStack.push(g.getTransform());
g.transform(new AffineTransform(1.0f, 0.0f, 0.0f, 1.0f, 0.0f, 0.0f));
// _0_0_2_1_1_2
paint = new Color(0, 0, 0, 255);
stroke = new BasicStroke(0.521f,1,0,4.0f,null,0.0f);
if (generalPath == null) {
   generalPath = new GeneralPath();
} else {
   generalPath.reset();
}
generalPath.moveTo(384.83f, 414.57f);
generalPath.curveTo(383.542f, 411.35f, 388.694f, 408.13f, 388.85498f, 405.07f);
generalPath.curveTo(389.01498f, 402.013f, 394.65f, 399.59802f, 400.44498f, 405.393f);
generalPath.moveTo(397.71f, 371.11f);
generalPath.curveTo(396.58298f, 371.593f, 395.617f, 372.237f, 394.651f, 372.559f);
generalPath.moveTo(408.82f, 388.65f);
generalPath.curveTo(407.45102f, 388.731f, 404.635f, 388.57f, 403.105f, 387.52298f);
generalPath.moveTo(403.19f, 394.77f);
generalPath.curveTo(402.063f, 395.33398f, 399.56702f, 396.3f, 398.118f, 396.62198f);
generalPath.moveTo(347.97f, 492.0f);
generalPath.curveTo(347.809f, 494.9f, 350.707f, 499.083f, 352.316f, 500.37f);
generalPath.moveTo(360.53f, 485.08f);
generalPath.curveTo(358.92f, 487.49298f, 357.955f, 491.68f, 358.92f, 494.576f);
generalPath.moveTo(384.51f, 494.74f);
generalPath.curveTo(381.612f, 492.80698f, 383.544f, 487.815f, 383.22202f, 484.598f);
generalPath.curveTo(382.90002f, 481.378f, 386.60202f, 476.228f, 393.84702f, 480.573f);
generalPath.moveTo(357.47f, 476.39f);
generalPath.curveTo(360.368f, 475.907f, 363.426f, 476.065f, 365.358f, 476.87003f);
generalPath.moveTo(394.17f, 467.21f);
generalPath.curveTo(392.88202f, 468.97998f, 392.56003f, 470.914f, 392.40002f, 472.202f);
generalPath.moveTo(407.69f, 466.89f);
generalPath.curveTo(405.436f, 466.89f, 403.505f, 468.49802f, 402.539f, 470.11002f);
generalPath.moveTo(376.46f, 384.47f);
generalPath.curveTo(379.03598f, 385.356f, 385.716f, 389.46f, 385.95798f, 393.727f);
generalPath.moveTo(403.83f, 363.54f);
generalPath.curveTo(395.942f, 363.379f, 392.88397f, 355.33002f, 398.84f, 355.33002f);
generalPath.moveTo(418.0f, 374.32f);
generalPath.curveTo(414.942f, 375.608f, 416.392f, 380.92f, 420.737f, 383.496f);
generalPath.moveTo(399.16f, 424.87f);
generalPath.curveTo(397.63f, 422.94f, 399.643f, 417.307f, 404.633f, 418.995f);
generalPath.moveTo(410.91f, 483.63f);
generalPath.curveTo(411.23f, 478.72202f, 417.43f, 475.822f, 419.926f, 481.376f);
generalPath.moveTo(388.05f, 497.63f);
generalPath.curveTo(387.64697f, 492.238f, 390.384f, 490.46802f, 392.79797f, 490.147f);
generalPath.curveTo(395.21298f, 489.826f, 398.675f, 491.834f, 400.28497f, 495.376f);
generalPath.moveTo(340.08f, 501.66f);
generalPath.curveTo(340.40198f, 498.44f, 343.13898f, 495.06f, 346.03598f, 495.543f);
generalPath.moveTo(634.67f, 358.71f);
generalPath.curveTo(632.574f, 360.24f, 631.208f, 367.08f, 639.174f, 367.725f);
generalPath.moveTo(622.44f, 369.98f);
generalPath.curveTo(622.44f, 370.785f, 623.486f, 371.91202f, 624.132f, 372.39502f);
generalPath.moveTo(660.43f, 382.86f);
generalPath.curveTo(658.338f, 381.25f, 652.943f, 387.77f, 657.855f, 392.51898f);
generalPath.moveTo(609.24f, 436.95f);
generalPath.curveTo(608.032f, 432.362f, 612.298f, 431.15402f, 616.323f, 432.12003f);
generalPath.moveTo(598.94f, 404.43f);
generalPath.curveTo(601.353f, 402.82f, 603.77f, 401.05f, 606.828f, 400.245f);
generalPath.moveTo(597.65f, 422.13f);
generalPath.curveTo(597.65f, 418.268f, 599.58f, 415.05002f, 601.35004f, 414.084f);
generalPath.moveTo(611.81f, 377.71f);
generalPath.curveTo(611.49f, 382.378f, 613.423f, 386.886f, 614.873f, 389.3f);
generalPath.moveTo(650.13f, 378.03f);
generalPath.curveTo(647.793f, 378.755f, 645.7f, 379.63998f, 644.817f, 381.572f);
generalPath.moveTo(647.55f, 391.23f);
generalPath.curveTo(648.68f, 390.264f, 649.967f, 389.138f, 650.52997f, 388.333f);
generalPath.moveTo(708.4f, 250.69f);
generalPath.curveTo(708.4f, 255.197f, 702.767f, 257.612f, 699.067f, 254.714f);
generalPath.moveTo(720.64f, 250.85f);
generalPath.curveTo(723.132f, 252.78201f, 731.744f, 250.931f, 729.732f, 245.94f);
generalPath.moveTo(710.17f, 276.77f);
generalPath.curveTo(708.39996f, 276.448f, 705.33997f, 274.516f, 704.053f, 272.90698f);
generalPath.moveTo(727.88f, 263.41f);
generalPath.curveTo(724.984f, 264.05402f, 723.05f, 263.41f, 721.6f, 262.766f);
generalPath.moveTo(682.16f, 279.51f);
generalPath.curveTo(683.76794f, 279.51f, 687.62994f, 278.866f, 690.29f, 277.49802f);
generalPath.moveTo(677.33f, 251.02f);
generalPath.curveTo(675.23804f, 250.78f, 673.705f, 251.181f, 672.5f, 251.98601f);
generalPath.moveTo(709.77f, 258.9f);
generalPath.curveTo(709.20703f, 260.913f, 707.757f, 264.051f, 705.987f, 265.41998f);
shape = generalPath;
g.setPaint(paint);
g.setStroke(stroke);
g.draw(shape);
g.setTransform(transformsStack.pop());
g.setComposite(AlphaComposite.getInstance(3, 1.0f * origAlpha));
transformsStack.push(g.getTransform());
g.transform(new AffineTransform(1.0f, 0.0f, 0.0f, 1.0f, 0.0f, 0.0f));
// _0_0_2_1_1_3
paint = new Color(0, 0, 0, 255);
stroke = new BasicStroke(0.521f,1,1,4.0f,null,0.0f);
if (generalPath == null) {
   generalPath = new GeneralPath();
} else {
   generalPath.reset();
}
generalPath.moveTo(671.86f, 265.99f);

}

private void _paint2(Graphics2D g,float origAlpha) {
generalPath.curveTo(675.885f, 264.22f, 680.877f, 277.90198f, 690.535f, 273.073f);
generalPath.moveTo(691.34f, 258.9f);
generalPath.curveTo(690.052f, 260.66998f, 689.24805f, 263.408f, 689.086f, 265.822f);
shape = generalPath;
g.setPaint(paint);
g.setStroke(stroke);
g.draw(shape);
g.setTransform(transformsStack.pop());
g.setTransform(transformsStack.pop());
g.setComposite(AlphaComposite.getInstance(3, 1.0f * origAlpha));
transformsStack.push(g.getTransform());
g.transform(new AffineTransform(1.0f, 0.0f, 0.0f, 1.0f, 0.0f, 0.0f));
// _0_0_2_1_2
paint = new Color(0, 0, 0, 255);
stroke = new BasicStroke(0.521f,0,0,4.0f,null,0.0f);
if (generalPath == null) {
   generalPath = new GeneralPath();
} else {
   generalPath.reset();
}
generalPath.moveTo(498.81f, 237.98f);
generalPath.curveTo(500.098f, 237.81999f, 502.352f, 237.336f, 502.835f, 235.726f);
generalPath.moveTo(333.16f, 387.85f);
generalPath.curveTo(337.99f, 390.587f, 341.37f, 395.255f, 339.277f, 402.177f);
generalPath.moveTo(554.5f, 223.17f);
generalPath.curveTo(555.95f, 224.136f, 561.425f, 224.136f, 564.483f, 223.01f);
generalPath.moveTo(568.35f, 226.39f);
generalPath.curveTo(568.18695f, 228.644f, 568.83295f, 237.175f, 564.488f, 238.946f);
generalPath.moveTo(566.1f, 237.82f);
generalPath.curveTo(570.125f, 239.108f, 578.175f, 238.625f, 580.75f, 231.22f);
generalPath.moveTo(575.11f, 237.49f);
generalPath.curveTo(577.20197f, 240.71f, 577.84296f, 246.988f, 571.568f, 250.36801f);
generalPath.moveTo(576.72f, 242.81f);
generalPath.curveTo(581.38696f, 244.42f, 592.17395f, 244.58f, 591.045f, 235.405f);
generalPath.moveTo(587.35f, 242.81f);
generalPath.curveTo(590.56995f, 247.317f, 604.738f, 252.63f, 602.483f, 243.293f);
generalPath.moveTo(574.31f, 255.84f);
generalPath.curveTo(579.77997f, 257.128f, 587.51f, 253.425f, 584.29f, 243.767f);
generalPath.moveTo(599.74f, 248.6f);
generalPath.curveTo(600.544f, 252.30301f, 618.573f, 256.16602f, 616.161f, 247.79501f);
generalPath.moveTo(612.78f, 252.63f);
generalPath.curveTo(616.163f, 260.357f, 634.03f, 259.713f, 628.39703f, 249.41f);
generalPath.moveTo(625.5f, 257.45f);
generalPath.curveTo(629.042f, 261.797f, 644.821f, 259.22f, 638.542f, 248.75702f);
generalPath.moveTo(638.37f, 257.29f);
