package org.pushingpixels.demo.flamingo.svg.bigflag;

import java.awt.*;
import java.awt.geom.*;
import java.awt.image.BufferedImage;
import java.io.*;
import java.lang.ref.WeakReference;
import java.util.Base64;
import java.util.Stack;
import javax.imageio.ImageIO;
import javax.swing.SwingUtilities;
import javax.swing.plaf.UIResource;

import org.pushingpixels.neon.api.icon.ResizableIcon;
import org.pushingpixels.neon.api.icon.ResizableIconUIResource;

/**
 * This class has been automatically generated using <a
 * href="https://github.com/kirill-grouchnikov/radiance">Photon SVG transcoder</a>.
 */
public class Flag_of_Turkmenistan implements ResizableIcon {
    private Shape shape = null;
    private GeneralPath generalPath = null;
    private Paint paint = null;
    private Stroke stroke = null;
    private Shape clip = null;
    private Stack<AffineTransform> transformsStack = new Stack<>();

    

	private void _paint0(Graphics2D g,float origAlpha) {
transformsStack.push(g.getTransform());
// 
g.setComposite(AlphaComposite.getInstance(3, 1.0f * origAlpha));
transformsStack.push(g.getTransform());
g.transform(new AffineTransform(1.0f, 0.0f, 0.0f, 1.0f, 0.0f, 0.0f));
// _0
g.setComposite(AlphaComposite.getInstance(3, 1.0f * origAlpha));
transformsStack.push(g.getTransform());
g.transform(new AffineTransform(1.0f, 0.0f, 0.0f, 1.0f, 0.0f, 0.0f));
// _0_0
shape = new Rectangle2D.Double(0.0, 0.0, 900.0, 600.0);
paint = new Color(0, 132, 61, 255);
g.setPaint(paint);
g.fill(shape);
g.setTransform(transformsStack.pop());
g.setComposite(AlphaComposite.getInstance(3, 1.0f * origAlpha));
transformsStack.push(g.getTransform());
g.transform(new AffineTransform(1.0f, 0.0f, 0.0f, 1.0f, 0.0f, 0.0f));
// _0_1
g.setComposite(AlphaComposite.getInstance(3, 1.0f * origAlpha));
transformsStack.push(g.getTransform());
g.transform(new AffineTransform(1.0f, 0.0f, 0.0f, 1.0f, 0.0f, 0.0f));
// _0_1_0
if (generalPath == null) {
   generalPath = new GeneralPath();
} else {
   generalPath.reset();
}
generalPath.moveTo(446.821, 66.5425);
generalPath.curveTo(473.4208, 77.962906, 492.0574, 104.39351, 492.0574, 135.1703);
generalPath.curveTo(492.0574, 176.3945, 458.6266, 209.82541, 417.4029, 209.82541);
generalPath.curveTo(398.94748, 209.82541, 382.0575, 203.12099, 369.0261, 192.02042);
generalPath.curveTo(377.0877, 195.47762, 385.8963, 197.56622, 395.17648, 197.97122);
generalPath.curveTo(436.36108, 199.76942, 471.2183, 167.82903, 473.0163, 126.644424);
generalPath.curveTo(474.06027, 102.73322, 463.72946, 80.956825, 446.8209, 66.542725);
generalPath.closePath();
shape = generalPath;
paint = new Color(255, 255, 255, 255);
g.setPaint(paint);
g.fill(shape);
g.setTransform(transformsStack.pop());
g.setComposite(AlphaComposite.getInstance(3, 1.0f * origAlpha));
transformsStack.push(g.getTransform());
g.transform(new AffineTransform(1.0f, 0.0f, 0.0f, 1.0f, 0.0f, 0.0f));
// _0_1_1
if (generalPath == null) {
   generalPath = new GeneralPath();
} else {
   generalPath.reset();
}
generalPath.moveTo(375.616, 121.42);
generalPath.lineTo(384.0742, 95.3872);
generalPath.lineTo(361.92938, 111.4762);
generalPath.lineTo(389.30197, 111.4762);
generalPath.lineTo(367.15717, 95.38719);
generalPath.closePath();
shape = generalPath;
paint = new Color(255, 255, 255, 255);
g.setPaint(paint);
g.fill(shape);
g.setTransform(transformsStack.pop());
g.setComposite(AlphaComposite.getInstance(3, 1.0f * origAlpha));
transformsStack.push(g.getTransform());
g.transform(new AffineTransform(1.0f, 0.0f, 0.0f, 1.0f, 0.0f, -38.40005111694336f));
// _0_1_2
g.setComposite(AlphaComposite.getInstance(3, 1.0f * origAlpha));
transformsStack.push(g.getTransform());
g.transform(new AffineTransform(1.0f, 0.0f, 0.0f, 1.0f, 0.0f, 0.0f));
// _0_1_2_0
if (generalPath == null) {
   generalPath = new GeneralPath();
} else {
   generalPath.reset();
}
generalPath.moveTo(375.616, 121.42);
generalPath.lineTo(384.0742, 95.3872);
generalPath.lineTo(361.92938, 111.4762);
generalPath.lineTo(389.30197, 111.4762);
generalPath.lineTo(367.15717, 95.38719);
generalPath.closePath();
shape = generalPath;
paint = new Color(255, 255, 255, 255);
g.setPaint(paint);
g.fill(shape);
g.setTransform(transformsStack.pop());
g.setTransform(transformsStack.pop());
g.setComposite(AlphaComposite.getInstance(3, 1.0f * origAlpha));
transformsStack.push(g.getTransform());
g.transform(new AffineTransform(1.0f, 0.0f, 0.0f, 1.0f, 37.936927795410156f, -18.7220516204834f));
// _0_1_3
g.setComposite(AlphaComposite.getInstance(3, 1.0f * origAlpha));
transformsStack.push(g.getTransform());
g.transform(new AffineTransform(1.0f, 0.0f, 0.0f, 1.0f, 0.0f, 0.0f));
// _0_1_3_0
if (generalPath == null) {
   generalPath = new GeneralPath();
} else {
   generalPath.reset();
}
generalPath.moveTo(375.616, 121.42);
generalPath.lineTo(384.0742, 95.3872);
generalPath.lineTo(361.92938, 111.4762);
generalPath.lineTo(389.30197, 111.4762);
generalPath.lineTo(367.15717, 95.38719);
generalPath.closePath();
shape = generalPath;
paint = new Color(255, 255, 255, 255);
g.setPaint(paint);
g.fill(shape);
g.setTransform(transformsStack.pop());
g.setTransform(transformsStack.pop());
g.setComposite(AlphaComposite.getInstance(3, 1.0f * origAlpha));
transformsStack.push(g.getTransform());
g.transform(new AffineTransform(1.0f, 0.0f, 0.0f, 1.0f, -37.936073303222656f, 18.721948623657227f));
// _0_1_4
g.setComposite(AlphaComposite.getInstance(3, 1.0f * origAlpha));
transformsStack.push(g.getTransform());
g.transform(new AffineTransform(1.0f, 0.0f, 0.0f, 1.0f, 0.0f, 0.0f));
// _0_1_4_0
if (generalPath == null) {
   generalPath = new GeneralPath();
} else {
   generalPath.reset();
}
generalPath.moveTo(375.616, 121.42);
generalPath.lineTo(384.0742, 95.3872);
generalPath.lineTo(361.92938, 111.4762);
generalPath.lineTo(389.30197, 111.4762);
generalPath.lineTo(367.15717, 95.38719);
generalPath.closePath();
shape = generalPath;
paint = new Color(255, 255, 255, 255);
g.setPaint(paint);
g.fill(shape);
g.setTransform(transformsStack.pop());
g.setTransform(transformsStack.pop());
g.setComposite(AlphaComposite.getInstance(3, 1.0f * origAlpha));
transformsStack.push(g.getTransform());
g.transform(new AffineTransform(1.0f, 0.0f, 0.0f, 1.0f, 0.0f, 38.39994812011719f));
// _0_1_5
g.setComposite(AlphaComposite.getInstance(3, 1.0f * origAlpha));
transformsStack.push(g.getTransform());
g.transform(new AffineTransform(1.0f, 0.0f, 0.0f, 1.0f, 0.0f, 0.0f));
// _0_1_5_0
if (generalPath == null) {
   generalPath = new GeneralPath();
} else {
   generalPath.reset();
}
generalPath.moveTo(375.616, 121.42);
generalPath.lineTo(384.0742, 95.3872);
generalPath.lineTo(361.92938, 111.4762);
generalPath.lineTo(389.30197, 111.4762);
generalPath.lineTo(367.15717, 95.38719);
generalPath.closePath();
shape = generalPath;
paint = new Color(255, 255, 255, 255);
g.setPaint(paint);
g.fill(shape);
g.setTransform(transformsStack.pop());
g.setTransform(transformsStack.pop());
g.setTransform(transformsStack.pop());
g.setComposite(AlphaComposite.getInstance(3, 1.0f * origAlpha));
transformsStack.push(g.getTransform());
g.transform(new AffineTransform(1.0f, 0.0f, 0.0f, 1.0f, 0.0f, 0.0f));
// _0_2
shape = new Rectangle2D.Double(107.99800109863281, 0.0, 162.0, 600.0);
paint = new Color(210, 38, 48, 255);
g.setPaint(paint);
g.fill(shape);
g.setTransform(transformsStack.pop());
g.setComposite(AlphaComposite.getInstance(3, 1.0f * origAlpha));
transformsStack.push(g.getTransform());
g.transform(new AffineTransform(1.0f, 0.0f, 0.0f, 1.0f, 0.0f, 0.0f));
// _0_3
g.setComposite(AlphaComposite.getInstance(3, 1.0f * origAlpha));
transformsStack.push(g.getTransform());
g.transform(new AffineTransform(1.0f, 0.0f, 0.0f, 1.0f, 0.0f, 0.0f));
// _0_3_0
if (generalPath == null) {
   generalPath = new GeneralPath();
} else {
   generalPath.reset();
}
generalPath.moveTo(107.998, -39.6189);
generalPath.lineTo(107.998, -33.73958);
generalPath.lineTo(117.10817, -25.212118);
generalPath.lineTo(114.03596, -22.351948);
generalPath.lineTo(120.55088, -16.313808);
generalPath.lineTo(117.69071, -13.718469);
generalPath.lineTo(117.69071, -17.47906);
generalPath.lineTo(112.12918, -17.47906);
generalPath.lineTo(112.12918, -12.976939);
generalPath.lineTo(124.68218, -1.2184391);
generalPath.lineTo(131.03812, -1.2184391);
generalPath.lineTo(131.72676, -5.349799);
generalPath.lineTo(128.072, -5.349799);
generalPath.lineTo(132.04439, -9.057429);
generalPath.lineTo(142.00201, -2.2888184E-4);
generalPath.lineTo(132.04439, 9.1099415);
generalPath.lineTo(128.072, 5.4023113);
generalPath.lineTo(131.72676, 5.4023113);
generalPath.lineTo(131.03812, 1.2179914);
generalPath.lineTo(124.682175, 1.2179914);
generalPath.lineTo(112.12917, 12.976591);
generalPath.lineTo(112.12917, 17.47871);
generalPath.lineTo(117.690704, 17.47871);
generalPath.lineTo(117.690704, 13.718121);
generalPath.lineTo(120.55087, 16.313461);
generalPath.lineTo(114.03595, 22.3516);
generalPath.lineTo(117.10816, 25.26465);
generalPath.lineTo(107.99799, 33.73923);
generalPath.lineTo(107.99799, 39.618553);
generalPath.lineTo(123.410995, 25.264652);
generalPath.lineTo(120.33896, 22.351603);
generalPath.lineTo(126.80083, 16.313463);
generalPath.lineTo(121.239296, 11.122784);
generalPath.lineTo(124.9471, 7.7329535);
generalPath.lineTo(132.04439, 14.300754);
generalPath.lineTo(147.6166, -4.673004E-5);
generalPath.lineTo(132.04439, -14.300847);
generalPath.lineTo(124.9471, -7.680087);
generalPath.lineTo(121.239296, -11.122887);
generalPath.lineTo(126.80083, -16.313566);
generalPath.lineTo(120.33896, -22.351706);
generalPath.lineTo(123.410995, -25.211876);
generalPath.lineTo(107.99799, -39.618675);
generalPath.closePath();
generalPath.moveTo(107.998, -11.070101);
generalPath.lineTo(107.998, 11.069698);
generalPath.lineTo(111.59969, 7.415038);
generalPath.lineTo(111.59969, 3.12485);
generalPath.lineTo(115.41325, 3.12485);
generalPath.lineTo(118.485115, -1.4996529E-4);
generalPath.lineTo(115.41325, -3.07218);
generalPath.lineTo(111.59969, -3.07218);
generalPath.lineTo(111.59969, -7.4154);
generalPath.lineTo(107.998, -11.07006);
generalPath.closePath();
generalPath.moveTo(134.2692, -3.2311206);
generalPath.lineTo(133.73936, -0.21205068);
generalPath.lineTo(134.2692, 2.8599794);
generalPath.lineTo(137.55293, -0.21205068);
generalPath.closePath();
shape = generalPath;
paint = new Color(56, 55, 57, 255);
g.setPaint(paint);
g.fill(shape);
g.setTransform(transformsStack.pop());
g.setComposite(AlphaComposite.getInstance(3, 1.0f * origAlpha));
transformsStack.push(g.getTransform());
g.transform(new AffineTransform(1.0f, 0.0f, 0.0f, 1.0f, 0.0f, 0.0f));
// _0_3_1
if (generalPath == null) {
   generalPath = new GeneralPath();
} else {
   generalPath.reset();
}
generalPath.moveTo(107.998, -38.9833);
generalPath.lineTo(107.998, -34.32228);
generalPath.lineTo(117.74376, -25.21211);
generalPath.lineTo(114.67156, -22.35194);
generalPath.lineTo(121.18647, -16.3138);
generalPath.lineTo(117.26698, -12.659141);
generalPath.lineTo(117.26698, -17.05533);
generalPath.lineTo(112.55291, -17.05533);
generalPath.lineTo(112.55291, -13.13584);
generalPath.lineTo(124.89411, -1.6422405);
generalPath.lineTo(130.61446, -1.6422405);
generalPath.lineTo(131.19699, -4.926141);
generalPath.lineTo(126.9597, -4.926141);
generalPath.lineTo(132.04445, -9.69309);
generalPath.lineTo(142.63765, -2.9087067E-4);
generalPath.lineTo(132.04445, 9.692509);
generalPath.lineTo(126.9597, 4.9785285);
generalPath.lineTo(131.19699, 4.9785285);
generalPath.lineTo(130.61299, 1.6416686);
generalPath.lineTo(124.892654, 1.6416686);
generalPath.lineTo(112.55145, 13.135268);
generalPath.lineTo(112.55145, 17.054758);
generalPath.lineTo(117.265526, 17.054758);
generalPath.lineTo(117.265526, 12.658567);
generalPath.lineTo(121.18501, 16.313227);
generalPath.lineTo(114.670105, 22.351366);
generalPath.lineTo(117.7423, 25.264416);
generalPath.lineTo(107.996544, 34.321705);
generalPath.lineTo(107.996544, 38.982723);
generalPath.lineTo(122.77394, 25.264423);
generalPath.lineTo(119.70191, 22.351374);
generalPath.lineTo(126.16378, 16.313234);
generalPath.lineTo(120.60225, 11.122555);
generalPath.lineTo(124.94564, 7.0971346);
generalPath.lineTo(132.04294, 13.717895);
generalPath.lineTo(146.92654, -3.0517578E-4);
generalPath.lineTo(132.04294, -13.718505);
generalPath.lineTo(124.94565, -7.097745);
generalPath.lineTo(120.60226, -11.123165);
generalPath.lineTo(126.16379, -16.313845);
generalPath.lineTo(119.70192, -22.351984);
generalPath.lineTo(122.77395, -25.212154);
generalPath.lineTo(107.99655, -38.983353);
generalPath.closePath();
generalPath.moveTo(107.998, -10.4345);
generalPath.lineTo(107.998, 10.434101);
generalPath.lineTo(111.175964, 7.256131);
generalPath.lineTo(111.175964, 2.64815);
generalPath.lineTo(115.25427, 2.64815);
generalPath.lineTo(117.90257, -1.5997887E-4);
generalPath.lineTo(115.25427, -2.64847);
generalPath.lineTo(111.175964, -2.64847);
generalPath.lineTo(111.175964, -7.25652);
generalPath.lineTo(107.998, -10.43449);
generalPath.closePath();
generalPath.moveTo(134.5868, -2.3836498);
generalPath.lineTo(134.21613, -0.21203971);
generalPath.lineTo(134.5868, 1.9595704);
generalPath.lineTo(136.91731, -0.21203971);
generalPath.closePath();
shape = generalPath;
paint = new Color(255, 199, 44, 255);
g.setPaint(paint);
g.fill(shape);
g.setTransform(transformsStack.pop());
g.setTransform(transformsStack.pop());
g.setComposite(AlphaComposite.getInstance(3, 1.0f * origAlpha));
transformsStack.push(g.getTransform());
g.transform(new AffineTransform(1.0f, 0.0f, 0.0f, 1.0f, 0.0f, 109.206787109375f));
// _0_4
g.setComposite(AlphaComposite.getInstance(3, 1.0f * origAlpha));
transformsStack.push(g.getTransform());
g.transform(new AffineTransform(1.0f, 0.0f, 0.0f, 1.0f, 0.0f, 0.0f));
// _0_4_0
g.setComposite(AlphaComposite.getInstance(3, 1.0f * origAlpha));
transformsStack.push(g.getTransform());
g.transform(new AffineTransform(1.0f, 0.0f, 0.0f, 1.0f, 0.0f, 0.0f));
// _0_4_0_0
if (generalPath == null) {
   generalPath = new GeneralPath();
} else {
   generalPath.reset();
}
generalPath.moveTo(107.998, -39.6189);
generalPath.lineTo(107.998, -33.73958);
generalPath.lineTo(117.10817, -25.212118);
generalPath.lineTo(114.03596, -22.351948);
generalPath.lineTo(120.55088, -16.313808);
generalPath.lineTo(117.69071, -13.718469);
generalPath.lineTo(117.69071, -17.47906);
generalPath.lineTo(112.12918, -17.47906);
generalPath.lineTo(112.12918, -12.976939);
generalPath.lineTo(124.68218, -1.2184391);
generalPath.lineTo(131.03812, -1.2184391);
generalPath.lineTo(131.72676, -5.349799);
generalPath.lineTo(128.072, -5.349799);
generalPath.lineTo(132.04439, -9.057429);
generalPath.lineTo(142.00201, -2.2888184E-4);
generalPath.lineTo(132.04439, 9.1099415);
generalPath.lineTo(128.072, 5.4023113);
generalPath.lineTo(131.72676, 5.4023113);
generalPath.lineTo(131.03812, 1.2179914);
generalPath.lineTo(124.682175, 1.2179914);
generalPath.lineTo(112.12917, 12.976591);
generalPath.lineTo(112.12917, 17.47871);
generalPath.lineTo(117.690704, 17.47871);
generalPath.lineTo(117.690704, 13.718121);
generalPath.lineTo(120.55087, 16.313461);
generalPath.lineTo(114.03595, 22.3516);
generalPath.lineTo(117.10816, 25.26465);
generalPath.lineTo(107.99799, 33.73923);
generalPath.lineTo(107.99799, 39.618553);
generalPath.lineTo(123.410995, 25.264652);
generalPath.lineTo(120.33896, 22.351603);
generalPath.lineTo(126.80083, 16.313463);
generalPath.lineTo(121.239296, 11.122784);
generalPath.lineTo(124.9471, 7.7329535);
generalPath.lineTo(132.04439, 14.300754);
generalPath.lineTo(147.6166, -4.673004E-5);
generalPath.lineTo(132.04439, -14.300847);
generalPath.lineTo(124.9471, -7.680087);
generalPath.lineTo(121.239296, -11.122887);
generalPath.lineTo(126.80083, -16.313566);
generalPath.lineTo(120.33896, -22.351706);
generalPath.lineTo(123.410995, -25.211876);
generalPath.lineTo(107.99799, -39.618675);
generalPath.closePath();
generalPath.moveTo(107.998, -11.070101);
generalPath.lineTo(107.998, 11.069698);
generalPath.lineTo(111.59969, 7.415038);
generalPath.lineTo(111.59969, 3.12485);
generalPath.lineTo(115.41325, 3.12485);
generalPath.lineTo(118.485115, -1.4996529E-4);
generalPath.lineTo(115.41325, -3.07218);
generalPath.lineTo(111.59969, -3.07218);
generalPath.lineTo(111.59969, -7.4154);
generalPath.lineTo(107.998, -11.07006);
generalPath.closePath();
generalPath.moveTo(134.2692, -3.2311206);
generalPath.lineTo(133.73936, -0.21205068);
generalPath.lineTo(134.2692, 2.8599794);
generalPath.lineTo(137.55293, -0.21205068);
generalPath.closePath();
shape = generalPath;
paint = new Color(56, 55, 57, 255);
g.setPaint(paint);
g.fill(shape);
g.setTransform(transformsStack.pop());
g.setComposite(AlphaComposite.getInstance(3, 1.0f * origAlpha));
transformsStack.push(g.getTransform());
g.transform(new AffineTransform(1.0f, 0.0f, 0.0f, 1.0f, 0.0f, 0.0f));
// _0_4_0_1
if (generalPath == null) {
   generalPath = new GeneralPath();
} else {
   generalPath.reset();
}
generalPath.moveTo(107.998, -38.9833);
generalPath.lineTo(107.998, -34.32228);
generalPath.lineTo(117.74376, -25.21211);
generalPath.lineTo(114.67156, -22.35194);
generalPath.lineTo(121.18647, -16.3138);
generalPath.lineTo(117.26698, -12.659141);
generalPath.lineTo(117.26698, -17.05533);
generalPath.lineTo(112.55291, -17.05533);
generalPath.lineTo(112.55291, -13.13584);
generalPath.lineTo(124.89411, -1.6422405);
generalPath.lineTo(130.61446, -1.6422405);
generalPath.lineTo(131.19699, -4.926141);
generalPath.lineTo(126.9597, -4.926141);
generalPath.lineTo(132.04445, -9.69309);
generalPath.lineTo(142.63765, -2.9087067E-4);
generalPath.lineTo(132.04445, 9.692509);
generalPath.lineTo(126.9597, 4.9785285);
generalPath.lineTo(131.19699, 4.9785285);
generalPath.lineTo(130.61299, 1.6416686);
generalPath.lineTo(124.892654, 1.6416686);
generalPath.lineTo(112.55145, 13.135268);
generalPath.lineTo(112.55145, 17.054758);
generalPath.lineTo(117.265526, 17.054758);
generalPath.lineTo(117.265526, 12.658567);
generalPath.lineTo(121.18501, 16.313227);
generalPath.lineTo(114.670105, 22.351366);
generalPath.lineTo(117.7423, 25.264416);
generalPath.lineTo(107.996544, 34.321705);
generalPath.lineTo(107.996544, 38.982723);
generalPath.lineTo(122.77394, 25.264423);
generalPath.lineTo(119.70191, 22.351374);
generalPath.lineTo(126.16378, 16.313234);
generalPath.lineTo(120.60225, 11.122555);
generalPath.lineTo(124.94564, 7.0971346);
generalPath.lineTo(132.04294, 13.717895);
generalPath.lineTo(146.92654, -3.0517578E-4);
generalPath.lineTo(132.04294, -13.718505);
generalPath.lineTo(124.94565, -7.097745);
generalPath.lineTo(120.60226, -11.123165);
generalPath.lineTo(126.16379, -16.313845);
generalPath.lineTo(119.70192, -22.351984);
generalPath.lineTo(122.77395, -25.212154);
generalPath.lineTo(107.99655, -38.983353);
generalPath.closePath();
generalPath.moveTo(107.998, -10.4345);
generalPath.lineTo(107.998, 10.434101);
generalPath.lineTo(111.175964, 7.256131);
generalPath.lineTo(111.175964, 2.64815);
generalPath.lineTo(115.25427, 2.64815);
generalPath.lineTo(117.90257, -1.5997887E-4);
generalPath.lineTo(115.25427, -2.64847);
generalPath.lineTo(111.175964, -2.64847);
generalPath.lineTo(111.175964, -7.25652);
generalPath.lineTo(107.998, -10.43449);
generalPath.closePath();
generalPath.moveTo(134.5868, -2.3836498);
generalPath.lineTo(134.21613, -0.21203971);
generalPath.lineTo(134.5868, 1.9595704);
generalPath.lineTo(136.91731, -0.21203971);
generalPath.closePath();
shape = generalPath;
paint = new Color(255, 199, 44, 255);
g.setPaint(paint);
g.fill(shape);
g.setTransform(transformsStack.pop());
g.setTransform(transformsStack.pop());
g.setTransform(transformsStack.pop());
g.setComposite(AlphaComposite.getInstance(3, 1.0f * origAlpha));
transformsStack.push(g.getTransform());
g.transform(new AffineTransform(1.0f, 0.0f, 0.0f, 1.0f, 0.0f, 222.00509643554688f));
// _0_5
g.setComposite(AlphaComposite.getInstance(3, 1.0f * origAlpha));
transformsStack.push(g.getTransform());
g.transform(new AffineTransform(1.0f, 0.0f, 0.0f, 1.0f, 0.0f, 0.0f));
// _0_5_0
g.setComposite(AlphaComposite.getInstance(3, 1.0f * origAlpha));
transformsStack.push(g.getTransform());
g.transform(new AffineTransform(1.0f, 0.0f, 0.0f, 1.0f, 0.0f, 0.0f));
// _0_5_0_0
if (generalPath == null) {
   generalPath = new GeneralPath();
} else {
   generalPath.reset();
}
generalPath.moveTo(107.998, -39.6189);
generalPath.lineTo(107.998, -33.73958);
generalPath.lineTo(117.10817, -25.212118);
generalPath.lineTo(114.03596, -22.351948);
generalPath.lineTo(120.55088, -16.313808);
generalPath.lineTo(117.69071, -13.718469);
generalPath.lineTo(117.69071, -17.47906);
generalPath.lineTo(112.12918, -17.47906);
generalPath.lineTo(112.12918, -12.976939);
generalPath.lineTo(124.68218, -1.2184391);
generalPath.lineTo(131.03812, -1.2184391);
generalPath.lineTo(131.72676, -5.349799);
generalPath.lineTo(128.072, -5.349799);
generalPath.lineTo(132.04439, -9.057429);
generalPath.lineTo(142.00201, -2.2888184E-4);
generalPath.lineTo(132.04439, 9.1099415);
generalPath.lineTo(128.072, 5.4023113);
generalPath.lineTo(131.72676, 5.4023113);
generalPath.lineTo(131.03812, 1.2179914);
generalPath.lineTo(124.682175, 1.2179914);
generalPath.lineTo(112.12917, 12.976591);
generalPath.lineTo(112.12917, 17.47871);
generalPath.lineTo(117.690704, 17.47871);
generalPath.lineTo(117.690704, 13.718121);
generalPath.lineTo(120.55087, 16.313461);
generalPath.lineTo(114.03595, 22.3516);
generalPath.lineTo(117.10816, 25.26465);
generalPath.lineTo(107.99799, 33.73923);
generalPath.lineTo(107.99799, 39.618553);
generalPath.lineTo(123.410995, 25.264652);
generalPath.lineTo(120.33896, 22.351603);
generalPath.lineTo(126.80083, 16.313463);
generalPath.lineTo(121.239296, 11.122784);
generalPath.lineTo(124.9471, 7.7329535);
generalPath.lineTo(132.04439, 14.300754);
generalPath.lineTo(147.6166, -4.673004E-5);
generalPath.lineTo(132.04439, -14.300847);
generalPath.lineTo(124.9471, -7.680087);
generalPath.lineTo(121.239296, -11.122887);
generalPath.lineTo(126.80083, -16.313566);
generalPath.lineTo(120.33896, -22.351706);
generalPath.lineTo(123.410995, -25.211876);
generalPath.lineTo(107.99799, -39.618675);
generalPath.closePath();
generalPath.moveTo(107.998, -11.070101);
generalPath.lineTo(107.998, 11.069698);
generalPath.lineTo(111.59969, 7.415038);
generalPath.lineTo(111.59969, 3.12485);
generalPath.lineTo(115.41325, 3.12485);
generalPath.lineTo(118.485115, -1.4996529E-4);
generalPath.lineTo(115.41325, -3.07218);
generalPath.lineTo(111.59969, -3.07218);
generalPath.lineTo(111.59969, -7.4154);
generalPath.lineTo(107.998, -11.07006);
generalPath.closePath();
generalPath.moveTo(134.2692, -3.2311206);
generalPath.lineTo(133.73936, -0.21205068);
generalPath.lineTo(134.2692, 2.8599794);
generalPath.lineTo(137.55293, -0.21205068);
generalPath.closePath();
shape = generalPath;
paint = new Color(56, 55, 57, 255);
g.setPaint(paint);
g.fill(shape);
g.setTransform(transformsStack.pop());
g.setComposite(AlphaComposite.getInstance(3, 1.0f * origAlpha));
transformsStack.push(g.getTransform());
g.transform(new AffineTransform(1.0f, 0.0f, 0.0f, 1.0f, 0.0f, 0.0f));
// _0_5_0_1
if (generalPath == null) {
   generalPath = new GeneralPath();
} else {
   generalPath.reset();
}
generalPath.moveTo(107.998, -38.9833);
generalPath.lineTo(107.998, -34.32228);
generalPath.lineTo(117.74376, -25.21211);
generalPath.lineTo(114.67156, -22.35194);
generalPath.lineTo(121.18647, -16.3138);
generalPath.lineTo(117.26698, -12.659141);
generalPath.lineTo(117.26698, -17.05533);
generalPath.lineTo(112.55291, -17.05533);
generalPath.lineTo(112.55291, -13.13584);
generalPath.lineTo(124.89411, -1.6422405);
generalPath.lineTo(130.61446, -1.6422405);
generalPath.lineTo(131.19699, -4.926141);
generalPath.lineTo(126.9597, -4.926141);
generalPath.lineTo(132.04445, -9.69309);
generalPath.lineTo(142.63765, -2.9087067E-4);
generalPath.lineTo(132.04445, 9.692509);
generalPath.lineTo(126.9597, 4.9785285);
generalPath.lineTo(131.19699, 4.9785285);
generalPath.lineTo(130.61299, 1.6416686);
generalPath.lineTo(124.892654, 1.6416686);
generalPath.lineTo(112.55145, 13.135268);
generalPath.lineTo(112.55145, 17.054758);
generalPath.lineTo(117.265526, 17.054758);
generalPath.lineTo(117.265526, 12.658567);
generalPath.lineTo(121.18501, 16.313227);
generalPath.lineTo(114.670105, 22.351366);
generalPath.lineTo(117.7423, 25.264416);
generalPath.lineTo(107.996544, 34.321705);
generalPath.lineTo(107.996544, 38.982723);
generalPath.lineTo(122.77394, 25.264423);
generalPath.lineTo(119.70191, 22.351374);
generalPath.lineTo(126.16378, 16.313234);
generalPath.lineTo(120.60225, 11.122555);
generalPath.lineTo(124.94564, 7.0971346);
generalPath.lineTo(132.04294, 13.717895);
generalPath.lineTo(146.92654, -3.0517578E-4);
generalPath.lineTo(132.04294, -13.718505);
generalPath.lineTo(124.94565, -7.097745);
generalPath.lineTo(120.60226, -11.123165);
generalPath.lineTo(126.16379, -16.313845);
generalPath.lineTo(119.70192, -22.351984);
generalPath.lineTo(122.77395, -25.212154);
generalPath.lineTo(107.99655, -38.983353);
generalPath.closePath();
generalPath.moveTo(107.998, -10.4345);
generalPath.lineTo(107.998, 10.434101);
generalPath.lineTo(111.175964, 7.256131);
generalPath.lineTo(111.175964, 2.64815);
generalPath.lineTo(115.25427, 2.64815);
generalPath.lineTo(117.90257, -1.5997887E-4);
generalPath.lineTo(115.25427, -2.64847);
generalPath.lineTo(111.175964, -2.64847);
generalPath.lineTo(111.175964, -7.25652);
generalPath.lineTo(107.998, -10.43449);
generalPath.closePath();
generalPath.moveTo(134.5868, -2.3836498);
generalPath.lineTo(134.21613, -0.21203971);
generalPath.lineTo(134.5868, 1.9595704);
generalPath.lineTo(136.91731, -0.21203971);
generalPath.closePath();
shape = generalPath;
paint = new Color(255, 199, 44, 255);
g.setPaint(paint);
g.fill(shape);
g.setTransform(transformsStack.pop());
g.setTransform(transformsStack.pop());
g.setTransform(transformsStack.pop());
g.setComposite(AlphaComposite.getInstance(3, 1.0f * origAlpha));
transformsStack.push(g.getTransform());
g.transform(new AffineTransform(1.0f, 0.0f, 0.0f, 1.0f, 0.0f, 334.8017272949219f));
// _0_6
g.setComposite(AlphaComposite.getInstance(3, 1.0f * origAlpha));
transformsStack.push(g.getTransform());
g.transform(new AffineTransform(1.0f, 0.0f, 0.0f, 1.0f, 0.0f, 0.0f));
// _0_6_0
g.setComposite(AlphaComposite.getInstance(3, 1.0f * origAlpha));
transformsStack.push(g.getTransform());
g.transform(new AffineTransform(1.0f, 0.0f, 0.0f, 1.0f, 0.0f, 0.0f));
// _0_6_0_0
if (generalPath == null) {
   generalPath = new GeneralPath();
} else {
   generalPath.reset();
}
generalPath.moveTo(107.998, -39.6189);
generalPath.lineTo(107.998, -33.73958);
generalPath.lineTo(117.10817, -25.212118);
generalPath.lineTo(114.03596, -22.351948);
generalPath.lineTo(120.55088, -16.313808);
generalPath.lineTo(117.69071, -13.718469);
generalPath.lineTo(117.69071, -17.47906);
generalPath.lineTo(112.12918, -17.47906);
generalPath.lineTo(112.12918, -12.976939);
generalPath.lineTo(124.68218, -1.2184391);
generalPath.lineTo(131.03812, -1.2184391);
generalPath.lineTo(131.72676, -5.349799);
generalPath.lineTo(128.072, -5.349799);
generalPath.lineTo(132.04439, -9.057429);
generalPath.lineTo(142.00201, -2.2888184E-4);
generalPath.lineTo(132.04439, 9.1099415);
generalPath.lineTo(128.072, 5.4023113);
generalPath.lineTo(131.72676, 5.4023113);
generalPath.lineTo(131.03812, 1.2179914);
generalPath.lineTo(124.682175, 1.2179914);
generalPath.lineTo(112.12917, 12.976591);
generalPath.lineTo(112.12917, 17.47871);
generalPath.lineTo(117.690704, 17.47871);
generalPath.lineTo(117.690704, 13.718121);
generalPath.lineTo(120.55087, 16.313461);
generalPath.lineTo(114.03595, 22.3516);
generalPath.lineTo(117.10816, 25.26465);
generalPath.lineTo(107.99799, 33.73923);
generalPath.lineTo(107.99799, 39.618553);
generalPath.lineTo(123.410995, 25.264652);
generalPath.lineTo(120.33896, 22.351603);
generalPath.lineTo(126.80083, 16.313463);
generalPath.lineTo(121.239296, 11.122784);
generalPath.lineTo(124.9471, 7.7329535);
generalPath.lineTo(132.04439, 14.300754);
generalPath.lineTo(147.6166, -4.673004E-5);
generalPath.lineTo(132.04439, -14.300847);
generalPath.lineTo(124.9471, -7.680087);
generalPath.lineTo(121.239296, -11.122887);
generalPath.lineTo(126.80083, -16.313566);
generalPath.lineTo(120.33896, -22.351706);
generalPath.lineTo(123.410995, -25.211876);
generalPath.lineTo(107.99799, -39.618675);
generalPath.closePath();
generalPath.moveTo(107.998, -11.070101);
generalPath.lineTo(107.998, 11.069698);
generalPath.lineTo(111.59969, 7.415038);
generalPath.lineTo(111.59969, 3.12485);
generalPath.lineTo(115.41325, 3.12485);
generalPath.lineTo(118.485115, -1.4996529E-4);
generalPath.lineTo(115.41325, -3.07218);
generalPath.lineTo(111.59969, -3.07218);
generalPath.lineTo(111.59969, -7.4154);
generalPath.lineTo(107.998, -11.07006);
generalPath.closePath();
generalPath.moveTo(134.2692, -3.2311206);
generalPath.lineTo(133.73936, -0.21205068);
generalPath.lineTo(134.2692, 2.8599794);
generalPath.lineTo(137.55293, -0.21205068);
generalPath.closePath();
shape = generalPath;
paint = new Color(56, 55, 57, 255);
g.setPaint(paint);
g.fill(shape);
g.setTransform(transformsStack.pop());
g.setComposite(AlphaComposite.getInstance(3, 1.0f * origAlpha));
transformsStack.push(g.getTransform());
g.transform(new AffineTransform(1.0f, 0.0f, 0.0f, 1.0f, 0.0f, 0.0f));
// _0_6_0_1
if (generalPath == null) {
   generalPath = new GeneralPath();
} else {
   generalPath.reset();
}
generalPath.moveTo(107.998, -38.9833);
generalPath.lineTo(107.998, -34.32228);
generalPath.lineTo(117.74376, -25.21211);
generalPath.lineTo(114.67156, -22.35194);
generalPath.lineTo(121.18647, -16.3138);
generalPath.lineTo(117.26698, -12.659141);
generalPath.lineTo(117.26698, -17.05533);
generalPath.lineTo(112.55291, -17.05533);
generalPath.lineTo(112.55291, -13.13584);
generalPath.lineTo(124.89411, -1.6422405);
generalPath.lineTo(130.61446, -1.6422405);
generalPath.lineTo(131.19699, -4.926141);
generalPath.lineTo(126.9597, -4.926141);
generalPath.lineTo(132.04445, -9.69309);
generalPath.lineTo(142.63765, -2.9087067E-4);
generalPath.lineTo(132.04445, 9.692509);
generalPath.lineTo(126.9597, 4.9785285);
generalPath.lineTo(131.19699, 4.9785285);
generalPath.lineTo(130.61299, 1.6416686);
generalPath.lineTo(124.892654, 1.6416686);
generalPath.lineTo(112.55145, 13.135268);
generalPath.lineTo(112.55145, 17.054758);
generalPath.lineTo(117.265526, 17.054758);
generalPath.lineTo(117.265526, 12.658567);
generalPath.lineTo(121.18501, 16.313227);
generalPath.lineTo(114.670105, 22.351366);
generalPath.lineTo(117.7423, 25.264416);
generalPath.lineTo(107.996544, 34.321705);
generalPath.lineTo(107.996544, 38.982723);
generalPath.lineTo(122.77394, 25.264423);
generalPath.lineTo(119.70191, 22.351374);
generalPath.lineTo(126.16378, 16.313234);
generalPath.lineTo(120.60225, 11.122555);
generalPath.lineTo(124.94564, 7.0971346);
generalPath.lineTo(132.04294, 13.717895);
generalPath.lineTo(146.92654, -3.0517578E-4);
generalPath.lineTo(132.04294, -13.718505);
generalPath.lineTo(124.94565, -7.097745);
generalPath.lineTo(120.60226, -11.123165);
generalPath.lineTo(126.16379, -16.313845);
generalPath.lineTo(119.70192, -22.351984);
generalPath.lineTo(122.77395, -25.212154);
generalPath.lineTo(107.99655, -38.983353);
generalPath.closePath();
generalPath.moveTo(107.998, -10.4345);
generalPath.lineTo(107.998, 10.434101);
generalPath.lineTo(111.175964, 7.256131);
generalPath.lineTo(111.175964, 2.64815);
generalPath.lineTo(115.25427, 2.64815);
generalPath.lineTo(117.90257, -1.5997887E-4);
generalPath.lineTo(115.25427, -2.64847);
generalPath.lineTo(111.175964, -2.64847);
generalPath.lineTo(111.175964, -7.25652);
generalPath.lineTo(107.998, -10.43449);
generalPath.closePath();
generalPath.moveTo(134.5868, -2.3836498);
generalPath.lineTo(134.21613, -0.21203971);
generalPath.lineTo(134.5868, 1.9595704);
generalPath.lineTo(136.91731, -0.21203971);
generalPath.closePath();
shape = generalPath;
paint = new Color(255, 199, 44, 255);
g.setPaint(paint);
g.fill(shape);
g.setTransform(transformsStack.pop());
g.setTransform(transformsStack.pop());
g.setTransform(transformsStack.pop());
g.setComposite(AlphaComposite.getInstance(3, 1.0f * origAlpha));
transformsStack.push(g.getTransform());
g.transform(new AffineTransform(1.0f, 0.0f, 0.0f, 1.0f, 0.0f, 447.5983581542969f));
// _0_7
g.setComposite(AlphaComposite.getInstance(3, 1.0f * origAlpha));
transformsStack.push(g.getTransform());
g.transform(new AffineTransform(1.0f, 0.0f, 0.0f, 1.0f, 0.0f, 0.0f));
// _0_7_0
g.setComposite(AlphaComposite.getInstance(3, 1.0f * origAlpha));
transformsStack.push(g.getTransform());
g.transform(new AffineTransform(1.0f, 0.0f, 0.0f, 1.0f, 0.0f, 0.0f));
// _0_7_0_0
if (generalPath == null) {
   generalPath = new GeneralPath();
} else {
   generalPath.reset();
}
generalPath.moveTo(107.998, -39.6189);
generalPath.lineTo(107.998, -33.73958);
generalPath.lineTo(117.10817, -25.212118);
generalPath.lineTo(114.03596, -22.351948);
generalPath.lineTo(120.55088, -16.313808);
generalPath.lineTo(117.69071, -13.718469);
generalPath.lineTo(117.69071, -17.47906);
generalPath.lineTo(112.12918, -17.47906);
generalPath.lineTo(112.12918, -12.976939);
generalPath.lineTo(124.68218, -1.2184391);
generalPath.lineTo(131.03812, -1.2184391);
generalPath.lineTo(131.72676, -5.349799);
generalPath.lineTo(128.072, -5.349799);
generalPath.lineTo(132.04439, -9.057429);
generalPath.lineTo(142.00201, -2.2888184E-4);
generalPath.lineTo(132.04439, 9.1099415);
generalPath.lineTo(128.072, 5.4023113);
generalPath.lineTo(131.72676, 5.4023113);
generalPath.lineTo(131.03812, 1.2179914);
generalPath.lineTo(124.682175, 1.2179914);
generalPath.lineTo(112.12917, 12.976591);
generalPath.lineTo(112.12917, 17.47871);
generalPath.lineTo(117.690704, 17.47871);
generalPath.lineTo(117.690704, 13.718121);
generalPath.lineTo(120.55087, 16.313461);
generalPath.lineTo(114.03595, 22.3516);
generalPath.lineTo(117.10816, 25.26465);
generalPath.lineTo(107.99799, 33.73923);
generalPath.lineTo(107.99799, 39.618553);
generalPath.lineTo(123.410995, 25.264652);
generalPath.lineTo(120.33896, 22.351603);
generalPath.lineTo(126.80083, 16.313463);
generalPath.lineTo(121.239296, 11.122784);
generalPath.lineTo(124.9471, 7.7329535);
generalPath.lineTo(132.04439, 14.300754);
generalPath.lineTo(147.6166, -4.673004E-5);
generalPath.lineTo(132.04439, -14.300847);
generalPath.lineTo(124.9471, -7.680087);
generalPath.lineTo(121.239296, -11.122887);
generalPath.lineTo(126.80083, -16.313566);
generalPath.lineTo(120.33896, -22.351706);
generalPath.lineTo(123.410995, -25.211876);
generalPath.lineTo(107.99799, -39.618675);
generalPath.closePath();
generalPath.moveTo(107.998, -11.070101);
generalPath.lineTo(107.998, 11.069698);
generalPath.lineTo(111.59969, 7.415038);
generalPath.lineTo(111.59969, 3.12485);
generalPath.lineTo(115.41325, 3.12485);
generalPath.lineTo(118.485115, -1.4996529E-4);
generalPath.lineTo(115.41325, -3.07218);
generalPath.lineTo(111.59969, -3.07218);
generalPath.lineTo(111.59969, -7.4154);
generalPath.lineTo(107.998, -11.07006);
generalPath.closePath();
generalPath.moveTo(134.2692, -3.2311206);
generalPath.lineTo(133.73936, -0.21205068);
generalPath.lineTo(134.2692, 2.8599794);
generalPath.lineTo(137.55293, -0.21205068);
generalPath.closePath();
shape = generalPath;
paint = new Color(56, 55, 57, 255);
g.setPaint(paint);
g.fill(shape);
g.setTransform(transformsStack.pop());
g.setComposite(AlphaComposite.getInstance(3, 1.0f * origAlpha));
transformsStack.push(g.getTransform());
g.transform(new AffineTransform(1.0f, 0.0f, 0.0f, 1.0f, 0.0f, 0.0f));
// _0_7_0_1
if (generalPath == null) {
   generalPath = new GeneralPath();
} else {
   generalPath.reset();
}
generalPath.moveTo(107.998, -38.9833);
generalPath.lineTo(107.998, -34.32228);
generalPath.lineTo(117.74376, -25.21211);
generalPath.lineTo(114.67156, -22.35194);
generalPath.lineTo(121.18647, -16.3138);
generalPath.lineTo(117.26698, -12.659141);
generalPath.lineTo(117.26698, -17.05533);
generalPath.lineTo(112.55291, -17.05533);
generalPath.lineTo(112.55291, -13.13584);
generalPath.lineTo(124.89411, -1.6422405);
generalPath.lineTo(130.61446, -1.6422405);
generalPath.lineTo(131.19699, -4.926141);
generalPath.lineTo(126.9597, -4.926141);
generalPath.lineTo(132.04445, -9.69309);
generalPath.lineTo(142.63765, -2.9087067E-4);
generalPath.lineTo(132.04445, 9.692509);
generalPath.lineTo(126.9597, 4.9785285);
generalPath.lineTo(131.19699, 4.9785285);
generalPath.lineTo(130.61299, 1.6416686);
generalPath.lineTo(124.892654, 1.6416686);
generalPath.lineTo(112.55145, 13.135268);
generalPath.lineTo(112.55145, 17.054758);
generalPath.lineTo(117.265526, 17.054758);
generalPath.lineTo(117.265526, 12.658567);
generalPath.lineTo(121.18501, 16.313227);
generalPath.lineTo(114.670105, 22.351366);
generalPath.lineTo(117.7423, 25.264416);
generalPath.lineTo(107.996544, 34.321705);
generalPath.lineTo(107.996544, 38.982723);
generalPath.lineTo(122.77394, 25.264423);
generalPath.lineTo(119.70191, 22.351374);
generalPath.lineTo(126.16378, 16.313234);
generalPath.lineTo(120.60225, 11.122555);
generalPath.lineTo(124.94564, 7.0971346);
generalPath.lineTo(132.04294, 13.717895);
generalPath.lineTo(146.92654, -3.0517578E-4);
generalPath.lineTo(132.04294, -13.718505);
generalPath.lineTo(124.94565, -7.097745);
generalPath.lineTo(120.60226, -11.123165);
generalPath.lineTo(126.16379, -16.313845);
generalPath.lineTo(119.70192, -22.351984);
generalPath.lineTo(122.77395, -25.212154);
generalPath.lineTo(107.99655, -38.983353);
generalPath.closePath();
generalPath.moveTo(107.998, -10.4345);
generalPath.lineTo(107.998, 10.434101);
generalPath.lineTo(111.175964, 7.256131);
generalPath.lineTo(111.175964, 2.64815);
generalPath.lineTo(115.25427, 2.64815);
generalPath.lineTo(117.90257, -1.5997887E-4);
generalPath.lineTo(115.25427, -2.64847);
generalPath.lineTo(111.175964, -2.64847);
generalPath.lineTo(111.175964, -7.25652);
generalPath.lineTo(107.998, -10.43449);
generalPath.closePath();
generalPath.moveTo(134.5868, -2.3836498);
generalPath.lineTo(134.21613, -0.21203971);
generalPath.lineTo(134.5868, 1.9595704);
generalPath.lineTo(136.91731, -0.21203971);
generalPath.closePath();
shape = generalPath;
paint = new Color(255, 199, 44, 255);
g.setPaint(paint);
g.fill(shape);
g.setTransform(transformsStack.pop());
g.setTransform(transformsStack.pop());
g.setTransform(transformsStack.pop());
g.setComposite(AlphaComposite.getInstance(3, 1.0f * origAlpha));
transformsStack.push(g.getTransform());
g.transform(new AffineTransform(-1.0f, 0.0f, 0.0f, 1.0f, 377.9959716796875f, 0.0f));
// _0_8
g.setComposite(AlphaComposite.getInstance(3, 1.0f * origAlpha));
transformsStack.push(g.getTransform());
g.transform(new AffineTransform(1.0f, 0.0f, 0.0f, 1.0f, 0.0f, 0.0f));
// _0_8_0
g.setComposite(AlphaComposite.getInstance(3, 1.0f * origAlpha));
transformsStack.push(g.getTransform());
g.transform(new AffineTransform(1.0f, 0.0f, 0.0f, 1.0f, 0.0f, 0.0f));
// _0_8_0_0
if (generalPath == null) {
   generalPath = new GeneralPath();
} else {
   generalPath.reset();
}
generalPath.moveTo(107.998, -39.6189);
generalPath.lineTo(107.998, -33.73958);
generalPath.lineTo(117.10817, -25.212118);
generalPath.lineTo(114.03596, -22.351948);
generalPath.lineTo(120.55088, -16.313808);
generalPath.lineTo(117.69071, -13.718469);
generalPath.lineTo(117.69071, -17.47906);
generalPath.lineTo(112.12918, -17.47906);
generalPath.lineTo(112.12918, -12.976939);
generalPath.lineTo(124.68218, -1.2184391);
generalPath.lineTo(131.03812, -1.2184391);
generalPath.lineTo(131.72676, -5.349799);
generalPath.lineTo(128.072, -5.349799);
generalPath.lineTo(132.04439, -9.057429);
generalPath.lineTo(142.00201, -2.2888184E-4);
generalPath.lineTo(132.04439, 9.1099415);
generalPath.lineTo(128.072, 5.4023113);
generalPath.lineTo(131.72676, 5.4023113);
generalPath.lineTo(131.03812, 1.2179914);
generalPath.lineTo(124.682175, 1.2179914);
generalPath.lineTo(112.12917, 12.976591);
generalPath.lineTo(112.12917, 17.47871);
generalPath.lineTo(117.690704, 17.47871);
generalPath.lineTo(117.690704, 13.718121);
generalPath.lineTo(120.55087, 16.313461);
generalPath.lineTo(114.03595, 22.3516);
generalPath.lineTo(117.10816, 25.26465);

}

private void _paint1(Graphics2D g,float origAlpha) {
generalPath.lineTo(107.99799, 33.73923);
generalPath.lineTo(107.99799, 39.618553);
generalPath.lineTo(123.410995, 25.264652);
generalPath.lineTo(120.33896, 22.351603);
generalPath.lineTo(126.80083, 16.313463);
generalPath.lineTo(121.239296, 11.122784);
generalPath.lineTo(124.9471, 7.7329535);
generalPath.lineTo(132.04439, 14.300754);
generalPath.lineTo(147.6166, -4.673004E-5);
generalPath.lineTo(132.04439, -14.300847);
generalPath.lineTo(124.9471, -7.680087);
generalPath.lineTo(121.239296, -11.122887);
generalPath.lineTo(126.80083, -16.313566);
generalPath.lineTo(120.33896, -22.351706);
generalPath.lineTo(123.410995, -25.211876);
generalPath.lineTo(107.99799, -39.618675);
generalPath.closePath();
generalPath.moveTo(107.998, -11.070101);
generalPath.lineTo(107.998, 11.069698);
generalPath.lineTo(111.59969, 7.415038);
generalPath.lineTo(111.59969, 3.12485);
generalPath.lineTo(115.41325, 3.12485);
generalPath.lineTo(118.485115, -1.4996529E-4);
generalPath.lineTo(115.41325, -3.07218);
generalPath.lineTo(111.59969, -3.07218);
generalPath.lineTo(111.59969, -7.4154);
generalPath.lineTo(107.998, -11.07006);
generalPath.closePath();
generalPath.moveTo(134.2692, -3.2311206);
generalPath.lineTo(133.73936, -0.21205068);
generalPath.lineTo(134.2692, 2.8599794);
generalPath.lineTo(137.55293, -0.21205068);
generalPath.closePath();
shape = generalPath;
paint = new Color(56, 55, 57, 255);
g.setPaint(paint);
g.fill(shape);
g.setTransform(transformsStack.pop());
g.setComposite(AlphaComposite.getInstance(3, 1.0f * origAlpha));
transformsStack.push(g.getTransform());
g.transform(new AffineTransform(1.0f, 0.0f, 0.0f, 1.0f, 0.0f, 0.0f));
// _0_8_0_1
if (generalPath == null) {
   generalPath = new GeneralPath();
} else {
   generalPath.reset();
}
generalPath.moveTo(107.998, -38.9833);
generalPath.lineTo(107.998, -34.32228);
generalPath.lineTo(117.74376, -25.21211);
generalPath.lineTo(114.67156, -22.35194);
generalPath.lineTo(121.18647, -16.3138);
generalPath.lineTo(117.26698, -12.659141);
generalPath.lineTo(117.26698, -17.05533);
generalPath.lineTo(112.55291, -17.05533);
generalPath.lineTo(112.55291, -13.13584);
generalPath.lineTo(124.89411, -1.6422405);
generalPath.lineTo(130.61446, -1.6422405);
generalPath.lineTo(131.19699, -4.926141);
generalPath.lineTo(126.9597, -4.926141);
generalPath.lineTo(132.04445, -9.69309);
generalPath.lineTo(142.63765, -2.9087067E-4);
generalPath.lineTo(132.04445, 9.692509);
generalPath.lineTo(126.9597, 4.9785285);
generalPath.lineTo(131.19699, 4.9785285);
generalPath.lineTo(130.61299, 1.6416686);
generalPath.lineTo(124.892654, 1.6416686);
generalPath.lineTo(112.55145, 13.135268);
generalPath.lineTo(112.55145, 17.054758);
generalPath.lineTo(117.265526, 17.054758);
generalPath.lineTo(117.265526, 12.658567);
generalPath.lineTo(121.18501, 16.313227);
generalPath.lineTo(114.670105, 22.351366);
generalPath.lineTo(117.7423, 25.264416);
generalPath.lineTo(107.996544, 34.321705);
generalPath.lineTo(107.996544, 38.982723);
generalPath.lineTo(122.77394, 25.264423);
generalPath.lineTo(119.70191, 22.351374);
generalPath.lineTo(126.16378, 16.313234);
generalPath.lineTo(120.60225, 11.122555);
generalPath.lineTo(124.94564, 7.0971346);
generalPath.lineTo(132.04294, 13.717895);
generalPath.lineTo(146.92654, -3.0517578E-4);
generalPath.lineTo(132.04294, -13.718505);
generalPath.lineTo(124.94565, -7.097745);
generalPath.lineTo(120.60226, -11.123165);
generalPath.lineTo(126.16379, -16.313845);
generalPath.lineTo(119.70192, -22.351984);
generalPath.lineTo(122.77395, -25.212154);
generalPath.lineTo(107.99655, -38.983353);
generalPath.closePath();
generalPath.moveTo(107.998, -10.4345);
generalPath.lineTo(107.998, 10.434101);
generalPath.lineTo(111.175964, 7.256131);
generalPath.lineTo(111.175964, 2.64815);
generalPath.lineTo(115.25427, 2.64815);
generalPath.lineTo(117.90257, -1.5997887E-4);
generalPath.lineTo(115.25427, -2.64847);
generalPath.lineTo(111.175964, -2.64847);
generalPath.lineTo(111.175964, -7.25652);
generalPath.lineTo(107.998, -10.43449);
generalPath.closePath();
generalPath.moveTo(134.5868, -2.3836498);
generalPath.lineTo(134.21613, -0.21203971);
generalPath.lineTo(134.5868, 1.9595704);
generalPath.lineTo(136.91731, -0.21203971);
generalPath.closePath();
shape = generalPath;
paint = new Color(255, 199, 44, 255);
g.setPaint(paint);
g.fill(shape);
g.setTransform(transformsStack.pop());
g.setTransform(transformsStack.pop());
g.setComposite(AlphaComposite.getInstance(3, 1.0f * origAlpha));
transformsStack.push(g.getTransform());
g.transform(new AffineTransform(1.0f, 0.0f, 0.0f, 1.0f, 0.0f, 109.206787109375f));
// _0_8_1
g.setComposite(AlphaComposite.getInstance(3, 1.0f * origAlpha));
transformsStack.push(g.getTransform());
g.transform(new AffineTransform(1.0f, 0.0f, 0.0f, 1.0f, 0.0f, 0.0f));
// _0_8_1_0
g.setComposite(AlphaComposite.getInstance(3, 1.0f * origAlpha));
transformsStack.push(g.getTransform());
g.transform(new AffineTransform(1.0f, 0.0f, 0.0f, 1.0f, 0.0f, 0.0f));
// _0_8_1_0_0
if (generalPath == null) {
   generalPath = new GeneralPath();
} else {
   generalPath.reset();
}
generalPath.moveTo(107.998, -39.6189);
generalPath.lineTo(107.998, -33.73958);
generalPath.lineTo(117.10817, -25.212118);
generalPath.lineTo(114.03596, -22.351948);
generalPath.lineTo(120.55088, -16.313808);
generalPath.lineTo(117.69071, -13.718469);
generalPath.lineTo(117.69071, -17.47906);
generalPath.lineTo(112.12918, -17.47906);
generalPath.lineTo(112.12918, -12.976939);
generalPath.lineTo(124.68218, -1.2184391);
generalPath.lineTo(131.03812, -1.2184391);
generalPath.lineTo(131.72676, -5.349799);
generalPath.lineTo(128.072, -5.349799);
generalPath.lineTo(132.04439, -9.057429);
generalPath.lineTo(142.00201, -2.2888184E-4);
generalPath.lineTo(132.04439, 9.1099415);
generalPath.lineTo(128.072, 5.4023113);
generalPath.lineTo(131.72676, 5.4023113);
generalPath.lineTo(131.03812, 1.2179914);
generalPath.lineTo(124.682175, 1.2179914);
generalPath.lineTo(112.12917, 12.976591);
generalPath.lineTo(112.12917, 17.47871);
generalPath.lineTo(117.690704, 17.47871);
generalPath.lineTo(117.690704, 13.718121);
generalPath.lineTo(120.55087, 16.313461);
generalPath.lineTo(114.03595, 22.3516);
generalPath.lineTo(117.10816, 25.26465);
generalPath.lineTo(107.99799, 33.73923);
generalPath.lineTo(107.99799, 39.618553);
generalPath.lineTo(123.410995, 25.264652);
generalPath.lineTo(120.33896, 22.351603);
generalPath.lineTo(126.80083, 16.313463);
generalPath.lineTo(121.239296, 11.122784);
generalPath.lineTo(124.9471, 7.7329535);
generalPath.lineTo(132.04439, 14.300754);
generalPath.lineTo(147.6166, -4.673004E-5);
generalPath.lineTo(132.04439, -14.300847);
generalPath.lineTo(124.9471, -7.680087);
generalPath.lineTo(121.239296, -11.122887);
generalPath.lineTo(126.80083, -16.313566);
generalPath.lineTo(120.33896, -22.351706);
generalPath.lineTo(123.410995, -25.211876);
generalPath.lineTo(107.99799, -39.618675);
generalPath.closePath();
generalPath.moveTo(107.998, -11.070101);
generalPath.lineTo(107.998, 11.069698);
generalPath.lineTo(111.59969, 7.415038);
generalPath.lineTo(111.59969, 3.12485);
generalPath.lineTo(115.41325, 3.12485);
generalPath.lineTo(118.485115, -1.4996529E-4);
generalPath.lineTo(115.41325, -3.07218);
generalPath.lineTo(111.59969, -3.07218);
generalPath.lineTo(111.59969, -7.4154);
generalPath.lineTo(107.998, -11.07006);
generalPath.closePath();
generalPath.moveTo(134.2692, -3.2311206);
generalPath.lineTo(133.73936, -0.21205068);
generalPath.lineTo(134.2692, 2.8599794);
generalPath.lineTo(137.55293, -0.21205068);
generalPath.closePath();
shape = generalPath;
paint = new Color(56, 55, 57, 255);
g.setPaint(paint);
g.fill(shape);
g.setTransform(transformsStack.pop());
g.setComposite(AlphaComposite.getInstance(3, 1.0f * origAlpha));
transformsStack.push(g.getTransform());
g.transform(new AffineTransform(1.0f, 0.0f, 0.0f, 1.0f, 0.0f, 0.0f));
// _0_8_1_0_1
if (generalPath == null) {
   generalPath = new GeneralPath();
} else {
   generalPath.reset();
}
generalPath.moveTo(107.998, -38.9833);
generalPath.lineTo(107.998, -34.32228);
generalPath.lineTo(117.74376, -25.21211);
generalPath.lineTo(114.67156, -22.35194);
generalPath.lineTo(121.18647, -16.3138);
generalPath.lineTo(117.26698, -12.659141);
generalPath.lineTo(117.26698, -17.05533);
generalPath.lineTo(112.55291, -17.05533);
generalPath.lineTo(112.55291, -13.13584);
generalPath.lineTo(124.89411, -1.6422405);
generalPath.lineTo(130.61446, -1.6422405);
generalPath.lineTo(131.19699, -4.926141);
generalPath.lineTo(126.9597, -4.926141);
generalPath.lineTo(132.04445, -9.69309);
generalPath.lineTo(142.63765, -2.9087067E-4);
generalPath.lineTo(132.04445, 9.692509);
generalPath.lineTo(126.9597, 4.9785285);
generalPath.lineTo(131.19699, 4.9785285);
generalPath.lineTo(130.61299, 1.6416686);
generalPath.lineTo(124.892654, 1.6416686);
generalPath.lineTo(112.55145, 13.135268);
generalPath.lineTo(112.55145, 17.054758);
generalPath.lineTo(117.265526, 17.054758);
generalPath.lineTo(117.265526, 12.658567);
generalPath.lineTo(121.18501, 16.313227);
generalPath.lineTo(114.670105, 22.351366);
generalPath.lineTo(117.7423, 25.264416);
generalPath.lineTo(107.996544, 34.321705);
generalPath.lineTo(107.996544, 38.982723);
generalPath.lineTo(122.77394, 25.264423);
generalPath.lineTo(119.70191, 22.351374);
generalPath.lineTo(126.16378, 16.313234);
generalPath.lineTo(120.60225, 11.122555);
generalPath.lineTo(124.94564, 7.0971346);
generalPath.lineTo(132.04294, 13.717895);
generalPath.lineTo(146.92654, -3.0517578E-4);
generalPath.lineTo(132.04294, -13.718505);
generalPath.lineTo(124.94565, -7.097745);
generalPath.lineTo(120.60226, -11.123165);
generalPath.lineTo(126.16379, -16.313845);
generalPath.lineTo(119.70192, -22.351984);
generalPath.lineTo(122.77395, -25.212154);
generalPath.lineTo(107.99655, -38.983353);
generalPath.closePath();
generalPath.moveTo(107.998, -10.4345);
generalPath.lineTo(107.998, 10.434101);
generalPath.lineTo(111.175964, 7.256131);
generalPath.lineTo(111.175964, 2.64815);
generalPath.lineTo(115.25427, 2.64815);
generalPath.lineTo(117.90257, -1.5997887E-4);
generalPath.lineTo(115.25427, -2.64847);
generalPath.lineTo(111.175964, -2.64847);
generalPath.lineTo(111.175964, -7.25652);
generalPath.lineTo(107.998, -10.43449);
generalPath.closePath();
generalPath.moveTo(134.5868, -2.3836498);
generalPath.lineTo(134.21613, -0.21203971);
generalPath.lineTo(134.5868, 1.9595704);
generalPath.lineTo(136.91731, -0.21203971);
generalPath.closePath();
shape = generalPath;
paint = new Color(255, 199, 44, 255);
g.setPaint(paint);
g.fill(shape);
g.setTransform(transformsStack.pop());
g.setTransform(transformsStack.pop());
g.setTransform(transformsStack.pop());
g.setComposite(AlphaComposite.getInstance(3, 1.0f * origAlpha));
transformsStack.push(g.getTransform());
g.transform(new AffineTransform(1.0f, 0.0f, 0.0f, 1.0f, 0.0f, 222.00509643554688f));
// _0_8_2
g.setComposite(AlphaComposite.getInstance(3, 1.0f * origAlpha));
transformsStack.push(g.getTransform());
g.transform(new AffineTransform(1.0f, 0.0f, 0.0f, 1.0f, 0.0f, 0.0f));
// _0_8_2_0
g.setComposite(AlphaComposite.getInstance(3, 1.0f * origAlpha));
transformsStack.push(g.getTransform());
g.transform(new AffineTransform(1.0f, 0.0f, 0.0f, 1.0f, 0.0f, 0.0f));
// _0_8_2_0_0
if (generalPath == null) {
   generalPath = new GeneralPath();
} else {
   generalPath.reset();
}
generalPath.moveTo(107.998, -39.6189);
generalPath.lineTo(107.998, -33.73958);
generalPath.lineTo(117.10817, -25.212118);
generalPath.lineTo(114.03596, -22.351948);
generalPath.lineTo(120.55088, -16.313808);
generalPath.lineTo(117.69071, -13.718469);
generalPath.lineTo(117.69071, -17.47906);
generalPath.lineTo(112.12918, -17.47906);
generalPath.lineTo(112.12918, -12.976939);
generalPath.lineTo(124.68218, -1.2184391);
generalPath.lineTo(131.03812, -1.2184391);
generalPath.lineTo(131.72676, -5.349799);
generalPath.lineTo(128.072, -5.349799);
generalPath.lineTo(132.04439, -9.057429);
generalPath.lineTo(142.00201, -2.2888184E-4);
generalPath.lineTo(132.04439, 9.1099415);
generalPath.lineTo(128.072, 5.4023113);
generalPath.lineTo(131.72676, 5.4023113);
generalPath.lineTo(131.03812, 1.2179914);
generalPath.lineTo(124.682175, 1.2179914);
generalPath.lineTo(112.12917, 12.976591);
generalPath.lineTo(112.12917, 17.47871);
generalPath.lineTo(117.690704, 17.47871);
generalPath.lineTo(117.690704, 13.718121);
generalPath.lineTo(120.55087, 16.313461);
generalPath.lineTo(114.03595, 22.3516);
generalPath.lineTo(117.10816, 25.26465);
generalPath.lineTo(107.99799, 33.73923);
generalPath.lineTo(107.99799, 39.618553);
generalPath.lineTo(123.410995, 25.264652);
generalPath.lineTo(120.33896, 22.351603);
generalPath.lineTo(126.80083, 16.313463);
generalPath.lineTo(121.239296, 11.122784);
generalPath.lineTo(124.9471, 7.7329535);
generalPath.lineTo(132.04439, 14.300754);
generalPath.lineTo(147.6166, -4.673004E-5);
generalPath.lineTo(132.04439, -14.300847);
generalPath.lineTo(124.9471, -7.680087);
generalPath.lineTo(121.239296, -11.122887);
generalPath.lineTo(126.80083, -16.313566);
generalPath.lineTo(120.33896, -22.351706);
generalPath.lineTo(123.410995, -25.211876);
generalPath.lineTo(107.99799, -39.618675);
generalPath.closePath();
generalPath.moveTo(107.998, -11.070101);
generalPath.lineTo(107.998, 11.069698);
generalPath.lineTo(111.59969, 7.415038);
generalPath.lineTo(111.59969, 3.12485);
generalPath.lineTo(115.41325, 3.12485);
generalPath.lineTo(118.485115, -1.4996529E-4);
generalPath.lineTo(115.41325, -3.07218);
generalPath.lineTo(111.59969, -3.07218);
generalPath.lineTo(111.59969, -7.4154);
generalPath.lineTo(107.998, -11.07006);
generalPath.closePath();
generalPath.moveTo(134.2692, -3.2311206);
generalPath.lineTo(133.73936, -0.21205068);
generalPath.lineTo(134.2692, 2.8599794);
generalPath.lineTo(137.55293, -0.21205068);
generalPath.closePath();
shape = generalPath;
paint = new Color(56, 55, 57, 255);
g.setPaint(paint);
g.fill(shape);
g.setTransform(transformsStack.pop());
g.setComposite(AlphaComposite.getInstance(3, 1.0f * origAlpha));
transformsStack.push(g.getTransform());
g.transform(new AffineTransform(1.0f, 0.0f, 0.0f, 1.0f, 0.0f, 0.0f));
// _0_8_2_0_1
if (generalPath == null) {
   generalPath = new GeneralPath();
} else {
   generalPath.reset();
}
generalPath.moveTo(107.998, -38.9833);
generalPath.lineTo(107.998, -34.32228);
generalPath.lineTo(117.74376, -25.21211);
generalPath.lineTo(114.67156, -22.35194);
generalPath.lineTo(121.18647, -16.3138);
generalPath.lineTo(117.26698, -12.659141);
generalPath.lineTo(117.26698, -17.05533);
generalPath.lineTo(112.55291, -17.05533);
generalPath.lineTo(112.55291, -13.13584);
generalPath.lineTo(124.89411, -1.6422405);
generalPath.lineTo(130.61446, -1.6422405);
generalPath.lineTo(131.19699, -4.926141);
generalPath.lineTo(126.9597, -4.926141);
generalPath.lineTo(132.04445, -9.69309);
generalPath.lineTo(142.63765, -2.9087067E-4);
generalPath.lineTo(132.04445, 9.692509);
generalPath.lineTo(126.9597, 4.9785285);
generalPath.lineTo(131.19699, 4.9785285);
generalPath.lineTo(130.61299, 1.6416686);
generalPath.lineTo(124.892654, 1.6416686);
generalPath.lineTo(112.55145, 13.135268);
generalPath.lineTo(112.55145, 17.054758);
generalPath.lineTo(117.265526, 17.054758);
generalPath.lineTo(117.265526, 12.658567);
generalPath.lineTo(121.18501, 16.313227);
generalPath.lineTo(114.670105, 22.351366);
generalPath.lineTo(117.7423, 25.264416);
generalPath.lineTo(107.996544, 34.321705);
generalPath.lineTo(107.996544, 38.982723);
generalPath.lineTo(122.77394, 25.264423);
generalPath.lineTo(119.70191, 22.351374);
generalPath.lineTo(126.16378, 16.313234);
generalPath.lineTo(120.60225, 11.122555);
generalPath.lineTo(124.94564, 7.0971346);
generalPath.lineTo(132.04294, 13.717895);
generalPath.lineTo(146.92654, -3.0517578E-4);
generalPath.lineTo(132.04294, -13.718505);
generalPath.lineTo(124.94565, -7.097745);
generalPath.lineTo(120.60226, -11.123165);
generalPath.lineTo(126.16379, -16.313845);
generalPath.lineTo(119.70192, -22.351984);
generalPath.lineTo(122.77395, -25.212154);
generalPath.lineTo(107.99655, -38.983353);
generalPath.closePath();
generalPath.moveTo(107.998, -10.4345);
generalPath.lineTo(107.998, 10.434101);
generalPath.lineTo(111.175964, 7.256131);
generalPath.lineTo(111.175964, 2.64815);
generalPath.lineTo(115.25427, 2.64815);
generalPath.lineTo(117.90257, -1.5997887E-4);
generalPath.lineTo(115.25427, -2.64847);
generalPath.lineTo(111.175964, -2.64847);
generalPath.lineTo(111.175964, -7.25652);
generalPath.lineTo(107.998, -10.43449);
generalPath.closePath();
generalPath.moveTo(134.5868, -2.3836498);
generalPath.lineTo(134.21613, -0.21203971);
generalPath.lineTo(134.5868, 1.9595704);
generalPath.lineTo(136.91731, -0.21203971);
generalPath.closePath();
shape = generalPath;
paint = new Color(255, 199, 44, 255);
g.setPaint(paint);
g.fill(shape);
g.setTransform(transformsStack.pop());
g.setTransform(transformsStack.pop());
g.setTransform(transformsStack.pop());
g.setComposite(AlphaComposite.getInstance(3, 1.0f * origAlpha));
transformsStack.push(g.getTransform());
g.transform(new AffineTransform(1.0f, 0.0f, 0.0f, 1.0f, 0.0f, 334.8017272949219f));
// _0_8_3
g.setComposite(AlphaComposite.getInstance(3, 1.0f * origAlpha));
transformsStack.push(g.getTransform());
g.transform(new AffineTransform(1.0f, 0.0f, 0.0f, 1.0f, 0.0f, 0.0f));
// _0_8_3_0
g.setComposite(AlphaComposite.getInstance(3, 1.0f * origAlpha));
transformsStack.push(g.getTransform());
g.transform(new AffineTransform(1.0f, 0.0f, 0.0f, 1.0f, 0.0f, 0.0f));
// _0_8_3_0_0
if (generalPath == null) {
   generalPath = new GeneralPath();
} else {
   generalPath.reset();
}
generalPath.moveTo(107.998, -39.6189);
generalPath.lineTo(107.998, -33.73958);
generalPath.lineTo(117.10817, -25.212118);
generalPath.lineTo(114.03596, -22.351948);
generalPath.lineTo(120.55088, -16.313808);
generalPath.lineTo(117.69071, -13.718469);
generalPath.lineTo(117.69071, -17.47906);
generalPath.lineTo(112.12918, -17.47906);
generalPath.lineTo(112.12918, -12.976939);
generalPath.lineTo(124.68218, -1.2184391);
generalPath.lineTo(131.03812, -1.2184391);
generalPath.lineTo(131.72676, -5.349799);
generalPath.lineTo(128.072, -5.349799);
generalPath.lineTo(132.04439, -9.057429);
generalPath.lineTo(142.00201, -2.2888184E-4);
generalPath.lineTo(132.04439, 9.1099415);
generalPath.lineTo(128.072, 5.4023113);
generalPath.lineTo(131.72676, 5.4023113);
generalPath.lineTo(131.03812, 1.2179914);
generalPath.lineTo(124.682175, 1.2179914);
generalPath.lineTo(112.12917, 12.976591);
generalPath.lineTo(112.12917, 17.47871);
generalPath.lineTo(117.690704, 17.47871);
generalPath.lineTo(117.690704, 13.718121);
generalPath.lineTo(120.55087, 16.313461);
generalPath.lineTo(114.03595, 22.3516);
generalPath.lineTo(117.10816, 25.26465);
generalPath.lineTo(107.99799, 33.73923);
generalPath.lineTo(107.99799, 39.618553);
generalPath.lineTo(123.410995, 25.264652);
generalPath.lineTo(120.33896, 22.351603);
generalPath.lineTo(126.80083, 16.313463);
generalPath.lineTo(121.239296, 11.122784);
generalPath.lineTo(124.9471, 7.7329535);
generalPath.lineTo(132.04439, 14.300754);
generalPath.lineTo(147.6166, -4.673004E-5);
generalPath.lineTo(132.04439, -14.300847);
generalPath.lineTo(124.9471, -7.680087);
generalPath.lineTo(121.239296, -11.122887);
generalPath.lineTo(126.80083, -16.313566);
generalPath.lineTo(120.33896, -22.351706);
generalPath.lineTo(123.410995, -25.211876);
generalPath.lineTo(107.99799, -39.618675);
generalPath.closePath();
generalPath.moveTo(107.998, -11.070101);
generalPath.lineTo(107.998, 11.069698);
generalPath.lineTo(111.59969, 7.415038);
generalPath.lineTo(111.59969, 3.12485);
generalPath.lineTo(115.41325, 3.12485);
generalPath.lineTo(118.485115, -1.4996529E-4);
generalPath.lineTo(115.41325, -3.07218);
generalPath.lineTo(111.59969, -3.07218);
generalPath.lineTo(111.59969, -7.4154);
generalPath.lineTo(107.998, -11.07006);
generalPath.closePath();
generalPath.moveTo(134.2692, -3.2311206);
generalPath.lineTo(133.73936, -0.21205068);
generalPath.lineTo(134.2692, 2.8599794);
generalPath.lineTo(137.55293, -0.21205068);
generalPath.closePath();
shape = generalPath;
paint = new Color(56, 55, 57, 255);
g.setPaint(paint);
g.fill(shape);
g.setTransform(transformsStack.pop());
g.setComposite(AlphaComposite.getInstance(3, 1.0f * origAlpha));
transformsStack.push(g.getTransform());
g.transform(new AffineTransform(1.0f, 0.0f, 0.0f, 1.0f, 0.0f, 0.0f));
// _0_8_3_0_1
if (generalPath == null) {
   generalPath = new GeneralPath();
} else {
   generalPath.reset();
}
generalPath.moveTo(107.998, -38.9833);
generalPath.lineTo(107.998, -34.32228);
generalPath.lineTo(117.74376, -25.21211);
generalPath.lineTo(114.67156, -22.35194);
generalPath.lineTo(121.18647, -16.3138);
generalPath.lineTo(117.26698, -12.659141);
generalPath.lineTo(117.26698, -17.05533);
generalPath.lineTo(112.55291, -17.05533);
generalPath.lineTo(112.55291, -13.13584);
generalPath.lineTo(124.89411, -1.6422405);
generalPath.lineTo(130.61446, -1.6422405);
generalPath.lineTo(131.19699, -4.926141);
generalPath.lineTo(126.9597, -4.926141);
generalPath.lineTo(132.04445, -9.69309);
generalPath.lineTo(142.63765, -2.9087067E-4);
generalPath.lineTo(132.04445, 9.692509);
generalPath.lineTo(126.9597, 4.9785285);
generalPath.lineTo(131.19699, 4.9785285);
generalPath.lineTo(130.61299, 1.6416686);
generalPath.lineTo(124.892654, 1.6416686);
generalPath.lineTo(112.55145, 13.135268);
generalPath.lineTo(112.55145, 17.054758);
generalPath.lineTo(117.265526, 17.054758);
generalPath.lineTo(117.265526, 12.658567);
generalPath.lineTo(121.18501, 16.313227);
generalPath.lineTo(114.670105, 22.351366);
generalPath.lineTo(117.7423, 25.264416);
generalPath.lineTo(107.996544, 34.321705);
generalPath.lineTo(107.996544, 38.982723);
generalPath.lineTo(122.77394, 25.264423);
generalPath.lineTo(119.70191, 22.351374);
generalPath.lineTo(126.16378, 16.313234);
generalPath.lineTo(120.60225, 11.122555);
generalPath.lineTo(124.94564, 7.0971346);
generalPath.lineTo(132.04294, 13.717895);
generalPath.lineTo(146.92654, -3.0517578E-4);
generalPath.lineTo(132.04294, -13.718505);
generalPath.lineTo(124.94565, -7.097745);
generalPath.lineTo(120.60226, -11.123165);
generalPath.lineTo(126.16379, -16.313845);
generalPath.lineTo(119.70192, -22.351984);
generalPath.lineTo(122.77395, -25.212154);
generalPath.lineTo(107.99655, -38.983353);
generalPath.closePath();
generalPath.moveTo(107.998, -10.4345);
generalPath.lineTo(107.998, 10.434101);
generalPath.lineTo(111.175964, 7.256131);
generalPath.lineTo(111.175964, 2.64815);
generalPath.lineTo(115.25427, 2.64815);
generalPath.lineTo(117.90257, -1.5997887E-4);
generalPath.lineTo(115.25427, -2.64847);
generalPath.lineTo(111.175964, -2.64847);
generalPath.lineTo(111.175964, -7.25652);
generalPath.lineTo(107.998, -10.43449);
generalPath.closePath();
generalPath.moveTo(134.5868, -2.3836498);
generalPath.lineTo(134.21613, -0.21203971);
generalPath.lineTo(134.5868, 1.9595704);
generalPath.lineTo(136.91731, -0.21203971);
generalPath.closePath();
shape = generalPath;
paint = new Color(255, 199, 44, 255);
g.setPaint(paint);
g.fill(shape);
g.setTransform(transformsStack.pop());
g.setTransform(transformsStack.pop());
g.setTransform(transformsStack.pop());
g.setComposite(AlphaComposite.getInstance(3, 1.0f * origAlpha));
transformsStack.push(g.getTransform());
g.transform(new AffineTransform(1.0f, 0.0f, 0.0f, 1.0f, 0.0f, 447.5983581542969f));
// _0_8_4
g.setComposite(AlphaComposite.getInstance(3, 1.0f * origAlpha));
transformsStack.push(g.getTransform());
g.transform(new AffineTransform(1.0f, 0.0f, 0.0f, 1.0f, 0.0f, 0.0f));
// _0_8_4_0
g.setComposite(AlphaComposite.getInstance(3, 1.0f * origAlpha));
transformsStack.push(g.getTransform());
g.transform(new AffineTransform(1.0f, 0.0f, 0.0f, 1.0f, 0.0f, 0.0f));
// _0_8_4_0_0
if (generalPath == null) {
   generalPath = new GeneralPath();
} else {
   generalPath.reset();
}
generalPath.moveTo(107.998, -39.6189);
generalPath.lineTo(107.998, -33.73958);
generalPath.lineTo(117.10817, -25.212118);
generalPath.lineTo(114.03596, -22.351948);
generalPath.lineTo(120.55088, -16.313808);
generalPath.lineTo(117.69071, -13.718469);
generalPath.lineTo(117.69071, -17.47906);
generalPath.lineTo(112.12918, -17.47906);
generalPath.lineTo(112.12918, -12.976939);
generalPath.lineTo(124.68218, -1.2184391);
generalPath.lineTo(131.03812, -1.2184391);
generalPath.lineTo(131.72676, -5.349799);
generalPath.lineTo(128.072, -5.349799);
generalPath.lineTo(132.04439, -9.057429);
generalPath.lineTo(142.00201, -2.2888184E-4);
generalPath.lineTo(132.04439, 9.1099415);
generalPath.lineTo(128.072, 5.4023113);
generalPath.lineTo(131.72676, 5.4023113);
generalPath.lineTo(131.03812, 1.2179914);
generalPath.lineTo(124.682175, 1.2179914);
generalPath.lineTo(112.12917, 12.976591);
generalPath.lineTo(112.12917, 17.47871);
generalPath.lineTo(117.690704, 17.47871);
generalPath.lineTo(117.690704, 13.718121);
generalPath.lineTo(120.55087, 16.313461);
generalPath.lineTo(114.03595, 22.3516);
generalPath.lineTo(117.10816, 25.26465);
generalPath.lineTo(107.99799, 33.73923);
generalPath.lineTo(107.99799, 39.618553);
generalPath.lineTo(123.410995, 25.264652);
generalPath.lineTo(120.33896, 22.351603);
generalPath.lineTo(126.80083, 16.313463);
generalPath.lineTo(121.239296, 11.122784);
generalPath.lineTo(124.9471, 7.7329535);
generalPath.lineTo(132.04439, 14.300754);
generalPath.lineTo(147.6166, -4.673004E-5);
generalPath.lineTo(132.04439, -14.300847);
generalPath.lineTo(124.9471, -7.680087);
generalPath.lineTo(121.239296, -11.122887);
generalPath.lineTo(126.80083, -16.313566);
generalPath.lineTo(120.33896, -22.351706);
generalPath.lineTo(123.410995, -25.211876);
generalPath.lineTo(107.99799, -39.618675);
generalPath.closePath();
generalPath.moveTo(107.998, -11.070101);
generalPath.lineTo(107.998, 11.069698);
generalPath.lineTo(111.59969, 7.415038);
generalPath.lineTo(111.59969, 3.12485);
generalPath.lineTo(115.41325, 3.12485);
generalPath.lineTo(118.485115, -1.4996529E-4);
generalPath.lineTo(115.41325, -3.07218);
generalPath.lineTo(111.59969, -3.07218);
generalPath.lineTo(111.59969, -7.4154);
generalPath.lineTo(107.998, -11.07006);
generalPath.closePath();
generalPath.moveTo(134.2692, -3.2311206);
generalPath.lineTo(133.73936, -0.21205068);
generalPath.lineTo(134.2692, 2.8599794);
generalPath.lineTo(137.55293, -0.21205068);
generalPath.closePath();
shape = generalPath;
paint = new Color(56, 55, 57, 255);
g.setPaint(paint);
g.fill(shape);
g.setTransform(transformsStack.pop());
g.setComposite(AlphaComposite.getInstance(3, 1.0f * origAlpha));
transformsStack.push(g.getTransform());
g.transform(new AffineTransform(1.0f, 0.0f, 0.0f, 1.0f, 0.0f, 0.0f));
// _0_8_4_0_1
if (generalPath == null) {
   generalPath = new GeneralPath();
} else {
   generalPath.reset();
}
generalPath.moveTo(107.998, -38.9833);
generalPath.lineTo(107.998, -34.32228);
generalPath.lineTo(117.74376, -25.21211);
generalPath.lineTo(114.67156, -22.35194);
generalPath.lineTo(121.18647, -16.3138);
generalPath.lineTo(117.26698, -12.659141);
generalPath.lineTo(117.26698, -17.05533);
generalPath.lineTo(112.55291, -17.05533);
generalPath.lineTo(112.55291, -13.13584);
generalPath.lineTo(124.89411, -1.6422405);
generalPath.lineTo(130.61446, -1.6422405);
generalPath.lineTo(131.19699, -4.926141);
generalPath.lineTo(126.9597, -4.926141);
generalPath.lineTo(132.04445, -9.69309);
generalPath.lineTo(142.63765, -2.9087067E-4);
generalPath.lineTo(132.04445, 9.692509);
generalPath.lineTo(126.9597, 4.9785285);
generalPath.lineTo(131.19699, 4.9785285);
generalPath.lineTo(130.61299, 1.6416686);
generalPath.lineTo(124.892654, 1.6416686);
generalPath.lineTo(112.55145, 13.135268);
generalPath.lineTo(112.55145, 17.054758);
generalPath.lineTo(117.265526, 17.054758);
generalPath.lineTo(117.265526, 12.658567);
generalPath.lineTo(121.18501, 16.313227);
generalPath.lineTo(114.670105, 22.351366);
generalPath.lineTo(117.7423, 25.264416);
generalPath.lineTo(107.996544, 34.321705);
generalPath.lineTo(107.996544, 38.982723);
generalPath.lineTo(122.77394, 25.264423);
generalPath.lineTo(119.70191, 22.351374);
generalPath.lineTo(126.16378, 16.313234);
generalPath.lineTo(120.60225, 11.122555);
generalPath.lineTo(124.94564, 7.0971346);
generalPath.lineTo(132.04294, 13.717895);
generalPath.lineTo(146.92654, -3.0517578E-4);
generalPath.lineTo(132.04294, -13.718505);
generalPath.lineTo(124.94565, -7.097745);
generalPath.lineTo(120.60226, -11.123165);
generalPath.lineTo(126.16379, -16.313845);
generalPath.lineTo(119.70192, -22.351984);
generalPath.lineTo(122.77395, -25.212154);
generalPath.lineTo(107.99655, -38.983353);
generalPath.closePath();
generalPath.moveTo(107.998, -10.4345);
generalPath.lineTo(107.998, 10.434101);
generalPath.lineTo(111.175964, 7.256131);
generalPath.lineTo(111.175964, 2.64815);
generalPath.lineTo(115.25427, 2.64815);
generalPath.lineTo(117.90257, -1.5997887E-4);
generalPath.lineTo(115.25427, -2.64847);
generalPath.lineTo(111.175964, -2.64847);
generalPath.lineTo(111.175964, -7.25652);
generalPath.lineTo(107.998, -10.43449);
generalPath.closePath();
generalPath.moveTo(134.5868, -2.3836498);
generalPath.lineTo(134.21613, -0.21203971);
generalPath.lineTo(134.5868, 1.9595704);
generalPath.lineTo(136.91731, -0.21203971);
generalPath.closePath();
shape = generalPath;
paint = new Color(255, 199, 44, 255);
g.setPaint(paint);
g.fill(shape);
g.setTransform(transformsStack.pop());
g.setTransform(transformsStack.pop());
g.setTransform(transformsStack.pop());
g.setTransform(transformsStack.pop());
g.setComposite(AlphaComposite.getInstance(3, 1.0f * origAlpha));
transformsStack.push(g.getTransform());
g.transform(new AffineTransform(1.0f, 0.0f, 0.0f, 1.0f, 0.0f, 0.0f));
// _0_9
if (generalPath == null) {
   generalPath = new GeneralPath();
} else {
   generalPath.reset();
}
generalPath.moveTo(121.14, 530.824);
generalPath.curveTo(121.9392, 534.2314, 124.6482, 536.803, 125.2938, 540.337);
generalPath.curveTo(126.5862, 536.6524, 127.7778, 533.56354, 126.888, 529.5328);
generalPath.curveTo(126.2514, 526.6498, 123.82619, 524.59357, 123.5454, 521.6308);
generalPath.curveTo(120.90119, 524.008, 120.3318, 527.38, 121.14, 530.82404);
generalPath.closePath();
generalPath.moveTo(120.46979, 545.1004);
generalPath.curveTo(122.7126, 548.1754, 125.8302, 550.534, 129.27298, 552.1066);
generalPath.curveTo(128.59499, 549.4132, 129.86697, 547.38525, 131.27878, 545.2468);
generalPath.curveTo(132.97978, 542.67285, 133.80898, 540.1444, 132.42238, 537.1805);
generalPath.curveTo(131.77618, 538.72125, 130.90797, 540.0011, 129.88918, 541.31866);
generalPath.curveTo(128.38257, 543.37427, 127.391975, 545.20184, 127.159775, 547.83826);
generalPath.curveTo(125.41737, 546.54706, 124.65177, 544.61865, 123.71998, 542.7527);
generalPath.curveTo(122.29978, 540.0797, 120.00778, 537.8453, 117.375, 536.3843);
generalPath.curveTo(118.0746, 539.3825, 118.6134, 542.55286, 120.4698, 545.10046);
generalPath.closePath();
generalPath.moveTo(133.04819, 554.266);
generalPath.curveTo(132.5688, 555.9736, 132.15538, 557.6668, 132.24779, 559.4518);
generalPath.curveTo(130.7658, 557.85516, 128.79779, 556.6534, 127.04219, 555.367);
generalPath.curveTo(124.65119, 553.43317, 121.86419, 552.0694, 119.90939, 549.607);
generalPath.curveTo(120.201, 553.23096, 121.75199, 556.1854, 124.69679, 558.3904);
generalPath.curveTo(127.80959, 560.7202, 131.56378, 561.97296, 134.62982, 564.4192);
generalPath.curveTo(134.17082, 561.1234, 135.38162, 558.4828, 136.41422, 555.4534);
generalPath.curveTo(137.27463, 552.5584, 136.44182, 549.619, 134.47862, 547.41284);
generalPath.curveTo(134.50803, 549.85846, 133.73642, 551.95844, 133.04822, 554.266);
generalPath.closePath();
generalPath.moveTo(140.03397, 565.399);
generalPath.curveTo(140.67897, 567.8992, 142.47057, 569.93317, 143.69397, 572.1634);
generalPath.curveTo(140.39516, 571.1404, 137.48459, 569.3512, 134.50256, 567.6676);
generalPath.curveTo(130.95055, 565.7338, 127.09374, 564.5026, 123.878365, 561.949);
generalPath.curveTo(125.47856, 567.87335, 129.44456, 571.30774, 135.24657, 573.0592);
generalPath.curveTo(139.21376, 574.2574, 142.55695, 573.6598, 147.37077, 575.605);
generalPath.curveTo(146.81877, 572.3464, 145.84618, 568.82916, 144.30537, 565.891);
generalPath.curveTo(143.10957, 563.7658, 141.78357, 561.67, 141.04497, 559.3294);
generalPath.curveTo(139.97517, 561.25183, 139.46877, 563.2078, 140.03397, 565.39905);
generalPath.closePath();
generalPath.moveTo(152.17256, 574.4644);
generalPath.curveTo(153.30836, 576.4102, 154.80777, 578.0476, 156.66716, 579.3394);
generalPath.curveTo(151.98418, 579.63763, 148.2156, 576.67004, 143.65016, 576.541);
generalPath.curveTo(140.83017, 576.4618, 138.15295, 577.3372, 135.27715, 577.0744);
generalPath.curveTo(138.68994, 579.3772, 142.26292, 581.3878, 146.41794, 581.9254);
generalPath.curveTo(151.81914, 582.62384, 156.80034, 581.26483, 162.75894, 581.7964);
generalPath.curveTo(159.97433, 579.8314, 158.58115, 577.201, 156.84534, 574.3726);
generalPath.curveTo(154.58514, 570.8404, 152.45213, 568.3228, 148.05595, 567.75464);
generalPath.curveTo(149.82054, 569.7382, 150.84775, 572.19525, 152.17255, 574.4645);
generalPath.closePath();
generalPath.moveTo(168.80396, 582.2374);
generalPath.curveTo(160.55394, 583.63965, 152.64836, 585.45465, 144.22255, 585.538);
generalPath.curveTo(153.65395, 588.82605, 162.54056, 589.42065, 171.89455, 586.0258);
generalPath.curveTo(176.94954, 584.19104, 180.82555, 583.2088, 184.64334, 583.4824);
generalPath.curveTo(190.22275, 583.88324, 197.00334, 586.0846, 204.50754, 593.9992);
generalPath.lineTo(207.45714, 591.6388);
generalPath.curveTo(196.70174, 582.05566, 182.62933, 579.8858, 168.80444, 582.23645);
generalPath.closePath();
shape = generalPath;
paint = new Color(255, 199, 44, 255);
g.setPaint(paint);
g.fill(shape);
g.setTransform(transformsStack.pop());
g.setComposite(AlphaComposite.getInstance(3, 1.0f * origAlpha));
transformsStack.push(g.getTransform());
g.transform(new AffineTransform(1.0f, 0.0f, 0.0f, 1.0f, 0.0f, 0.0f));
// _0_10
if (generalPath == null) {
   generalPath = new GeneralPath();
} else {
   generalPath.reset();
}
generalPath.moveTo(128.266, 70.3392);
generalPath.lineTo(115.285, 62.379013);
generalPath.lineTo(115.285, 43.243813);
generalPath.lineTo(128.266, 35.283623);
generalPath.lineTo(128.266, 25.158623);
generalPath.lineTo(140.533, 17.771423);
generalPath.lineTo(150.33342, 17.771423);
generalPath.lineTo(168.98082, 7.2828236);
generalPath.lineTo(209.01402, 7.2828236);
generalPath.lineTo(227.66202, 17.771423);
generalPath.lineTo(237.46243, 17.771423);
generalPath.lineTo(249.72943, 25.158623);
generalPath.lineTo(249.72943, 35.283623);
generalPath.lineTo(262.71042, 43.243813);
generalPath.lineTo(262.7098, 62.379013);
generalPath.lineTo(249.7294, 70.3392);
generalPath.lineTo(249.7294, 80.4642);
generalPath.lineTo(237.4624, 87.8514);
generalPath.lineTo(227.66199, 87.8514);
generalPath.lineTo(209.01399, 98.340004);
generalPath.lineTo(168.98079, 98.340004);
generalPath.lineTo(150.33342, 87.8514);
generalPath.lineTo(140.533, 87.8514);
generalPath.lineTo(128.266, 80.4642);
generalPath.closePath();
shape = generalPath;
paint = new Color(56, 55, 57, 255);
g.setPaint(paint);
g.fill(shape);
g.setTransform(transformsStack.pop());
g.setComposite(AlphaComposite.getInstance(3, 1.0f * origAlpha));
transformsStack.push(g.getTransform());
g.transform(new AffineTransform(1.0f, 0.0f, 0.0f, 1.0f, 0.0f, 0.0f));
// _0_11
if (generalPath == null) {
   generalPath = new GeneralPath();
} else {
   generalPath.reset();
}
generalPath.moveTo(169.068, 7.73279);
generalPath.lineTo(150.424, 18.220089);
generalPath.lineTo(140.67822, 18.220089);
generalPath.lineTo(128.70782, 25.423449);
generalPath.lineTo(128.70782, 35.539948);
generalPath.lineTo(115.731125, 43.484886);
generalPath.lineTo(115.731125, 62.128883);
generalPath.lineTo(128.70782, 70.07382);
generalPath.lineTo(128.70782, 80.243324);
generalPath.lineTo(140.62523, 87.446686);
generalPath.lineTo(150.42398, 87.446686);
generalPath.lineTo(169.06798, 97.93398);
generalPath.lineTo(208.89848, 97.93398);
generalPath.lineTo(227.54248, 87.446686);
generalPath.lineTo(237.34122, 87.446686);
generalPath.lineTo(249.31161, 80.243324);
generalPath.lineTo(249.31161, 70.07382);
generalPath.lineTo(262.28833, 62.128883);
generalPath.lineTo(262.28833, 43.484886);
generalPath.lineTo(249.31163, 35.539948);
generalPath.lineTo(249.31163, 25.423447);
generalPath.lineTo(237.34123, 18.220087);
generalPath.lineTo(227.5425, 18.220087);
generalPath.lineTo(208.8985, 7.732787);
generalPath.lineTo(169.068, 7.732787);
generalPath.closePath();
generalPath.moveTo(170.18028, 11.599319);
generalPath.lineTo(207.83919, 11.599319);
generalPath.lineTo(226.48318, 22.08662);
generalPath.lineTo(236.22896, 22.08662);
generalPath.lineTo(245.28613, 27.54213);
generalPath.lineTo(245.28613, 37.65863);
generalPath.lineTo(258.31573, 45.60357);
generalPath.lineTo(258.31573, 60.01037);
generalPath.lineTo(245.28613, 67.95531);
generalPath.lineTo(245.28613, 78.07181);
generalPath.lineTo(236.22896, 83.52732);
generalPath.lineTo(226.48318, 83.52732);
generalPath.lineTo(207.83919, 94.01462);
generalPath.lineTo(170.18028, 94.01462);
generalPath.lineTo(151.53629, 83.52732);
generalPath.lineTo(141.79051, 83.52732);
generalPath.lineTo(132.68037, 78.07181);
generalPath.lineTo(132.68037, 67.95531);
generalPath.lineTo(119.703674, 60.01037);
generalPath.lineTo(119.703674, 45.60357);
generalPath.lineTo(132.68037, 37.65863);
generalPath.lineTo(132.68037, 27.54213);
generalPath.lineTo(141.79051, 22.08662);
generalPath.lineTo(151.53629, 22.08662);
generalPath.closePath();
shape = generalPath;
paint = new Color(0, 132, 61, 255);
g.setPaint(paint);
g.fill(shape);
g.setTransform(transformsStack.pop());
g.setComposite(AlphaComposite.getInstance(3, 1.0f * origAlpha));
transformsStack.push(g.getTransform());
g.transform(new AffineTransform(1.0f, 0.0f, 0.0f, 1.0f, 0.0f, 0.0f));
// _0_12
if (generalPath == null) {
   generalPath = new GeneralPath();
} else {
   generalPath.reset();
}
generalPath.moveTo(188.783, 53.0252);
generalPath.lineTo(188.783, 12.0167);
generalPath.lineTo(170.2772, 12.0167);
generalPath.lineTo(151.6286, 22.505299);
generalPath.lineTo(141.90678, 22.505299);
generalPath.lineTo(133.112, 27.801498);
generalPath.lineTo(133.112, 37.901897);
generalPath.lineTo(120.1316, 45.86149);
generalPath.lineTo(120.1316, 52.597076);
generalPath.lineTo(189.21231, 52.596416);
generalPath.lineTo(189.21231, 93.60591);
generalPath.lineTo(207.71811, 93.60591);
generalPath.lineTo(226.3661, 83.11731);
generalPath.lineTo(236.08852, 83.11731);
generalPath.lineTo(244.8827, 77.821106);
generalPath.lineTo(244.8827, 67.721306);
generalPath.lineTo(257.8637, 59.761116);
generalPath.lineTo(257.8637, 53.025528);
generalPath.closePath();
shape = generalPath;
paint = new Color(255, 199, 44, 255);
g.setPaint(paint);
g.fill(shape);
g.setTransform(transformsStack.pop());
g.setComposite(AlphaComposite.getInstance(3, 1.0f * origAlpha));
transformsStack.push(g.getTransform());
g.transform(new AffineTransform(1.0f, 0.0f, 0.0f, 1.0f, 0.0f, 0.0f));
// _0_13
if (generalPath == null) {
   generalPath = new GeneralPath();
} else {
   generalPath.reset();
}
generalPath.moveTo(120.131, 53.0254);
generalPath.lineTo(120.130394, 59.760986);
generalPath.lineTo(133.11139, 67.721176);
generalPath.lineTo(133.11139, 77.82098);
generalPath.lineTo(141.90558, 83.11717);
generalPath.lineTo(151.62799, 83.11717);
generalPath.lineTo(170.27599, 93.605774);
generalPath.lineTo(188.78238, 93.605774);
generalPath.lineTo(188.78238, 52.596275);
generalPath.lineTo(257.8631, 52.596935);
generalPath.lineTo(257.8631, 45.861343);
generalPath.lineTo(244.8821, 37.901752);
generalPath.lineTo(244.8821, 27.801353);
generalPath.lineTo(236.0879, 22.505154);
generalPath.lineTo(226.3655, 22.505154);
generalPath.lineTo(207.7175, 12.016554);
generalPath.lineTo(189.2117, 12.016554);
generalPath.lineTo(189.2117, 53.025055);
generalPath.closePath();
shape = generalPath;
paint = new Color(255, 255, 255, 255);
g.setPaint(paint);
g.fill(shape);
g.setTransform(transformsStack.pop());
g.setComposite(AlphaComposite.getInstance(3, 1.0f * origAlpha));
transformsStack.push(g.getTransform());
g.transform(new AffineTransform(1.0f, 0.0f, 0.0f, 1.0f, 0.0f, 0.0f));
// _0_14
g.setComposite(AlphaComposite.getInstance(3, 1.0f * origAlpha));
transformsStack.push(g.getTransform());
g.transform(new AffineTransform(1.0f, 0.0f, 0.0f, 1.0f, 0.0f, 0.0f));
// _0_14_0
g.setComposite(AlphaComposite.getInstance(3, 1.0f * origAlpha));
transformsStack.push(g.getTransform());
g.transform(new AffineTransform(1.0f, 0.0f, 0.0f, 1.0f, 0.0f, 0.0f));
// _0_14_0_0
if (generalPath == null) {
   generalPath = new GeneralPath();
} else {
   generalPath.reset();
}

}

private void _paint2(Graphics2D g,float origAlpha) {
generalPath.moveTo(148.448, 26.2804);
generalPath.lineTo(145.2524, 23.302);
generalPath.lineTo(142.0862, 25.2544);
generalPath.lineTo(145.2872, 28.2388);
generalPath.lineTo(141.1772, 30.7852);
generalPath.lineTo(150.14597, 30.7852);
generalPath.lineTo(157.87518, 38.07582);
generalPath.lineTo(160.3478, 35.464622);
generalPath.lineTo(152.8328, 28.375603);
generalPath.lineTo(152.8328, 23.563602);
generalPath.closePath();
shape = generalPath;
paint = new Color(56, 55, 57, 255);
g.setPaint(paint);
g.fill(shape);
g.setTransform(transformsStack.pop());
g.setComposite(AlphaComposite.getInstance(3, 1.0f * origAlpha));
transformsStack.push(g.getTransform());
g.transform(new AffineTransform(1.0f, 0.0f, 0.0f, 1.0f, 0.0f, 0.0f));
// _0_14_0_1
if (generalPath == null) {
   generalPath = new GeneralPath();
} else {
   generalPath.reset();
}
generalPath.moveTo(163.573, 24.9719);
generalPath.lineTo(160.3774, 21.993502);
generalPath.lineTo(157.2112, 23.945902);
generalPath.lineTo(160.4122, 26.930302);
generalPath.lineTo(156.3022, 29.476702);
generalPath.lineTo(165.27097, 29.476702);
generalPath.lineTo(173.00018, 36.767323);
generalPath.lineTo(175.47278, 34.156124);
generalPath.lineTo(167.9578, 27.067104);
generalPath.lineTo(167.9578, 22.255104);
generalPath.closePath();
shape = generalPath;
paint = new Color(56, 55, 57, 255);
g.setPaint(paint);
g.fill(shape);
g.setTransform(transformsStack.pop());
g.setComposite(AlphaComposite.getInstance(3, 1.0f * origAlpha));
transformsStack.push(g.getTransform());
g.transform(new AffineTransform(1.0f, 0.0f, 0.0f, 1.0f, 0.0f, 0.0f));
// _0_14_0_2
if (generalPath == null) {
   generalPath = new GeneralPath();
} else {
   generalPath.reset();
}
generalPath.moveTo(147.339, 34.8358);
generalPath.lineTo(144.1434, 31.8574);
generalPath.lineTo(140.9778, 33.8098);
generalPath.lineTo(144.17819, 36.7942);
generalPath.lineTo(140.06879, 39.3406);
generalPath.lineTo(149.03755, 39.3406);
generalPath.lineTo(156.76616, 46.631218);
generalPath.lineTo(159.23875, 44.02002);
generalPath.lineTo(151.72377, 36.931);
generalPath.lineTo(151.72377, 32.119);
generalPath.closePath();
shape = generalPath;
paint = new Color(56, 55, 57, 255);
g.setPaint(paint);
g.fill(shape);
g.setTransform(transformsStack.pop());
g.setComposite(AlphaComposite.getInstance(3, 1.0f * origAlpha));
transformsStack.push(g.getTransform());
g.transform(new AffineTransform(1.0f, 0.0f, 0.0f, 1.0f, 0.0f, 0.0f));
// _0_14_0_3
if (generalPath == null) {
   generalPath = new GeneralPath();
} else {
   generalPath.reset();
}
generalPath.moveTo(188.997, 11.5889);
generalPath.lineTo(180.9039, 11.5889);
generalPath.lineTo(176.6691, 15.670099);
generalPath.lineTo(168.41368, 15.670099);
generalPath.lineTo(162.31348, 18.8363);
generalPath.lineTo(163.73608, 22.3025);
generalPath.lineTo(169.1763, 19.4453);
generalPath.lineTo(171.55888, 19.4453);
generalPath.lineTo(179.90007, 29.092098);
generalPath.lineTo(188.99724, 23.552298);
generalPath.closePath();
shape = generalPath;
paint = new Color(56, 55, 57, 255);
g.setPaint(paint);
g.fill(shape);
g.setTransform(transformsStack.pop());
g.setComposite(AlphaComposite.getInstance(3, 1.0f * origAlpha));
transformsStack.push(g.getTransform());
g.transform(new AffineTransform(1.0f, 0.0f, 0.0f, 1.0f, 0.0f, 0.0f));
// _0_14_0_4
if (generalPath == null) {
   generalPath = new GeneralPath();
} else {
   generalPath.reset();
}
generalPath.moveTo(145.199, 23.8378);
generalPath.lineTo(148.0706, 26.514399);
generalPath.lineTo(145.6646, 28.004799);
generalPath.lineTo(142.7888, 25.324);
generalPath.closePath();
generalPath.moveTo(152.40442, 24.3328);
generalPath.lineTo(152.40442, 28.5598);
generalPath.lineTo(159.74182, 35.48138);
generalPath.lineTo(157.85782, 37.47098);
generalPath.lineTo(150.3164, 30.356802);
generalPath.lineTo(142.68082, 30.356802);
generalPath.lineTo(152.40442, 24.33282);
generalPath.closePath();
shape = generalPath;
paint = new Color(210, 38, 48, 255);
g.setPaint(paint);
g.fill(shape);
g.setTransform(transformsStack.pop());
g.setComposite(AlphaComposite.getInstance(3, 1.0f * origAlpha));
transformsStack.push(g.getTransform());
g.transform(new AffineTransform(1.0f, 0.0f, 0.0f, 1.0f, 0.0f, 0.0f));
// _0_14_0_5
if (generalPath == null) {
   generalPath = new GeneralPath();
} else {
   generalPath.reset();
}
generalPath.moveTo(160.324, 22.5293);
generalPath.lineTo(163.1956, 25.2059);
generalPath.lineTo(160.7896, 26.6963);
generalPath.lineTo(157.9144, 24.015501);
generalPath.closePath();
generalPath.moveTo(167.5294, 23.024302);
generalPath.lineTo(167.5294, 27.2513);
generalPath.lineTo(174.86682, 34.172882);
generalPath.lineTo(172.98283, 36.162483);
generalPath.lineTo(165.4414, 29.048903);
generalPath.lineTo(157.80582, 29.048903);
generalPath.lineTo(167.52943, 23.024323);
generalPath.closePath();
shape = generalPath;
paint = new Color(210, 38, 48, 255);
g.setPaint(paint);
g.fill(shape);
g.setTransform(transformsStack.pop());
g.setComposite(AlphaComposite.getInstance(3, 1.0f * origAlpha));
transformsStack.push(g.getTransform());
g.transform(new AffineTransform(1.0f, 0.0f, 0.0f, 1.0f, 0.0f, 0.0f));
// _0_14_0_6
if (generalPath == null) {
   generalPath = new GeneralPath();
} else {
   generalPath.reset();
}
generalPath.moveTo(144.091, 32.3932);
generalPath.lineTo(146.962, 35.0698);
generalPath.lineTo(144.556, 36.5602);
generalPath.lineTo(141.6808, 33.8794);
generalPath.closePath();
generalPath.moveTo(151.2958, 32.8882);
generalPath.lineTo(151.2958, 37.1152);
generalPath.lineTo(158.63321, 44.03678);
generalPath.lineTo(156.7498, 46.026382);
generalPath.lineTo(149.20837, 38.912804);
generalPath.lineTo(141.57219, 38.912804);
generalPath.lineTo(151.2958, 32.88822);
generalPath.closePath();
shape = generalPath;
paint = new Color(210, 38, 48, 255);
g.setPaint(paint);
g.fill(shape);
g.setTransform(transformsStack.pop());
g.setComposite(AlphaComposite.getInstance(3, 1.0f * origAlpha));
transformsStack.push(g.getTransform());
g.transform(new AffineTransform(1.0f, 0.0f, 0.0f, 1.0f, 0.0f, 0.0f));
// _0_14_0_7
if (generalPath == null) {
   generalPath = new GeneralPath();
} else {
   generalPath.reset();
}
generalPath.moveTo(188.783, 12.0166);
generalPath.lineTo(181.07698, 12.0166);
generalPath.lineTo(176.84216, 16.0978);
generalPath.lineTo(168.51839, 16.0978);
generalPath.lineTo(162.85799, 19.035398);
generalPath.lineTo(163.95299, 21.704199);
generalPath.lineTo(169.0698, 19.017399);
generalPath.lineTo(171.7548, 19.017399);
generalPath.lineTo(179.9868, 28.538208);
generalPath.lineTo(188.78304, 23.182007);
generalPath.closePath();
shape = generalPath;
paint = new Color(210, 38, 48, 255);
g.setPaint(paint);
g.fill(shape);
g.setTransform(transformsStack.pop());
g.setTransform(transformsStack.pop());
g.setComposite(AlphaComposite.getInstance(3, 1.0f * origAlpha));
transformsStack.push(g.getTransform());
g.transform(new AffineTransform(1.0f, 0.0f, 0.0f, -1.0f, 0.0f, 105.62254333496094f));
// _0_14_1
g.setComposite(AlphaComposite.getInstance(3, 1.0f * origAlpha));
transformsStack.push(g.getTransform());
g.transform(new AffineTransform(1.0f, 0.0f, 0.0f, 1.0f, 0.0f, 0.0f));
// _0_14_1_0
g.setComposite(AlphaComposite.getInstance(3, 1.0f * origAlpha));
transformsStack.push(g.getTransform());
g.transform(new AffineTransform(1.0f, 0.0f, 0.0f, 1.0f, 0.0f, 0.0f));
// _0_14_1_0_0
if (generalPath == null) {
   generalPath = new GeneralPath();
} else {
   generalPath.reset();
}
generalPath.moveTo(148.448, 26.2804);
generalPath.lineTo(145.2524, 23.302);
generalPath.lineTo(142.0862, 25.2544);
generalPath.lineTo(145.2872, 28.2388);
generalPath.lineTo(141.1772, 30.7852);
generalPath.lineTo(150.14597, 30.7852);
generalPath.lineTo(157.87518, 38.07582);
generalPath.lineTo(160.3478, 35.464622);
generalPath.lineTo(152.8328, 28.375603);
generalPath.lineTo(152.8328, 23.563602);
generalPath.closePath();
shape = generalPath;
paint = new Color(56, 55, 57, 255);
g.setPaint(paint);
g.fill(shape);
g.setTransform(transformsStack.pop());
g.setComposite(AlphaComposite.getInstance(3, 1.0f * origAlpha));
transformsStack.push(g.getTransform());
g.transform(new AffineTransform(1.0f, 0.0f, 0.0f, 1.0f, 0.0f, 0.0f));
// _0_14_1_0_1
if (generalPath == null) {
   generalPath = new GeneralPath();
} else {
   generalPath.reset();
}
generalPath.moveTo(163.573, 24.9719);
generalPath.lineTo(160.3774, 21.993502);
generalPath.lineTo(157.2112, 23.945902);
generalPath.lineTo(160.4122, 26.930302);
generalPath.lineTo(156.3022, 29.476702);
generalPath.lineTo(165.27097, 29.476702);
generalPath.lineTo(173.00018, 36.767323);
generalPath.lineTo(175.47278, 34.156124);
generalPath.lineTo(167.9578, 27.067104);
generalPath.lineTo(167.9578, 22.255104);
generalPath.closePath();
shape = generalPath;
paint = new Color(56, 55, 57, 255);
g.setPaint(paint);
g.fill(shape);
g.setTransform(transformsStack.pop());
g.setComposite(AlphaComposite.getInstance(3, 1.0f * origAlpha));
transformsStack.push(g.getTransform());
g.transform(new AffineTransform(1.0f, 0.0f, 0.0f, 1.0f, 0.0f, 0.0f));
// _0_14_1_0_2
if (generalPath == null) {
   generalPath = new GeneralPath();
} else {
   generalPath.reset();
}
generalPath.moveTo(147.339, 34.8358);
generalPath.lineTo(144.1434, 31.8574);
generalPath.lineTo(140.9778, 33.8098);
generalPath.lineTo(144.17819, 36.7942);
generalPath.lineTo(140.06879, 39.3406);
generalPath.lineTo(149.03755, 39.3406);
generalPath.lineTo(156.76616, 46.631218);
generalPath.lineTo(159.23875, 44.02002);
generalPath.lineTo(151.72377, 36.931);
generalPath.lineTo(151.72377, 32.119);
generalPath.closePath();
shape = generalPath;
paint = new Color(56, 55, 57, 255);
g.setPaint(paint);
g.fill(shape);
g.setTransform(transformsStack.pop());
g.setComposite(AlphaComposite.getInstance(3, 1.0f * origAlpha));
transformsStack.push(g.getTransform());
g.transform(new AffineTransform(1.0f, 0.0f, 0.0f, 1.0f, 0.0f, 0.0f));
// _0_14_1_0_3
if (generalPath == null) {
   generalPath = new GeneralPath();
} else {
   generalPath.reset();
}
generalPath.moveTo(188.997, 11.5889);
generalPath.lineTo(180.9039, 11.5889);
generalPath.lineTo(176.6691, 15.670099);
generalPath.lineTo(168.41368, 15.670099);
generalPath.lineTo(162.31348, 18.8363);
generalPath.lineTo(163.73608, 22.3025);
generalPath.lineTo(169.1763, 19.4453);
generalPath.lineTo(171.55888, 19.4453);
generalPath.lineTo(179.90007, 29.092098);
generalPath.lineTo(188.99724, 23.552298);
generalPath.closePath();
shape = generalPath;
paint = new Color(56, 55, 57, 255);
g.setPaint(paint);
g.fill(shape);
g.setTransform(transformsStack.pop());
g.setComposite(AlphaComposite.getInstance(3, 1.0f * origAlpha));
transformsStack.push(g.getTransform());
g.transform(new AffineTransform(1.0f, 0.0f, 0.0f, 1.0f, 0.0f, 0.0f));
// _0_14_1_0_4
if (generalPath == null) {
   generalPath = new GeneralPath();
} else {
   generalPath.reset();
}
generalPath.moveTo(145.199, 23.8378);
generalPath.lineTo(148.0706, 26.514399);
generalPath.lineTo(145.6646, 28.004799);
generalPath.lineTo(142.7888, 25.324);
generalPath.closePath();
generalPath.moveTo(152.40442, 24.3328);
generalPath.lineTo(152.40442, 28.5598);
generalPath.lineTo(159.74182, 35.48138);
generalPath.lineTo(157.85782, 37.47098);
generalPath.lineTo(150.3164, 30.356802);
generalPath.lineTo(142.68082, 30.356802);
generalPath.lineTo(152.40442, 24.33282);
generalPath.closePath();
shape = generalPath;
paint = new Color(210, 38, 48, 255);
g.setPaint(paint);
g.fill(shape);
g.setTransform(transformsStack.pop());
g.setComposite(AlphaComposite.getInstance(3, 1.0f * origAlpha));
transformsStack.push(g.getTransform());
g.transform(new AffineTransform(1.0f, 0.0f, 0.0f, 1.0f, 0.0f, 0.0f));
// _0_14_1_0_5
if (generalPath == null) {
   generalPath = new GeneralPath();
} else {
   generalPath.reset();
}
generalPath.moveTo(160.324, 22.5293);
generalPath.lineTo(163.1956, 25.2059);
generalPath.lineTo(160.7896, 26.6963);
generalPath.lineTo(157.9144, 24.015501);
generalPath.closePath();
generalPath.moveTo(167.5294, 23.024302);
generalPath.lineTo(167.5294, 27.2513);
generalPath.lineTo(174.86682, 34.172882);
generalPath.lineTo(172.98283, 36.162483);
generalPath.lineTo(165.4414, 29.048903);
generalPath.lineTo(157.80582, 29.048903);
generalPath.lineTo(167.52943, 23.024323);
generalPath.closePath();
shape = generalPath;
paint = new Color(210, 38, 48, 255);
g.setPaint(paint);
g.fill(shape);
g.setTransform(transformsStack.pop());
g.setComposite(AlphaComposite.getInstance(3, 1.0f * origAlpha));
transformsStack.push(g.getTransform());
g.transform(new AffineTransform(1.0f, 0.0f, 0.0f, 1.0f, 0.0f, 0.0f));
// _0_14_1_0_6
if (generalPath == null) {
   generalPath = new GeneralPath();
} else {
   generalPath.reset();
}
generalPath.moveTo(144.091, 32.3932);
generalPath.lineTo(146.962, 35.0698);
generalPath.lineTo(144.556, 36.5602);
generalPath.lineTo(141.6808, 33.8794);
generalPath.closePath();
generalPath.moveTo(151.2958, 32.8882);
generalPath.lineTo(151.2958, 37.1152);
generalPath.lineTo(158.63321, 44.03678);
generalPath.lineTo(156.7498, 46.026382);
generalPath.lineTo(149.20837, 38.912804);
generalPath.lineTo(141.57219, 38.912804);
generalPath.lineTo(151.2958, 32.88822);
generalPath.closePath();
shape = generalPath;
paint = new Color(210, 38, 48, 255);
g.setPaint(paint);
g.fill(shape);
g.setTransform(transformsStack.pop());
g.setComposite(AlphaComposite.getInstance(3, 1.0f * origAlpha));
transformsStack.push(g.getTransform());
g.transform(new AffineTransform(1.0f, 0.0f, 0.0f, 1.0f, 0.0f, 0.0f));
// _0_14_1_0_7
if (generalPath == null) {
   generalPath = new GeneralPath();
} else {
   generalPath.reset();
}
generalPath.moveTo(188.783, 12.0166);
generalPath.lineTo(181.07698, 12.0166);
generalPath.lineTo(176.84216, 16.0978);
generalPath.lineTo(168.51839, 16.0978);
generalPath.lineTo(162.85799, 19.035398);
generalPath.lineTo(163.95299, 21.704199);
generalPath.lineTo(169.0698, 19.017399);
generalPath.lineTo(171.7548, 19.017399);
generalPath.lineTo(179.9868, 28.538208);
generalPath.lineTo(188.78304, 23.182007);
generalPath.closePath();
shape = generalPath;
paint = new Color(210, 38, 48, 255);
g.setPaint(paint);
g.fill(shape);
g.setTransform(transformsStack.pop());
g.setTransform(transformsStack.pop());
g.setTransform(transformsStack.pop());
g.setComposite(AlphaComposite.getInstance(3, 1.0f * origAlpha));
transformsStack.push(g.getTransform());
g.transform(new AffineTransform(1.0f, 0.0f, 0.0f, 1.0f, 0.0f, 0.0f));
// _0_14_2
if (generalPath == null) {
   generalPath = new GeneralPath();
} else {
   generalPath.reset();
}
generalPath.moveTo(143.054, 39.7108);
generalPath.lineTo(139.1954, 38.269);
generalPath.lineTo(139.103, 38.333202);
generalPath.lineTo(134.12059, 41.7904);
generalPath.lineTo(134.12059, 42.7198);
generalPath.lineTo(126.14059, 52.8112);
generalPath.lineTo(134.12059, 62.9026);
generalPath.lineTo(134.12059, 63.832596);
generalPath.lineTo(139.1954, 67.35339);
generalPath.lineTo(143.054, 65.91159);
generalPath.lineTo(140.699, 64.35219);
generalPath.lineTo(140.699, 61.38519);
generalPath.lineTo(141.635, 60.26559);
generalPath.lineTo(145.8164, 60.26559);
generalPath.lineTo(145.8164, 45.35679);
generalPath.lineTo(141.635, 45.35679);
generalPath.lineTo(140.699, 44.23719);
generalPath.lineTo(140.699, 41.27019);
generalPath.closePath();
shape = generalPath;
paint = new Color(56, 55, 57, 255);
g.setPaint(paint);
g.fill(shape);
g.setTransform(transformsStack.pop());
g.setComposite(AlphaComposite.getInstance(3, 1.0f * origAlpha));
transformsStack.push(g.getTransform());
g.transform(new AffineTransform(1.0f, 0.0f, 0.0f, 1.0f, 0.0f, 0.0f));
// _0_14_3
if (generalPath == null) {
   generalPath = new GeneralPath();
} else {
   generalPath.reset();
}
generalPath.moveTo(134.549, 42.0137);
generalPath.lineTo(139.2554, 38.748497);
generalPath.lineTo(142.1174, 39.817696);
generalPath.lineTo(140.2706, 41.040497);
generalPath.lineTo(140.2706, 44.392696);
generalPath.lineTo(141.4346, 45.784695);
generalPath.lineTo(145.3874, 45.784695);
generalPath.lineTo(145.3874, 59.837894);
generalPath.lineTo(141.4346, 59.837894);
generalPath.lineTo(140.2706, 61.229893);
generalPath.lineTo(140.2706, 64.58209);
generalPath.lineTo(142.1174, 65.80489);
generalPath.lineTo(139.2554, 66.87409);
generalPath.lineTo(134.549, 63.60889);
generalPath.lineTo(134.54959, 62.75389);
generalPath.lineTo(126.68657, 52.81131);
generalPath.lineTo(134.54959, 42.86813);
generalPath.closePath();
shape = generalPath;
paint = new Color(210, 38, 48, 255);
g.setPaint(paint);
g.fill(shape);
g.setTransform(transformsStack.pop());
g.setTransform(transformsStack.pop());
g.setComposite(AlphaComposite.getInstance(3, 1.0f * origAlpha));
transformsStack.push(g.getTransform());
g.transform(new AffineTransform(-1.0f, 0.0f, 0.0f, 1.0f, 377.9936828613281f, 0.0f));
// _0_15
g.setComposite(AlphaComposite.getInstance(3, 1.0f * origAlpha));
transformsStack.push(g.getTransform());
g.transform(new AffineTransform(1.0f, 0.0f, 0.0f, 1.0f, 0.0f, 0.0f));
// _0_15_0
g.setComposite(AlphaComposite.getInstance(3, 1.0f * origAlpha));
transformsStack.push(g.getTransform());
g.transform(new AffineTransform(1.0f, 0.0f, 0.0f, 1.0f, 0.0f, 0.0f));
// _0_15_0_0
g.setComposite(AlphaComposite.getInstance(3, 1.0f * origAlpha));
transformsStack.push(g.getTransform());
g.transform(new AffineTransform(1.0f, 0.0f, 0.0f, 1.0f, 0.0f, 0.0f));
// _0_15_0_0_0
if (generalPath == null) {
   generalPath = new GeneralPath();
} else {
   generalPath.reset();
}
generalPath.moveTo(148.448, 26.2804);
generalPath.lineTo(145.2524, 23.302);
generalPath.lineTo(142.0862, 25.2544);
generalPath.lineTo(145.2872, 28.2388);
generalPath.lineTo(141.1772, 30.7852);
generalPath.lineTo(150.14597, 30.7852);
generalPath.lineTo(157.87518, 38.07582);
generalPath.lineTo(160.3478, 35.464622);
generalPath.lineTo(152.8328, 28.375603);
generalPath.lineTo(152.8328, 23.563602);
generalPath.closePath();
shape = generalPath;
paint = new Color(56, 55, 57, 255);
g.setPaint(paint);
g.fill(shape);
g.setTransform(transformsStack.pop());
g.setComposite(AlphaComposite.getInstance(3, 1.0f * origAlpha));
transformsStack.push(g.getTransform());
g.transform(new AffineTransform(1.0f, 0.0f, 0.0f, 1.0f, 0.0f, 0.0f));
// _0_15_0_0_1
if (generalPath == null) {
   generalPath = new GeneralPath();
} else {
   generalPath.reset();
}
generalPath.moveTo(163.573, 24.9719);
generalPath.lineTo(160.3774, 21.993502);
generalPath.lineTo(157.2112, 23.945902);
generalPath.lineTo(160.4122, 26.930302);
generalPath.lineTo(156.3022, 29.476702);
generalPath.lineTo(165.27097, 29.476702);
generalPath.lineTo(173.00018, 36.767323);
generalPath.lineTo(175.47278, 34.156124);
generalPath.lineTo(167.9578, 27.067104);
generalPath.lineTo(167.9578, 22.255104);
generalPath.closePath();
shape = generalPath;
paint = new Color(56, 55, 57, 255);
g.setPaint(paint);
g.fill(shape);
g.setTransform(transformsStack.pop());
g.setComposite(AlphaComposite.getInstance(3, 1.0f * origAlpha));
transformsStack.push(g.getTransform());
g.transform(new AffineTransform(1.0f, 0.0f, 0.0f, 1.0f, 0.0f, 0.0f));
// _0_15_0_0_2
if (generalPath == null) {
   generalPath = new GeneralPath();
} else {
   generalPath.reset();
}
generalPath.moveTo(147.339, 34.8358);
generalPath.lineTo(144.1434, 31.8574);
generalPath.lineTo(140.9778, 33.8098);
generalPath.lineTo(144.17819, 36.7942);
