package org.pushingpixels.radiance.demo.theming.main.check.svg.filetypes;

import java.awt.*;
import java.awt.geom.*;
import java.awt.image.BufferedImage;
import java.io.*;
import java.lang.ref.WeakReference;
import java.util.Base64;
import java.util.Stack;
import javax.imageio.ImageIO;
import javax.swing.SwingUtilities;
import javax.swing.plaf.UIResource;

import org.pushingpixels.radiance.common.api.icon.RadianceIcon;
import org.pushingpixels.radiance.common.api.icon.RadianceIconUIResource;

/**
 * This class has been automatically generated using <a
 * href="https://github.com/kirill-grouchnikov/radiance">Radiance SVG transcoder</a>.
 */
public class ext_dist implements RadianceIcon {
    private Shape shape = null;
    private GeneralPath generalPath = null;
    private Paint paint = null;
    private Stroke stroke = null;
    private Shape clip = null;
    private RadianceIcon.ColorFilter colorFilter = null;
    private Stack<AffineTransform> transformsStack = new Stack<>();

    

	private void _paint0(Graphics2D g,float origAlpha) {
// 
g.setComposite(AlphaComposite.getInstance(3, 1.0f * origAlpha));
transformsStack.push(g.getTransform());
g.transform(new AffineTransform(0.009999999776482582f, 0.0f, 0.0f, 0.009999999776482582f, 0.13999999687075615f, -0.0f));
// _0
g.setComposite(AlphaComposite.getInstance(3, 1.0f * origAlpha));
// _0_0
if (generalPath == null) {
   generalPath = new GeneralPath();
} else {
   generalPath.reset();
}
generalPath.moveTo(45.0f, 1.0f);
generalPath.lineTo(72.0f, 27.7f);
generalPath.lineTo(72.0f, 99.0f);
generalPath.lineTo(0.0f, 99.0f);
generalPath.lineTo(0.0f, 1.0f);
generalPath.lineTo(45.0f, 1.0f);
generalPath.closePath();
shape = generalPath;
paint = new LinearGradientPaint(new Point2D.Double(36.0, 97.0), new Point2D.Double(36.0, -1.0), new float[] {0.0f,0.139f,0.359f,0.617f,1.0f}, new Color[] {((colorFilter != null) ? colorFilter.filter(new Color(200, 212, 219, 255)) : new Color(200, 212, 219, 255)),((colorFilter != null) ? colorFilter.filter(new Color(216, 225, 230, 255)) : new Color(216, 225, 230, 255)),((colorFilter != null) ? colorFilter.filter(new Color(235, 240, 243, 255)) : new Color(235, 240, 243, 255)),((colorFilter != null) ? colorFilter.filter(new Color(249, 250, 251, 255)) : new Color(249, 250, 251, 255)),((colorFilter != null) ? colorFilter.filter(new Color(255, 255, 255, 255)) : new Color(255, 255, 255, 255))}, MultipleGradientPaint.CycleMethod.NO_CYCLE, MultipleGradientPaint.ColorSpaceType.SRGB, new AffineTransform(1.0f, 0.0f, 0.0f, 1.0f, 0.0f, 2.0f));
g.setPaint(paint);
g.fill(shape);
g.setComposite(AlphaComposite.getInstance(3, 1.0f * origAlpha));
// _0_1
if (generalPath == null) {
   generalPath = new GeneralPath();
} else {
   generalPath.reset();
}
generalPath.moveTo(45.0f, 1.0f);
generalPath.lineTo(72.0f, 27.7f);
generalPath.lineTo(72.0f, 99.0f);
generalPath.lineTo(0.0f, 99.0f);
generalPath.lineTo(0.0f, 1.0f);
generalPath.lineTo(45.0f, 1.0f);
generalPath.closePath();
shape = generalPath;
paint = (colorFilter != null) ? colorFilter.filter(new Color(0, 0, 0, 0)) : new Color(0, 0, 0, 0);
g.setPaint(paint);
g.fill(shape);
paint = (colorFilter != null) ? colorFilter.filter(new Color(113, 145, 161, 255)) : new Color(113, 145, 161, 255);
stroke = new BasicStroke(2.0f,0,0,4.0f,null,0.0f);
if (generalPath == null) {
   generalPath = new GeneralPath();
} else {
   generalPath.reset();
}
generalPath.moveTo(45.0f, 1.0f);
generalPath.lineTo(72.0f, 27.7f);
generalPath.lineTo(72.0f, 99.0f);
generalPath.lineTo(0.0f, 99.0f);
generalPath.lineTo(0.0f, 1.0f);
generalPath.lineTo(45.0f, 1.0f);
generalPath.closePath();
shape = generalPath;
g.setPaint(paint);
g.setStroke(stroke);
g.draw(shape);
g.setComposite(AlphaComposite.getInstance(3, 0.9f * origAlpha));
// _0_2
g.setComposite(AlphaComposite.getInstance(3, 1.0f * origAlpha));
// _0_2_0
if (generalPath == null) {
   generalPath = new GeneralPath();
} else {
   generalPath.reset();
}
generalPath.moveTo(12.0f, 44.7f);
generalPath.lineTo(26.0f, 32.6f);
generalPath.lineTo(26.0f, 38.699997f);
generalPath.lineTo(16.5f, 46.6f);
generalPath.lineTo(16.5f, 46.699997f);
generalPath.lineTo(26.0f, 54.6f);
generalPath.lineTo(26.0f, 60.699997f);
generalPath.lineTo(12.0f, 48.699997f);
generalPath.lineTo(12.0f, 44.699997f);
generalPath.closePath();
shape = generalPath;
paint = new LinearGradientPaint(new Point2D.Double(19.013999938964844, 60.792999267578125), new Point2D.Double(19.013999938964844, 32.60300064086914), new float[] {0.0f,0.153f,0.529f,0.824f,1.0f}, new Color[] {((colorFilter != null) ? colorFilter.filter(new Color(173, 204, 220, 255)) : new Color(173, 204, 220, 255)),((colorFilter != null) ? colorFilter.filter(new Color(154, 185, 201, 255)) : new Color(154, 185, 201, 255)),((colorFilter != null) ? colorFilter.filter(new Color(112, 143, 159, 255)) : new Color(112, 143, 159, 255)),((colorFilter != null) ? colorFilter.filter(new Color(86, 118, 133, 255)) : new Color(86, 118, 133, 255)),((colorFilter != null) ? colorFilter.filter(new Color(76, 108, 123, 255)) : new Color(76, 108, 123, 255))}, MultipleGradientPaint.CycleMethod.NO_CYCLE, MultipleGradientPaint.ColorSpaceType.SRGB, new AffineTransform(1.0f, 0.0f, 0.0f, 1.0f, 0.0f, 0.0f));
g.setPaint(paint);
g.fill(shape);
paint = new LinearGradientPaint(new Point2D.Double(19.013999938964844, 62.979000091552734), new Point2D.Double(19.013999938964844, 30.417999267578125), new float[] {0.0f,0.153f,0.529f,0.824f,1.0f}, new Color[] {((colorFilter != null) ? colorFilter.filter(new Color(173, 204, 220, 255)) : new Color(173, 204, 220, 255)),((colorFilter != null) ? colorFilter.filter(new Color(154, 185, 201, 255)) : new Color(154, 185, 201, 255)),((colorFilter != null) ? colorFilter.filter(new Color(112, 143, 159, 255)) : new Color(112, 143, 159, 255)),((colorFilter != null) ? colorFilter.filter(new Color(86, 118, 133, 255)) : new Color(86, 118, 133, 255)),((colorFilter != null) ? colorFilter.filter(new Color(76, 108, 123, 255)) : new Color(76, 108, 123, 255))}, MultipleGradientPaint.CycleMethod.NO_CYCLE, MultipleGradientPaint.ColorSpaceType.SRGB, new AffineTransform(1.0f, 0.0f, 0.0f, 1.0f, 0.0f, 0.0f));
stroke = new BasicStroke(2.0f,0,0,10.0f,null,0.0f);
if (generalPath == null) {
   generalPath = new GeneralPath();
} else {
   generalPath.reset();
}
generalPath.moveTo(12.0f, 44.7f);
generalPath.lineTo(26.0f, 32.6f);
generalPath.lineTo(26.0f, 38.699997f);
generalPath.lineTo(16.5f, 46.6f);
generalPath.lineTo(16.5f, 46.699997f);
generalPath.lineTo(26.0f, 54.6f);
generalPath.lineTo(26.0f, 60.699997f);
generalPath.lineTo(12.0f, 48.699997f);
generalPath.lineTo(12.0f, 44.699997f);
generalPath.closePath();
shape = generalPath;
g.setPaint(paint);
g.setStroke(stroke);
g.draw(shape);
g.setComposite(AlphaComposite.getInstance(3, 1.0f * origAlpha));
// _0_2_1
if (generalPath == null) {
   generalPath = new GeneralPath();
} else {
   generalPath.reset();
}
generalPath.moveTo(38.4f, 29.5f);
generalPath.lineTo(42.100002f, 29.5f);
generalPath.lineTo(34.9f, 64.5f);
generalPath.lineTo(31.300001f, 64.5f);
generalPath.lineTo(38.4f, 29.5f);
generalPath.closePath();
shape = generalPath;
paint = new LinearGradientPaint(new Point2D.Double(36.68600082397461, 64.5), new Point2D.Double(36.68600082397461, 29.5), new float[] {0.0f,0.153f,0.529f,0.824f,1.0f}, new Color[] {((colorFilter != null) ? colorFilter.filter(new Color(173, 204, 220, 255)) : new Color(173, 204, 220, 255)),((colorFilter != null) ? colorFilter.filter(new Color(154, 185, 201, 255)) : new Color(154, 185, 201, 255)),((colorFilter != null) ? colorFilter.filter(new Color(112, 143, 159, 255)) : new Color(112, 143, 159, 255)),((colorFilter != null) ? colorFilter.filter(new Color(86, 118, 133, 255)) : new Color(86, 118, 133, 255)),((colorFilter != null) ? colorFilter.filter(new Color(76, 108, 123, 255)) : new Color(76, 108, 123, 255))}, MultipleGradientPaint.CycleMethod.NO_CYCLE, MultipleGradientPaint.ColorSpaceType.SRGB, new AffineTransform(1.0f, 0.0f, 0.0f, 1.0f, 0.0f, 0.0f));
g.setPaint(paint);
g.fill(shape);
paint = new LinearGradientPaint(new Point2D.Double(36.6879997253418, 65.5), new Point2D.Double(36.6879997253418, 28.5), new float[] {0.0f,0.153f,0.529f,0.824f,1.0f}, new Color[] {((colorFilter != null) ? colorFilter.filter(new Color(173, 204, 220, 255)) : new Color(173, 204, 220, 255)),((colorFilter != null) ? colorFilter.filter(new Color(154, 185, 201, 255)) : new Color(154, 185, 201, 255)),((colorFilter != null) ? colorFilter.filter(new Color(112, 143, 159, 255)) : new Color(112, 143, 159, 255)),((colorFilter != null) ? colorFilter.filter(new Color(86, 118, 133, 255)) : new Color(86, 118, 133, 255)),((colorFilter != null) ? colorFilter.filter(new Color(76, 108, 123, 255)) : new Color(76, 108, 123, 255))}, MultipleGradientPaint.CycleMethod.NO_CYCLE, MultipleGradientPaint.ColorSpaceType.SRGB, new AffineTransform(1.0f, 0.0f, 0.0f, 1.0f, 0.0f, 0.0f));
stroke = new BasicStroke(2.0f,0,0,10.0f,null,0.0f);
if (generalPath == null) {
   generalPath = new GeneralPath();
} else {
   generalPath.reset();
}
generalPath.moveTo(38.4f, 29.5f);
generalPath.lineTo(42.100002f, 29.5f);
generalPath.lineTo(34.9f, 64.5f);
generalPath.lineTo(31.300001f, 64.5f);
generalPath.lineTo(38.4f, 29.5f);
generalPath.closePath();
shape = generalPath;
g.setPaint(paint);
g.setStroke(stroke);
g.draw(shape);
g.setComposite(AlphaComposite.getInstance(3, 1.0f * origAlpha));
// _0_2_2
if (generalPath == null) {
   generalPath = new GeneralPath();
} else {
   generalPath.reset();
}
generalPath.moveTo(47.2f, 54.8f);
generalPath.lineTo(56.7f, 46.899998f);
generalPath.lineTo(56.7f, 46.8f);
generalPath.lineTo(47.2f, 38.899998f);
generalPath.lineTo(47.2f, 32.8f);
generalPath.lineTo(61.2f, 44.9f);
generalPath.lineTo(61.2f, 49.0f);
generalPath.lineTo(47.2f, 61.1f);
generalPath.lineTo(47.2f, 54.8f);
generalPath.closePath();
shape = generalPath;
paint = new LinearGradientPaint(new Point2D.Double(54.18600082397461, 61.051998138427734), new Point2D.Double(54.18600082397461, 32.689998626708984), new float[] {0.0f,0.153f,0.529f,0.824f,1.0f}, new Color[] {((colorFilter != null) ? colorFilter.filter(new Color(173, 204, 220, 255)) : new Color(173, 204, 220, 255)),((colorFilter != null) ? colorFilter.filter(new Color(154, 185, 201, 255)) : new Color(154, 185, 201, 255)),((colorFilter != null) ? colorFilter.filter(new Color(112, 143, 159, 255)) : new Color(112, 143, 159, 255)),((colorFilter != null) ? colorFilter.filter(new Color(86, 118, 133, 255)) : new Color(86, 118, 133, 255)),((colorFilter != null) ? colorFilter.filter(new Color(76, 108, 123, 255)) : new Color(76, 108, 123, 255))}, MultipleGradientPaint.CycleMethod.NO_CYCLE, MultipleGradientPaint.ColorSpaceType.SRGB, new AffineTransform(1.0f, 0.0f, 0.0f, 1.0f, 0.0f, 0.0f));
g.setPaint(paint);
g.fill(shape);
paint = new LinearGradientPaint(new Point2D.Double(54.18600082397461, 63.237998962402344), new Point2D.Double(54.18600082397461, 30.503999710083008), new float[] {0.0f,0.153f,0.529f,0.824f,1.0f}, new Color[] {((colorFilter != null) ? colorFilter.filter(new Color(173, 204, 220, 255)) : new Color(173, 204, 220, 255)),((colorFilter != null) ? colorFilter.filter(new Color(154, 185, 201, 255)) : new Color(154, 185, 201, 255)),((colorFilter != null) ? colorFilter.filter(new Color(112, 143, 159, 255)) : new Color(112, 143, 159, 255)),((colorFilter != null) ? colorFilter.filter(new Color(86, 118, 133, 255)) : new Color(86, 118, 133, 255)),((colorFilter != null) ? colorFilter.filter(new Color(76, 108, 123, 255)) : new Color(76, 108, 123, 255))}, MultipleGradientPaint.CycleMethod.NO_CYCLE, MultipleGradientPaint.ColorSpaceType.SRGB, new AffineTransform(1.0f, 0.0f, 0.0f, 1.0f, 0.0f, 0.0f));
stroke = new BasicStroke(2.0f,0,0,10.0f,null,0.0f);
if (generalPath == null) {
   generalPath = new GeneralPath();
} else {
   generalPath.reset();
}
generalPath.moveTo(47.2f, 54.8f);
generalPath.lineTo(56.7f, 46.899998f);
generalPath.lineTo(56.7f, 46.8f);
generalPath.lineTo(47.2f, 38.899998f);
generalPath.lineTo(47.2f, 32.8f);
generalPath.lineTo(61.2f, 44.9f);
generalPath.lineTo(61.2f, 49.0f);
generalPath.lineTo(47.2f, 61.1f);
generalPath.lineTo(47.2f, 54.8f);
generalPath.closePath();
shape = generalPath;
g.setPaint(paint);
g.setStroke(stroke);
g.draw(shape);
g.setComposite(AlphaComposite.getInstance(3, 1.0f * origAlpha));
// _0_3
if (generalPath == null) {
   generalPath = new GeneralPath();
} else {
   generalPath.reset();
}
generalPath.moveTo(45.0f, 1.0f);
generalPath.lineTo(72.0f, 27.7f);
generalPath.lineTo(45.0f, 27.7f);
generalPath.lineTo(45.0f, 1.0f);
generalPath.closePath();
shape = generalPath;
paint = new LinearGradientPaint(new Point2D.Double(45.0369987487793, 25.812999725341797), new Point2D.Double(58.5369987487793, 12.312999725341797), new float[] {0.0f,0.35f,0.532f,0.675f,0.799f,0.908f,1.0f}, new Color[] {((colorFilter != null) ? colorFilter.filter(new Color(255, 255, 255, 255)) : new Color(255, 255, 255, 255)),((colorFilter != null) ? colorFilter.filter(new Color(250, 251, 251, 255)) : new Color(250, 251, 251, 255)),((colorFilter != null) ? colorFilter.filter(new Color(237, 241, 244, 255)) : new Color(237, 241, 244, 255)),((colorFilter != null) ? colorFilter.filter(new Color(221, 229, 233, 255)) : new Color(221, 229, 233, 255)),((colorFilter != null) ? colorFilter.filter(new Color(199, 211, 218, 255)) : new Color(199, 211, 218, 255)),((colorFilter != null) ? colorFilter.filter(new Color(173, 189, 199, 255)) : new Color(173, 189, 199, 255)),((colorFilter != null) ? colorFilter.filter(new Color(146, 165, 176, 255)) : new Color(146, 165, 176, 255))}, MultipleGradientPaint.CycleMethod.NO_CYCLE, MultipleGradientPaint.ColorSpaceType.SRGB, new AffineTransform(1.0f, 0.0f, 0.0f, 1.0f, 0.0f, 2.0f));
g.setPaint(paint);
g.fill(shape);
g.setComposite(AlphaComposite.getInstance(3, 1.0f * origAlpha));
// _0_4
if (generalPath == null) {
   generalPath = new GeneralPath();
} else {
   generalPath.reset();
}
generalPath.moveTo(45.0f, 1.0f);
generalPath.lineTo(72.0f, 27.7f);
generalPath.lineTo(45.0f, 27.7f);
generalPath.lineTo(45.0f, 1.0f);
generalPath.closePath();
shape = generalPath;
paint = (colorFilter != null) ? colorFilter.filter(new Color(0, 0, 0, 0)) : new Color(0, 0, 0, 0);
g.setPaint(paint);
g.fill(shape);
paint = (colorFilter != null) ? colorFilter.filter(new Color(113, 145, 161, 255)) : new Color(113, 145, 161, 255);
stroke = new BasicStroke(2.0f,0,2,4.0f,null,0.0f);
if (generalPath == null) {
   generalPath = new GeneralPath();
} else {
   generalPath.reset();
}
generalPath.moveTo(45.0f, 1.0f);
generalPath.lineTo(72.0f, 27.7f);
generalPath.lineTo(45.0f, 27.7f);
generalPath.lineTo(45.0f, 1.0f);
generalPath.closePath();
shape = generalPath;
g.setPaint(paint);
g.setStroke(stroke);
g.draw(shape);
g.setComposite(AlphaComposite.getInstance(3, 1.0f * origAlpha));
// _0_5
if (generalPath == null) {
   generalPath = new GeneralPath();
} else {
   generalPath.reset();
}
generalPath.moveTo(12.3f, 75.8f);
generalPath.lineTo(18.2f, 75.8f);
generalPath.curveTo(19.5f, 75.8f, 20.5f, 75.9f, 21.2f, 76.100006f);
generalPath.curveTo(22.1f, 76.40001f, 22.900002f, 76.90001f, 23.6f, 77.600006f);
generalPath.curveTo(24.3f, 78.3f, 24.800001f, 79.100006f, 25.1f, 80.200005f);
generalPath.curveTo(25.4f, 81.200005f, 25.6f, 82.4f, 25.6f, 83.9f);
generalPath.curveTo(25.6f, 85.200005f, 25.4f, 86.3f, 25.1f, 87.3f);
generalPath.curveTo(24.7f, 88.4f, 24.1f, 89.4f, 23.4f, 90.100006f);
generalPath.curveTo(22.8f, 90.600006f, 22.1f, 91.100006f, 21.1f, 91.40001f);
generalPath.curveTo(20.4f, 91.600006f, 19.4f, 91.70001f, 18.300001f, 91.70001f);
generalPath.lineTo(12.300001f, 91.70001f);
generalPath.lineTo(12.300001f, 75.8f);
generalPath.closePath();
generalPath.moveTo(15.5f, 78.5f);
generalPath.lineTo(15.5f, 88.9f);
generalPath.lineTo(17.9f, 88.9f);
generalPath.curveTo(18.8f, 88.9f, 19.4f, 88.9f, 19.8f, 88.700005f);
generalPath.curveTo(20.3f, 88.600006f, 20.8f, 88.4f, 21.099998f, 88.00001f);
generalPath.curveTo(21.399998f, 87.60001f, 21.699999f, 87.200005f, 21.899998f, 86.50001f);
generalPath.curveTo(22.099998f, 85.80001f, 22.199997f, 84.80001f, 22.199997f, 83.600006f);
generalPath.curveTo(22.199997f, 82.4f, 22.099997f, 81.40001f, 21.899998f, 80.8f);
generalPath.curveTo(21.699997f, 80.100006f, 21.399998f, 79.600006f, 20.999998f, 79.3f);
generalPath.curveTo(20.599998f, 78.9f, 20.099998f, 78.700005f, 19.499998f, 78.600006f);
generalPath.curveTo(19.099998f, 78.50001f, 18.199999f, 78.40001f, 16.899998f, 78.40001f);
generalPath.lineTo(15.499998f, 78.40001f);
generalPath.closePath();
generalPath.moveTo(28.3f, 91.5f);
generalPath.lineTo(28.3f, 75.8f);
generalPath.lineTo(31.5f, 75.8f);
generalPath.lineTo(31.5f, 91.5f);
generalPath.lineTo(28.3f, 91.5f);
generalPath.closePath();
generalPath.moveTo(33.7f, 86.4f);
generalPath.lineTo(36.8f, 86.1f);
generalPath.curveTo(37.0f, 87.1f, 37.399998f, 87.9f, 37.899998f, 88.4f);
generalPath.curveTo(38.399998f, 88.9f, 39.3f, 89.1f, 40.199997f, 89.1f);
generalPath.curveTo(41.199997f, 89.1f, 41.999996f, 88.9f, 42.499996f, 88.4f);
generalPath.curveTo(42.999996f, 88.0f, 43.299995f, 87.5f, 43.299995f, 86.9f);
generalPath.curveTo(43.299995f, 86.5f, 43.199997f, 86.200005f, 42.999996f, 85.9f);
generalPath.curveTo(42.799995f, 85.6f, 42.399998f, 85.4f, 41.799995f, 85.200005f);
generalPath.curveTo(41.399994f, 85.100006f, 40.599995f, 84.8f, 39.199997f, 84.50001f);
generalPath.curveTo(37.499996f, 84.100006f, 36.299995f, 83.600006f, 35.6f, 82.90001f);
generalPath.curveTo(34.6f, 82.00001f, 34.1f, 81.00001f, 34.1f, 79.70001f);
generalPath.curveTo(34.1f, 78.90001f, 34.3f, 78.10001f, 34.8f, 77.500015f);
generalPath.curveTo(35.3f, 76.80002f, 35.899998f, 76.30002f, 36.8f, 75.90002f);
generalPath.curveTo(37.7f, 75.500015f, 38.7f, 75.40002f, 39.899998f, 75.40002f);
generalPath.curveTo(41.899998f, 75.40002f, 43.399998f, 75.80002f, 44.399998f, 76.70002f);
generalPath.curveTo(45.399998f, 77.60002f, 45.899998f, 78.70002f, 45.999996f, 80.20002f);
generalPath.lineTo(42.999996f, 80.40002f);
generalPath.curveTo(42.899998f, 79.60001f, 42.599995f, 79.000015f, 42.099995f, 78.70002f);
generalPath.curveTo(41.599995f, 78.30002f, 40.999996f, 78.20002f, 40.099995f, 78.20002f);
generalPath.curveTo(39.199993f, 78.20002f, 38.399994f, 78.40002f, 37.899994f, 78.80002f);
generalPath.curveTo(37.599995f, 79.000015f, 37.399994f, 79.40002f, 37.399994f, 79.80002f);
generalPath.curveTo(37.399994f, 80.20002f, 37.599995f, 80.500015f, 37.899994f, 80.80002f);
generalPath.curveTo(38.299995f, 81.10002f, 39.299995f, 81.500015f, 40.899994f, 81.90002f);
generalPath.curveTo(42.499992f, 82.30002f, 43.599995f, 82.60001f, 44.399994f, 83.000015f);
generalPath.curveTo(45.099995f, 83.40002f, 45.699993f, 83.90002f, 46.199993f, 84.60001f);
generalPath.curveTo(46.599995f, 85.30001f, 46.79999f, 86.10001f, 46.79999f, 87.10001f);
generalPath.curveTo(46.79999f, 88.000015f, 46.499992f, 88.80001f, 45.999992f, 89.60001f);
generalPath.curveTo(45.499992f, 90.40002f, 44.79999f, 91.000015f, 43.899994f, 91.40002f);
generalPath.curveTo(42.999992f, 91.80002f, 41.799995f, 92.000015f, 40.399994f, 92.000015f);
generalPath.curveTo(38.399994f, 92.000015f, 36.799995f, 91.500015f, 35.799995f, 90.60001f);
generalPath.curveTo(34.599995f, 89.500015f, 33.899994f, 88.20001f, 33.699997f, 86.40002f);
generalPath.closePath();
generalPath.moveTo(52.9f, 91.5f);
generalPath.lineTo(52.9f, 78.5f);
generalPath.lineTo(48.2f, 78.5f);
generalPath.lineTo(48.2f, 75.8f);
generalPath.lineTo(60.800003f, 75.8f);
generalPath.lineTo(60.800003f, 78.5f);
generalPath.lineTo(56.100002f, 78.5f);
generalPath.lineTo(56.100002f, 91.6f);
generalPath.lineTo(52.9f, 91.6f);
generalPath.closePath();
shape = generalPath;
paint = (colorFilter != null) ? colorFilter.filter(new Color(76, 108, 123, 255)) : new Color(76, 108, 123, 255);
g.setPaint(paint);
g.fill(shape);
g.setTransform(transformsStack.pop());

}



    @SuppressWarnings("unused")
	private void innerPaint(Graphics2D g) {
        float origAlpha = 1.0f;
        Composite origComposite = g.getComposite();
        if (origComposite instanceof AlphaComposite) {
            AlphaComposite origAlphaComposite = 
                (AlphaComposite)origComposite;
            if (origAlphaComposite.getRule() == AlphaComposite.SRC_OVER) {
                origAlpha = origAlphaComposite.getAlpha();
            }
        }
        
	    _paint0(g, origAlpha);


	    shape = null;
	    generalPath = null;
	    paint = null;
	    stroke = null;
	    clip = null;
        transformsStack.clear();
	}

    /**
     * Returns the X of the bounding box of the original SVG image.
     * 
     * @return The X of the bounding box of the original SVG image.
     */
    public static double getOrigX() {
        return 0.12999999523162842;
    }

    /**
     * Returns the Y of the bounding box of the original SVG image.
     * 
     * @return The Y of the bounding box of the original SVG image.
     */
    public static double getOrigY() {
        return 0.0;
    }

	/**
	 * Returns the width of the bounding box of the original SVG image.
	 * 
	 * @return The width of the bounding box of the original SVG image.
	 */
	public static double getOrigWidth() {
		return 0.7400000095367432;
	}

	/**
	 * Returns the height of the bounding box of the original SVG image.
	 * 
	 * @return The height of the bounding box of the original SVG image.
	 */
	public static double getOrigHeight() {
		return 1.0;
	}

	/** The current width of this icon. */
	private int width;

    /** The current height of this icon. */
	private int height;

	/**
	 * Creates a new transcoded SVG image. This is marked as private to indicate that app
	 * code should be using the {@link #of(int, int)} method to obtain a pre-configured instance.
	 */
	private ext_dist() {
        this.width = (int) getOrigWidth();
        this.height = (int) getOrigHeight();
	}

    @Override
	public int getIconHeight() {
		return height;
	}

    @Override
	public int getIconWidth() {
		return width;
	}

	@Override
	public synchronized void setDimension(Dimension newDimension) {
		this.width = newDimension.width;
		this.height = newDimension.height;
	}

    @Override
    public boolean supportsColorFilter() {
        return true;
    }

    @Override
    public void setColorFilter(ColorFilter colorFilter) {
        this.colorFilter = colorFilter;
    }

    @Override
	public synchronized void paintIcon(Component c, Graphics g, int x, int y) {
		Graphics2D g2d = (Graphics2D) g.create();
		g2d.setRenderingHint(RenderingHints.KEY_ANTIALIASING,
				RenderingHints.VALUE_ANTIALIAS_ON);
        g2d.setRenderingHint(RenderingHints.KEY_INTERPOLATION,
                RenderingHints.VALUE_INTERPOLATION_BICUBIC);
		g2d.translate(x, y);

        double coef1 = (double) this.width / getOrigWidth();
        double coef2 = (double) this.height / getOrigHeight();
        double coef = Math.min(coef1, coef2);
        g2d.clipRect(0, 0, this.width, this.height);
        g2d.scale(coef, coef);
        g2d.translate(-getOrigX(), -getOrigY());
        if (coef1 != coef2) {
            if (coef1 < coef2) {
               int extraDy = (int) ((getOrigWidth() - getOrigHeight()) / 2.0);
               g2d.translate(0, extraDy);
            } else {
               int extraDx = (int) ((getOrigHeight() - getOrigWidth()) / 2.0);
               g2d.translate(extraDx, 0);
            }
        }
        Graphics2D g2ForInner = (Graphics2D) g2d.create();
        innerPaint(g2ForInner);
        g2ForInner.dispose();
        g2d.dispose();
	}
    
    /**
     * Returns a new instance of this icon with specified dimensions.
     *
     * @param width Required width of the icon
     * @param height Required height of the icon
     * @return A new instance of this icon with specified dimensions.
     */
    public static RadianceIcon of(int width, int height) {
       ext_dist base = new ext_dist();
       base.width = width;
       base.height = height;
       return base;
    }

    /**
     * Returns a new {@link UIResource} instance of this icon with specified dimensions.
     *
     * @param width Required width of the icon
     * @param height Required height of the icon
     * @return A new {@link UIResource} instance of this icon with specified dimensions.
     */
    public static RadianceIconUIResource uiResourceOf(int width, int height) {
       ext_dist base = new ext_dist();
       base.width = width;
       base.height = height;
       return new RadianceIconUIResource(base);
    }

    /**
     * Returns a factory that returns instances of this icon on demand.
     *
     * @return Factory that returns instances of this icon on demand.
     */
    public static Factory factory() {
        return ext_dist::new;
    }
}

